{"learner":{"attributes":{"scikit_learn":"{\"_estimator_type\": \"classifier\"}"},"feature_names":["age","bp","sg","al","bgr","bu","sc","hemo","pcv","wc","htn","dm","ane","egfr"],"feature_types":["float","float","float","float","float","float","float","float","float","float","int","int","int","float"],"gradient_booster":{"model":{"cats":{"enc":[],"feature_segments":[],"sorted_idx":[]},"gbtree_model_param":{"num_parallel_tree":"1","num_trees":"1000"},"iteration_indptr":[0,1,2,3,4,5,6,7,8,9,10,11,12,13,14,15,16,17,18,19,20,21,22,23,24,25,26,27,28,29,30,31,32,33,34,35,36,37,38,39,40,41,42,43,44,45,46,47,48,49,50,51,52,53,54,55,56,57,58,59,60,61,62,63,64,65,66,67,68,69,70,71,72,73,74,75,76,77,78,79,80,81,82,83,84,85,86,87,88,89,90,91,92,93,94,95,96,97,98,99,100,101,102,103,104,105,106,107,108,109,110,111,112,113,114,115,116,117,118,119,120,121,122,123,124,125,126,127,128,129,130,131,132,133,134,135,136,137,138,139,140,141,142,143,144,145,146,147,148,149,150,151,152,153,154,155,156,157,158,159,160,161,162,163,164,165,166,167,168,169,170,171,172,173,174,175,176,177,178,179,180,181,182,183,184,185,186,187,188,189,190,191,192,193,194,195,196,197,198,199,200,201,202,203,204,205,206,207,208,209,210,211,212,213,214,215,216,217,218,219,220,221,222,223,224,225,226,227,228,229,230,231,232,233,234,235,236,237,238,239,240,241,242,243,244,245,246,247,248,249,250,251,252,253,254,255,256,257,258,259,260,261,262,263,264,265,266,267,268,269,270,271,272,273,274,275,276,277,278,279,280,281,282,283,284,285,286,287,288,289,290,291,292,293,294,295,296,297,298,299,300,301,302,303,304,305,306,307,308,309,310,311,312,313,314,315,316,317,318,319,320,321,322,323,324,325,326,327,328,329,330,331,332,333,334,335,336,337,338,339,340,341,342,343,344,345,346,347,348,349,350,351,352,353,354,355,356,357,358,359,360,361,362,363,364,365,366,367,368,369,370,371,372,373,374,375,376,377,378,379,380,381,382,383,384,385,386,387,388,389,390,391,392,393,394,395,396,397,398,399,400,401,402,403,404,405,406,407,408,409,410,411,412,413,414,415,416,417,418,419,420,421,422,423,424,425,426,427,428,429,430,431,432,433,434,435,436,437,438,439,440,441,442,443,444,445,446,447,448,449,450,451,452,453,454,455,456,457,458,459,460,461,462,463,464,465,466,467,468,469,470,471,472,473,474,475,476,477,478,479,480,481,482,483,484,485,486,487,488,489,490,491,492,493,494,495,496,497,498,499,500,501,502,503,504,505,506,507,508,509,510,511,512,513,514,515,516,517,518,519,520,521,522,523,524,525,526,527,528,529,530,531,532,533,534,535,536,537,538,539,540,541,542,543,544,545,546,547,548,549,550,551,552,553,554,555,556,557,558,559,560,561,562,563,564,565,566,567,568,569,570,571,572,573,574,575,576,577,578,579,580,581,582,583,584,585,586,587,588,589,590,591,592,593,594,595,596,597,598,599,600,601,602,603,604,605,606,607,608,609,610,611,612,613,614,615,616,617,618,619,620,621,622,623,624,625,626,627,628,629,630,631,632,633,634,635,636,637,638,639,640,641,642,643,644,645,646,647,648,649,650,651,652,653,654,655,656,657,658,659,660,661,662,663,664,665,666,667,668,669,670,671,672,673,674,675,676,677,678,679,680,681,682,683,684,685,686,687,688,689,690,691,692,693,694,695,696,697,698,699,700,701,702,703,704,705,706,707,708,709,710,711,712,713,714,715,716,717,718,719,720,721,722,723,724,725,726,727,728,729,730,731,732,733,734,735,736,737,738,739,740,741,742,743,744,745,746,747,748,749,750,751,752,753,754,755,756,757,758,759,760,761,762,763,764,765,766,767,768,769,770,771,772,773,774,775,776,777,778,779,780,781,782,783,784,785,786,787,788,789,790,791,792,793,794,795,796,797,798,799,800,801,802,803,804,805,806,807,808,809,810,811,812,813,814,815,816,817,818,819,820,821,822,823,824,825,826,827,828,829,830,831,832,833,834,835,836,837,838,839,840,841,842,843,844,845,846,847,848,849,850,851,852,853,854,855,856,857,858,859,860,861,862,863,864,865,866,867,868,869,870,871,872,873,874,875,876,877,878,879,880,881,882,883,884,885,886,887,888,889,890,891,892,893,894,895,896,897,898,899,900,901,902,903,904,905,906,907,908,909,910,911,912,913,914,915,916,917,918,919,920,921,922,923,924,925,926,927,928,929,930,931,932,933,934,935,936,937,938,939,940,941,942,943,944,945,946,947,948,949,950,951,952,953,954,955,956,957,958,959,960,961,962,963,964,965,966,967,968,969,970,971,972,973,974,975,976,977,978,979,980,981,982,983,984,985,986,987,988,989,990,991,992,993,994,995,996,997,998,999,1000],"tree_info":[0,0,0,0,0,0,0,0,0,0,0,0,0,0,0,0,0,0,0,0,0,0,0,0,0,0,0,0,0,0,0,0,0,0,0,0,0,0,0,0,0,0,0,0,0,0,0,0,0,0,0,0,0,0,0,0,0,0,0,0,0,0,0,0,0,0,0,0,0,0,0,0,0,0,0,0,0,0,0,0,0,0,0,0,0,0,0,0,0,0,0,0,0,0,0,0,0,0,0,0,0,0,0,0,0,0,0,0,0,0,0,0,0,0,0,0,0,0,0,0,0,0,0,0,0,0,0,0,0,0,0,0,0,0,0,0,0,0,0,0,0,0,0,0,0,0,0,0,0,0,0,0,0,0,0,0,0,0,0,0,0,0,0,0,0,0,0,0,0,0,0,0,0,0,0,0,0,0,0,0,0,0,0,0,0,0,0,0,0,0,0,0,0,0,0,0,0,0,0,0,0,0,0,0,0,0,0,0,0,0,0,0,0,0,0,0,0,0,0,0,0,0,0,0,0,0,0,0,0,0,0,0,0,0,0,0,0,0,0,0,0,0,0,0,0,0,0,0,0,0,0,0,0,0,0,0,0,0,0,0,0,0,0,0,0,0,0,0,0,0,0,0,0,0,0,0,0,0,0,0,0,0,0,0,0,0,0,0,0,0,0,0,0,0,0,0,0,0,0,0,0,0,0,0,0,0,0,0,0,0,0,0,0,0,0,0,0,0,0,0,0,0,0,0,0,0,0,0,0,0,0,0,0,0,0,0,0,0,0,0,0,0,0,0,0,0,0,0,0,0,0,0,0,0,0,0,0,0,0,0,0,0,0,0,0,0,0,0,0,0,0,0,0,0,0,0,0,0,0,0,0,0,0,0,0,0,0,0,0,0,0,0,0,0,0,0,0,0,0,0,0,0,0,0,0,0,0,0,0,0,0,0,0,0,0,0,0,0,0,0,0,0,0,0,0,0,0,0,0,0,0,0,0,0,0,0,0,0,0,0,0,0,0,0,0,0,0,0,0,0,0,0,0,0,0,0,0,0,0,0,0,0,0,0,0,0,0,0,0,0,0,0,0,0,0,0,0,0,0,0,0,0,0,0,0,0,0,0,0,0,0,0,0,0,0,0,0,0,0,0,0,0,0,0,0,0,0,0,0,0,0,0,0,0,0,0,0,0,0,0,0,0,0,0,0,0,0,0,0,0,0,0,0,0,0,0,0,0,0,0,0,0,0,0,0,0,0,0,0,0,0,0,0,0,0,0,0,0,0,0,0,0,0,0,0,0,0,0,0,0,0,0,0,0,0,0,0,0,0,0,0,0,0,0,0,0,0,0,0,0,0,0,0,0,0,0,0,0,0,0,0,0,0,0,0,0,0,0,0,0,0,0,0,0,0,0,0,0,0,0,0,0,0,0,0,0,0,0,0,0,0,0,0,0,0,0,0,0,0,0,0,0,0,0,0,0,0,0,0,0,0,0,0,0,0,0,0,0,0,0,0,0,0,0,0,0,0,0,0,0,0,0,0,0,0,0,0,0,0,0,0,0,0,0,0,0,0,0,0,0,0,0,0,0,0,0,0,0,0,0,0,0,0,0,0,0,0,0,0,0,0,0,0,0,0,0,0,0,0,0,0,0,0,0,0,0,0,0,0,0,0,0,0,0,0,0,0,0,0,0,0,0,0,0,0,0,0,0,0,0,0,0,0,0,0,0,0,0,0,0,0,0,0,0,0,0,0,0,0,0,0,0,0,0,0,0,0,0,0,0,0,0,0,0,0,0,0,0,0,0,0,0,0,0,0,0,0,0,0,0,0,0,0,0,0,0,0,0,0,0,0,0,0,0,0,0,0,0,0,0,0,0,0,0,0,0,0,0,0,0,0,0,0,0,0,0,0,0,0,0,0,0,0,0,0,0,0,0,0,0,0,0,0,0,0,0,0,0,0,0,0,0,0,0,0,0,0,0,0,0,0,0,0,0,0,0,0,0,0,0,0,0,0,0,0,0,0,0,0,0,0,0,0,0,0,0,0,0,0,0,0,0,0,0,0,0,0,0,0,0,0,0,0,0,0,0,0,0,0,0,0,0,0,0,0,0,0,0,0,0,0,0,0,0,0,0,0,0,0,0,0,0,0,0,0,0,0,0,0,0,0,0,0,0,0,0,0,0,0,0,0,0,0,0,0,0,0,0,0,0,0,0,0,0,0,0,0,0,0,0,0,0,0,0,0,0,0,0,0,0,0,0,0,0,0,0,0,0,0,0],"trees":[{"base_weights":[3.846154E-2,1.704918E0,-1.5661376E0,7.1794873E-1,5.5657893E-2,3.4285717E-2,-5.4886363E-2,3.8399998E-2,-2.7272727E-3],"categories":[],"categories_nodes":[],"categories_segments":[],"categories_sizes":[],"default_left":[0,0,0,0,0,0,0,0,0],"id":0,"left_children":[1,3,5,7,-1,-1,-1,-1,-1],"loss_changes":[2.4874318E2,2.8380737E0,3.824138E1,5.259814E0,0E0,0E0,0E0,0E0,0E0],"parents":[2147483647,0,0,1,1,2,2,3,3],"right_children":[2,4,6,8,-1,-1,-1,-1,-1],"split_conditions":[1.3079344E1,1.1006953E0,1.02E0,1.02E0,5.5657893E-2,3.4285717E-2,-5.4886363E-2,3.8399998E-2,-2.7272727E-3],"split_indices":[7,6,2,2,0,0,0,0,0],"split_type":[0,0,0,0,0,0,0,0,0],"sum_hessian":[8.9E1,4.375E1,4.525E1,7.75E0,3.6E1,3.25E0,4.2E1,4.25E0,3.5E0],"tree_param":{"num_deleted":"0","num_feature":"14","num_nodes":"9","size_leaf_vector":"1"}},{"base_weights":[-0E0,1.7100549E0,-1.51788E0,5.4866526E-2,1.888468E-2,3.5776503E-2,-5.419134E-2],"categories":[],"categories_nodes":[],"categories_segments":[],"categories_sizes":[],"default_left":[0,0,0,0,0,0,0],"id":1,"left_children":[1,3,5,-1,-1,-1,-1],"loss_changes":[2.3920834E2,2.0180435E0,4.290474E1,0E0,0E0,0E0,0E0],"parents":[2147483647,0,0,1,1,2,2],"right_children":[2,4,6,-1,-1,-1,-1],"split_conditions":[1.3E1,7.626231E1,1.02E0,5.4866526E-2,1.888468E-2,3.5776503E-2,-5.419134E-2],"split_indices":[7,13,2,0,0,0,0],"split_type":[0,0,0,0,0,0,0],"sum_hessian":[8.818777E1,4.122142E1,4.696635E1,3.5472725E1,5.7486963E0,3.748538E0,4.321781E1],"tree_param":{"num_deleted":"0","num_feature":"14","num_nodes":"7","size_leaf_vector":"1"}},{"base_weights":[-3.4063343E-2,1.5993766E0,-1.5075723E0,5.2571323E-2,5.041308E-1,3.3010148E-2,-5.269234E-2,2.2036515E-2,-0E0],"categories":[],"categories_nodes":[],"categories_segments":[],"categories_sizes":[],"default_left":[0,0,0,0,0,0,0,0,0],"id":2,"left_children":[1,3,5,-1,7,-1,-1,-1,-1],"loss_changes":[2.1961777E2,4.3344574E0,3.5419746E1,0E0,6.7233634E-1,0E0,0E0,0E0,0E0],"parents":[2147483647,0,0,1,1,2,2,4,4],"right_children":[2,4,6,-1,8,-1,-1,-1,-1],"split_conditions":[1.3079344E1,7.626231E1,1.02E0,5.2571323E-2,2.2068573E1,3.3010148E-2,-5.269234E-2,2.2036515E-2,-0E0],"split_indices":[7,13,2,0,5,0,0,0,0],"split_type":[0,0,0,0,0,0,0,0,0],"sum_hessian":[8.726103E1,4.1142673E1,4.6118362E1,3.464625E1,6.4964204E0,3.2460148E0,4.287235E1,3.2480898E0,3.2483306E0],"tree_param":{"num_deleted":"0","num_feature":"14","num_nodes":"9","size_leaf_vector":"1"}},{"base_weights":[-4.91321E-3,1.5828573E0,-1.5154043E0,5.1573563E-2,5.768078E-1,-0E0,-4.9036093E-2,3.5150383E-2,-5.964063E-3],"categories":[],"categories_nodes":[],"categories_segments":[],"categories_sizes":[],"default_left":[0,0,0,0,0,0,0,0,0],"id":3,"left_children":[1,3,5,-1,7,-1,-1,-1,-1],"loss_changes":[2.2948315E2,3.2430115E0,9.157677E0,0E0,5.102092E0,0E0,0E0,0E0,0E0],"parents":[2147483647,0,0,1,1,2,2,4,4],"right_children":[2,4,6,-1,8,-1,-1,-1,-1],"split_conditions":[1.3079344E1,7.626231E1,6.622436E1,5.1573563E-2,1.02E0,-0E0,-4.9036093E-2,3.5150383E-2,-5.964063E-3],"split_indices":[7,13,13,0,2,0,0,0,0],"split_type":[0,0,0,0,0,0,0,0,0],"sum_hessian":[9.1699005E1,4.449779E1,4.7201214E1,3.750366E1,6.9941344E0,3.4829953E0,4.3718216E1,3.7450926E0,3.2490416E0],"tree_param":{"num_deleted":"0","num_feature":"14","num_nodes":"9","size_leaf_vector":"1"}},{"base_weights":[2.1563405E-2,1.5685042E0,-1.4385896E0,5.1079858E-2,6.0384E-1,1.1814777E-2,-4.788696E-2,3.509175E-2,-3.489264E-3],"categories":[],"categories_nodes":[],"categories_segments":[],"categories_sizes":[],"default_left":[0,0,0,0,0,0,0,0,0],"id":4,"left_children":[1,3,5,-1,7,-1,-1,-1,-1],"loss_changes":[2.1593828E2,2.8160706E0,1.6016937E1,0E0,4.563754E0,0E0,0E0,0E0,0E0],"parents":[2147483647,0,0,1,1,2,2,4,4],"right_children":[2,4,6,-1,8,-1,-1,-1,-1],"split_conditions":[1.3079344E1,7.626231E1,6.564068E1,5.1079858E-2,1.25E1,1.1814777E-2,-4.788696E-2,3.509175E-2,-3.489264E-3],"split_indices":[7,13,13,0,7,0,0,0,0],"split_type":[0,0,0,0,0,0,0,0,0],"sum_hessian":[9.157324E1,4.4559383E1,4.701386E1,3.7320736E1,7.2386484E0,3.2355895E0,4.377827E1,3.7430985E0,3.49555E0],"tree_param":{"num_deleted":"0","num_feature":"14","num_nodes":"9","size_leaf_vector":"1"}},{"base_weights":[3.220471E-2,4.6518218E-2,-1.3999513E0,-4.492892E-2,-0E0],"categories":[],"categories_nodes":[],"categories_segments":[],"categories_sizes":[],"default_left":[0,0,0,0,0],"id":5,"left_children":[1,-1,3,-1,-1],"loss_changes":[2.0473463E2,0E0,6.450989E0,0E0,0E0],"parents":[2147483647,0,0,2,2],"right_children":[2,-1,4,-1,-1],"split_conditions":[1.3079344E1,4.6518218E-2,1.3358466E2,-4.492892E-2,-0E0],"split_indices":[7,0,4,0,0],"split_type":[0,0,0,0,0],"sum_hessian":[9.01175E1,4.3830822E1,4.6286674E1,4.3069504E1,3.2171707E0],"tree_param":{"num_deleted":"0","num_feature":"14","num_nodes":"5","size_leaf_vector":"1"}},{"base_weights":[-0E0,1.4903976E0,-1.3906256E0,4.8720587E-2,6.8743557E-1,-4.580857E-2,6.8256776E-3,3.6741313E-2,-4.567864E-3],"categories":[],"categories_nodes":[],"categories_segments":[],"categories_sizes":[],"default_left":[0,0,0,0,0,0,0,0,0],"id":6,"left_children":[1,3,5,-1,7,-1,-1,-1,-1],"loss_changes":[1.939714E2,1.4488144E0,1.2047211E1,0E0,5.616522E0,0E0,0E0,0E0,0E0],"parents":[2147483647,0,0,1,1,2,2,4,4],"right_children":[2,4,6,-1,8,-1,-1,-1,-1],"split_conditions":[1.3079344E1,6.757548E1,1.3E0,4.8720587E-2,1.02E0,-4.580857E-2,6.8256776E-3,3.6741313E-2,-4.567864E-3],"split_indices":[7,13,6,0,2,0,0,0,0],"split_type":[0,0,0,0,0,0,0,0,0],"sum_hessian":[8.9602295E1,4.3085396E1,4.65169E1,3.4651264E1,8.434134E0,4.3291374E1,3.2255244E0,4.947155E0,3.486978E0],"tree_param":{"num_deleted":"0","num_feature":"14","num_nodes":"9","size_leaf_vector":"1"}},{"base_weights":[-1.0202884E-2,1.4348727E0,-1.3548617E0,5.0906646E-1,4.7025573E-2,-4.536577E-2,1.2218606E-2,3.2280885E-2,-4.5160335E-3],"categories":[],"categories_nodes":[],"categories_segments":[],"categories_sizes":[],"default_left":[0,0,0,0,0,0,0,0,0],"id":7,"left_children":[1,3,5,7,-1,-1,-1,-1,-1],"loss_changes":[1.7831337E2,2.7776413E0,1.5013184E1,4.1363697E0,0E0,0E0,0E0,0E0,0E0],"parents":[2147483647,0,0,1,1,2,2,3,3],"right_children":[2,4,6,8,-1,-1,-1,-1,-1],"split_conditions":[1.3079344E1,1.1006953E0,1.2936442E0,1.25E1,4.7025573E-2,-4.536577E-2,1.2218606E-2,3.2280885E-2,-4.5160335E-3],"split_indices":[7,6,6,7,0,0,0,0,0],"split_type":[0,0,0,0,0,0,0,0,0],"sum_hessian":[8.7785515E1,4.2068928E1,4.5716583E1,6.9570527E0,3.5111874E1,4.249034E1,3.2262418E0,3.4698727E0,3.48718E0],"tree_param":{"num_deleted":"0","num_feature":"14","num_nodes":"9","size_leaf_vector":"1"}},{"base_weights":[2.9649664E-2,1.464232E0,-1.2363297E0,4.6873514E-2,1.80563E-2,3.64972E-2,-4.6033956E-2],"categories":[],"categories_nodes":[],"categories_segments":[],"categories_sizes":[],"default_left":[0,0,0,0,0,0,0],"id":8,"left_children":[1,3,5,-1,-1,-1,-1],"loss_changes":[1.6692982E2,6.9812775E-1,3.9457817E1,0E0,0E0,0E0,0E0],"parents":[2147483647,0,0,1,1,2,2],"right_children":[2,4,6,-1,-1,-1,-1],"split_conditions":[1.3E1,7.626231E1,1.02E0,4.6873514E-2,1.80563E-2,3.64972E-2,-4.6033956E-2],"split_indices":[7,13,2,0,0,0,0],"split_type":[0,0,0,0,0,0,0],"sum_hessian":[8.7857765E1,4.1224613E1,4.6633152E1,3.503122E1,6.1933937E0,4.204274E0,4.242888E1],"tree_param":{"num_deleted":"0","num_feature":"14","num_nodes":"7","size_leaf_vector":"1"}},{"base_weights":[-8.170119E-4,1.3657085E0,-1.278165E0,6.158124E-1,4.5866426E-2,1.086821E-2,-1.4250736E0,3.664379E-2,-7.6510035E-3,-4.483568E-2,-6.6964547E-3],"categories":[],"categories_nodes":[],"categories_segments":[],"categories_sizes":[],"default_left":[0,0,0,0,0,0,0,0,0,0,0],"id":9,"left_children":[1,3,5,7,-1,-1,9,-1,-1,-1,-1],"loss_changes":[1.589966E2,2.407959E0,1.2958542E1,7.292672E0,0E0,0E0,2.1532364E0,0E0,0E0,0E0,0E0],"parents":[2147483647,0,0,1,1,2,2,3,3,6,6],"right_children":[2,4,6,8,-1,-1,10,-1,-1,-1,-1],"split_conditions":[4.0112873E1,1.2296981E0,6.609398E1,1.02E0,4.5866426E-2,1.086821E-2,1.3247281E2,3.664379E-2,-7.6510035E-3,-4.483568E-2,-6.6964547E-3],"split_indices":[8,6,13,2,0,0,4,0,0,0,0],"split_type":[0,0,0,0,0,0,0,0,0,0,0],"sum_hessian":[8.711294E1,4.1831356E1,4.5281578E1,9.729494E0,3.210186E1,3.2011273E0,4.2080452E1,5.602236E0,4.1272583E0,3.8927967E1,3.1524856E0],"tree_param":{"num_deleted":"0","num_feature":"14","num_nodes":"11","size_leaf_vector":"1"}},{"base_weights":[-3.3536E-2,1.3779477E0,-1.3342872E0,4.5069195E-2,6.4728785E-1,-4.347055E-2,1.5058971E-3,3.4113713E-2,-1.7621424E-3],"categories":[],"categories_nodes":[],"categories_segments":[],"categories_sizes":[],"default_left":[0,0,0,0,0,0,0,0,0],"id":10,"left_children":[1,3,5,-1,7,-1,-1,-1,-1],"loss_changes":[1.6540756E2,8.92189E-1,8.318359E0,0E0,4.2558346E0,0E0,0E0,0E0,0E0],"parents":[2147483647,0,0,1,1,2,2,4,4],"right_children":[2,4,6,-1,8,-1,-1,-1,-1],"split_conditions":[1.31633625E1,6.757548E1,1.2936442E0,4.5069195E-2,1.02E0,-4.347055E-2,1.5058971E-3,3.4113713E-2,-1.7621424E-3],"split_indices":[7,13,6,0,2,0,0,0,0],"split_type":[0,0,0,0,0,0,0,0,0],"sum_hessian":[8.610087E1,4.1051537E1,4.504933E1,3.2690998E1,8.36054E0,4.1849236E1,3.2000945E0,4.6331124E0,3.7274282E0],"tree_param":{"num_deleted":"0","num_feature":"14","num_nodes":"9","size_leaf_vector":"1"}},{"base_weights":[4.6107996E-2,1.3018504E0,-1.1893003E0,5.222548E-1,4.431954E-2,1.269869E-2,-1.3580244E0,3.447996E-2,-6.922849E-3,-4.291515E-2,-5.979462E-3],"categories":[],"categories_nodes":[],"categories_segments":[],"categories_sizes":[],"default_left":[0,0,0,0,0,0,0,0,0,0,0],"id":11,"left_children":[1,3,5,7,-1,-1,9,-1,-1,-1,-1],"loss_changes":[1.3644704E2,3.443985E0,1.3631062E1,6.4945936E0,0E0,0E0,2.0354462E0,0E0,0E0,0E0,0E0],"parents":[2147483647,0,0,1,1,2,2,3,3,6,6],"right_children":[2,4,6,8,-1,-1,10,-1,-1,-1,-1],"split_conditions":[4.0112873E1,1.2296981E0,6.609398E1,1.02E0,4.431954E-2,1.269869E-2,1.3247281E2,3.447996E-2,-6.922849E-3,-4.291515E-2,-5.979462E-3],"split_indices":[8,6,13,2,0,0,4,0,0,0,0],"split_type":[0,0,0,0,0,0,0,0,0,0,0],"sum_hessian":[8.392116E1,4.176544E1,4.215572E1,9.657923E0,3.2107517E1,3.4264348E0,3.8729282E1,5.0575867E0,4.6003356E0,3.5601646E1,3.1276379E0],"tree_param":{"num_deleted":"0","num_feature":"14","num_nodes":"11","size_leaf_vector":"1"}},{"base_weights":[-2.93952E-2,4.122933E-2,-1.179068E0,3.4098137E-2,-4.3019153E-2],"categories":[],"categories_nodes":[],"categories_segments":[],"categories_sizes":[],"default_left":[0,0,0,0,0],"id":12,"left_children":[1,-1,3,-1,-1],"loss_changes":[1.4001357E2,0E0,3.1680984E1,0E0,0E0],"parents":[2147483647,0,0,2,2],"right_children":[2,-1,4,-1,-1],"split_conditions":[1.3E1,4.122933E-2,1.02E0,3.4098137E-2,-4.3019153E-2],"split_indices":[7,0,2,0,0],"split_type":[0,0,0,0,0],"sum_hessian":[8.2812325E1,3.6914925E1,4.58974E1,3.6707802E0,4.222662E1],"tree_param":{"num_deleted":"0","num_feature":"14","num_nodes":"5","size_leaf_vector":"1"}},{"base_weights":[-5.337416E-4,1.2984399E0,-1.1971687E0,4.271755E-2,6.1557883E-1,-4.053359E-2,1.210199E-2,3.2775074E-2,-2.3145173E-3],"categories":[],"categories_nodes":[],"categories_segments":[],"categories_sizes":[],"default_left":[0,0,0,0,0,0,0,0,0],"id":13,"left_children":[1,3,5,-1,7,-1,-1,-1,-1],"loss_changes":[1.3317029E2,7.3130035E-1,1.260556E1,0E0,4.1418805E0,0E0,0E0,0E0,0E0],"parents":[2147483647,0,0,1,1,2,2,4,4],"right_children":[2,4,6,-1,8,-1,-1,-1,-1],"split_conditions":[1.3079344E1,6.757548E1,1.2936442E0,4.271755E-2,1.02E0,-4.053359E-2,1.210199E-2,3.2775074E-2,-2.3145173E-3],"split_indices":[7,13,6,0,2,0,0,0,0],"split_type":[0,0,0,0,0,0,0,0,0],"sum_hessian":[8.170578E1,3.8895676E1,4.2810104E1,3.0405817E1,8.489859E0,3.9623043E1,3.187063E0,4.7720375E0,3.7178214E0],"tree_param":{"num_deleted":"0","num_feature":"14","num_nodes":"9","size_leaf_vector":"1"}},{"base_weights":[1.7099965E-2,1.3163935E0,-1.1406068E0,5.616051E-1,4.227162E-2,3.352862E-2,-4.2195648E-2,2.8438708E-2,-0E0],"categories":[],"categories_nodes":[],"categories_segments":[],"categories_sizes":[],"default_left":[0,0,0,0,0,0,0,0,0],"id":14,"left_children":[1,3,5,7,-1,-1,-1,-1,-1],"loss_changes":[1.2831447E2,2.5460815E-1,3.0245441E1,1.9865515E0,0E0,0E0,0E0,0E0,0E0],"parents":[2147483647,0,0,1,1,2,2,3,3],"right_children":[2,4,6,8,-1,-1,-1,-1,-1],"split_conditions":[1.3E1,1.1006953E0,1.02E0,1.23E1,4.227162E-2,3.352862E-2,-4.2195648E-2,2.8438708E-2,-0E0],"split_indices":[7,6,2,7,0,0,0,0,0],"split_type":[0,0,0,0,0,0,0,0,0],"sum_hessian":[8.124925E1,3.8357925E1,4.2891327E1,6.328169E0,3.202976E1,3.6456075E0,3.924572E1,3.1337001E0,3.1944685E0],"tree_param":{"num_deleted":"0","num_feature":"14","num_nodes":"9","size_leaf_vector":"1"}},{"base_weights":[2.2536397E-2,3.902764E-2,-1.1093013E0,3.2647923E-2,-4.089419E-2],"categories":[],"categories_nodes":[],"categories_segments":[],"categories_sizes":[],"default_left":[0,0,0,0,0],"id":15,"left_children":[1,-1,3,-1,-1],"loss_changes":[1.2460267E2,0E0,2.846019E1,0E0,0E0],"parents":[2147483647,0,0,2,2],"right_children":[2,-1,4,-1,-1],"split_conditions":[1.3E1,3.902764E-2,1.02E0,3.2647923E-2,-4.089419E-2],"split_indices":[7,0,2,0,0],"split_type":[0,0,0,0,0],"sum_hessian":[8.2054596E1,3.8599884E1,4.3454712E1,3.6149185E0,3.9839794E1],"tree_param":{"num_deleted":"0","num_feature":"14","num_nodes":"5","size_leaf_vector":"1"}},{"base_weights":[3.3517804E-2,3.8047574E-2,-1.0952938E0,2.9711427E-2,-3.988849E-2],"categories":[],"categories_nodes":[],"categories_segments":[],"categories_sizes":[],"default_left":[0,0,0,0,0],"id":16,"left_children":[1,-1,3,-1,-1],"loss_changes":[1.1087545E2,0E0,2.300964E1,0E0,0E0],"parents":[2147483647,0,0,2,2],"right_children":[2,-1,4,-1,-1],"split_conditions":[1.3E1,3.8047574E-2,1.02E0,2.9711427E-2,-3.988849E-2],"split_indices":[7,0,2,0,0],"split_type":[0,0,0,0,0],"sum_hessian":[7.549468E1,3.6149235E1,3.9345448E1,3.1066446E0,3.62388E1],"tree_param":{"num_deleted":"0","num_feature":"14","num_nodes":"5","size_leaf_vector":"1"}},{"base_weights":[2.0320307E-2,1.198874E0,-1.074671E0,4.030904E-2,5.136105E-1,8.772311E-3,-3.667555E-2,3.0814314E-2,-4.199739E-3],"categories":[],"categories_nodes":[],"categories_segments":[],"categories_sizes":[],"default_left":[0,0,0,0,0,0,0,0,0],"id":17,"left_children":[1,3,5,-1,7,-1,-1,-1,-1],"loss_changes":[1.0337977E2,1.5363541E0,9.527706E0,0E0,4.2891164E0,0E0,0E0,0E0,0E0],"parents":[2147483647,0,0,1,1,2,2,4,4],"right_children":[2,4,6,-1,8,-1,-1,-1,-1],"split_conditions":[4.0112873E1,6.609398E1,6.622436E1,4.030904E-2,1.02E0,8.772311E-3,-3.667555E-2,3.0814314E-2,-4.199739E-3],"split_indices":[8,13,13,0,2,0,0,0,0],"split_type":[0,0,0,0,0,0,0,0,0],"sum_hessian":[7.606308E1,3.6762257E1,3.9300823E1,2.816194E1,8.600317E0,3.3146079E0,3.5986214E1,4.604521E0,3.995796E0],"tree_param":{"num_deleted":"0","num_feature":"14","num_nodes":"9","size_leaf_vector":"1"}},{"base_weights":[2.6163768E-2,1.2405112E0,-1.0407137E0,4.0041935E-2,5.2535766E-1,-1.2642841E0,3.235909E-2,2.782425E-2,-0E0,-3.982615E-2,-7.742533E-3],"categories":[],"categories_nodes":[],"categories_segments":[],"categories_sizes":[],"default_left":[0,0,0,0,0,0,0,0,0,0,0],"id":18,"left_children":[1,3,5,-1,7,9,-1,-1,-1,-1,-1],"loss_changes":[1.0745618E2,2.9228973E-1,2.362978E1,0E0,2.2294195E0,1.1226425E0,0E0,0E0,0E0,0E0,0E0],"parents":[2147483647,0,0,1,1,2,2,4,4,5,5],"right_children":[2,4,6,-1,8,10,-1,-1,-1,-1,-1],"split_conditions":[1.3E1,7.626231E1,1E0,4.0041935E-2,1.25E1,1.32E2,3.235909E-2,2.782425E-2,-0E0,-3.982615E-2,-7.742533E-3],"split_indices":[7,13,3,0,7,4,0,0,0,0,0],"split_type":[0,0,0,0,0,0,0,0,0,0,0],"sum_hessian":[7.8871796E1,3.695351E1,4.191828E1,3.0502945E1,6.4505663E0,3.88616E1,3.0566812E0,3.3031034E0,3.1474628E0,3.5494617E1,3.3669837E0],"tree_param":{"num_deleted":"0","num_feature":"14","num_nodes":"11","size_leaf_vector":"1"}},{"base_weights":[9.34908E-3,1.2157212E0,-1.0358444E0,3.944936E-2,4.7620803E-1,1.7656095E-2,-3.604764E-2,2.6001452E-2,-0E0],"categories":[],"categories_nodes":[],"categories_segments":[],"categories_sizes":[],"default_left":[0,0,0,0,0,0,0,0,0],"id":19,"left_children":[1,3,5,-1,7,-1,-1,-1,-1],"loss_changes":[1.0156202E2,6.099167E-1,1.3272556E1,0E0,1.9214456E0,0E0,0E0,0E0,0E0],"parents":[2147483647,0,0,1,1,2,2,4,4],"right_children":[2,4,6,-1,8,-1,-1,-1,-1],"split_conditions":[1.3E1,7.626231E1,6.0915623E1,3.944936E-2,1.21E1,1.7656095E-2,-3.604764E-2,2.6001452E-2,-0E0],"split_indices":[7,13,13,0,7,0,0,0,0],"split_type":[0,0,0,0,0,0,0,0,0],"sum_hessian":[7.647893E1,3.557268E1,4.0906246E1,2.9394848E1,6.177834E0,3.035743E0,3.7870502E1,3.0266135E0,3.1512203E0],"tree_param":{"num_deleted":"0","num_feature":"14","num_nodes":"9","size_leaf_vector":"1"}},{"base_weights":[-1.4021551E-2,3.716574E-2,-1.0451212E0,3.0336985E-2,-3.8289905E-2],"categories":[],"categories_nodes":[],"categories_segments":[],"categories_sizes":[],"default_left":[0,0,0,0,0],"id":20,"left_children":[1,-1,3,-1,-1],"loss_changes":[1.0266549E2,0E0,2.3557423E1,0E0,0E0],"parents":[2147483647,0,0,2,2],"right_children":[2,-1,4,-1,-1],"split_conditions":[1.3E1,3.716574E-2,1.02E0,3.0336985E-2,-3.8289905E-2],"split_indices":[7,0,2,0,0],"split_type":[0,0,0,0,0],"sum_hessian":[7.554255E1,3.370275E1,4.18398E1,3.3282986E0,3.85115E1],"tree_param":{"num_deleted":"0","num_feature":"14","num_nodes":"5","size_leaf_vector":"1"}},{"base_weights":[-8.998793E-3,1.173044E0,-1.0237855E0,3.84896E-2,9.34793E-3,2.0241175E-2,-1.2139326E0,-3.7989028E-2,-8.091832E-3],"categories":[],"categories_nodes":[],"categories_segments":[],"categories_sizes":[],"default_left":[0,0,0,0,0,0,0,0,0],"id":21,"left_children":[1,3,5,-1,-1,-1,7,-1,-1],"loss_changes":[9.362807E1,1.7998428E0,1.5552986E1,0E0,0E0,0E0,4.760704E-1,0E0,0E0],"parents":[2147483647,0,0,1,1,2,2,6,6],"right_children":[2,4,6,-1,-1,-1,8,-1,-1],"split_conditions":[1.3E1,7.626231E1,6.3448326E1,3.84896E-2,9.34793E-3,2.0241175E-2,1.32E2,-3.7989028E-2,-8.091832E-3],"split_indices":[7,13,13,0,0,0,4,0,0],"split_type":[0,0,0,0,0,0,0,0,0],"sum_hessian":[7.411437E1,3.386415E1,4.025022E1,2.8648735E1,5.2154145E0,3.2745008E0,3.697572E1,3.3884583E1,3.0911396E0],"tree_param":{"num_deleted":"0","num_feature":"14","num_nodes":"9","size_leaf_vector":"1"}},{"base_weights":[4.092721E-2,3.580284E-2,-9.7687966E-1,3.1144738E-2,-3.707593E-2],"categories":[],"categories_nodes":[],"categories_segments":[],"categories_sizes":[],"default_left":[0,0,0,0,0],"id":22,"left_children":[1,-1,3,-1,-1],"loss_changes":[9.079264E1,0E0,2.3991879E1,0E0,0E0],"parents":[2147483647,0,0,2,2],"right_children":[2,-1,4,-1,-1],"split_conditions":[1.3E1,3.580284E-2,1.02E0,3.1144738E-2,-3.707593E-2],"split_indices":[7,0,2,0,0],"split_type":[0,0,0,0,0],"sum_hessian":[7.332051E1,3.4453583E1,3.886693E1,3.5213354E0,3.5345592E1],"tree_param":{"num_deleted":"0","num_feature":"14","num_nodes":"5","size_leaf_vector":"1"}},{"base_weights":[3.1681303E-2,1.1546283E0,-9.9414396E-1,3.7682734E-2,4.4378275E-1,2.7882438E-2,-3.6553122E-2,2.557493E-2,-1.3888375E-3],"categories":[],"categories_nodes":[],"categories_segments":[],"categories_sizes":[],"default_left":[0,0,0,0,0,0,0,0,0],"id":23,"left_children":[1,3,5,-1,7,-1,-1,-1,-1],"loss_changes":[8.783707E1,6.731949E-1,1.9499985E1,0E0,2.1398768E0,0E0,0E0,0E0,0E0],"parents":[2147483647,0,0,1,1,2,2,4,4],"right_children":[2,4,6,-1,8,-1,-1,-1,-1],"split_conditions":[1.3E1,7.626231E1,1.02E0,3.7682734E-2,1.25E1,2.7882438E-2,-3.6553122E-2,2.557493E-2,-1.3888375E-3],"split_indices":[7,13,2,0,7,0,0,0,0],"split_type":[0,0,0,0,0,0,0,0,0],"sum_hessian":[7.218836E1,3.4575577E1,3.7612785E1,2.8298857E1,6.27672E0,3.038412E0,3.457437E1,3.1722984E0,3.1044216E0],"tree_param":{"num_deleted":"0","num_feature":"14","num_nodes":"9","size_leaf_vector":"1"}},{"base_weights":[7.3556583E-3,1.1336544E0,-9.4314474E-1,3.7212662E-2,1.1324502E-2,3.0902144E-2,-3.6208887E-2],"categories":[],"categories_nodes":[],"categories_segments":[],"categories_sizes":[],"default_left":[0,0,0,0,0,0,0],"id":24,"left_children":[1,3,5,-1,-1,-1,-1],"loss_changes":[8.194446E1,1.098587E0,2.403878E1,0E0,0E0,0E0,0E0],"parents":[2147483647,0,0,1,1,2,2],"right_children":[2,4,6,-1,-1,-1,-1],"split_conditions":[1.3E1,7.626231E1,1.02E0,3.7212662E-2,1.1324502E-2,3.0902144E-2,-3.6208887E-2],"split_indices":[7,13,2,0,0,0,0],"split_type":[0,0,0,0,0,0,0],"sum_hessian":[7.245799E1,3.3226635E1,3.9231358E1,2.7413893E1,5.8127403E0,3.718064E0,3.5513294E1],"tree_param":{"num_deleted":"0","num_feature":"14","num_nodes":"7","size_leaf_vector":"1"}},{"base_weights":[3.0323843E-2,1.0907912E0,-9.470671E-1,3.567716E-2,1.0408206E-2,-1.1085876E0,1.2979602E-2,-3.5359573E-2,-3.424912E-3],"categories":[],"categories_nodes":[],"categories_segments":[],"categories_sizes":[],"default_left":[0,0,0,0,0,0,0,0,0],"id":25,"left_children":[1,3,5,-1,-1,7,-1,-1,-1],"loss_changes":[7.7686104E1,1.0527725E0,9.933922E0,0E0,0E0,1.5634384E0,0E0,0E0,0E0],"parents":[2147483647,0,0,1,1,2,2,5,5],"right_children":[2,4,6,-1,-1,8,-1,-1,-1],"split_conditions":[4.0112873E1,8.05038E1,1.2936442E0,3.567716E-2,1.0408206E-2,1.3247281E2,1.2979602E-2,-3.5359573E-2,-3.424912E-3],"split_indices":[8,13,6,0,0,4,0,0,0],"split_type":[0,0,0,0,0,0,0,0,0],"sum_hessian":[7.088835E1,3.41333E1,3.675505E1,2.8492645E1,5.6406565E0,3.3579407E1,3.175643E0,3.0553362E1,3.0260465E0],"tree_param":{"num_deleted":"0","num_feature":"14","num_nodes":"9","size_leaf_vector":"1"}},{"base_weights":[1.1682313E-2,1.0481837E0,-1.0033531E0,3.5291806E-2,6.4766696E-3,-1.1522889E0,7.760342E-3,-3.629938E-2,-8.025428E-3],"categories":[],"categories_nodes":[],"categories_segments":[],"categories_sizes":[],"default_left":[0,0,0,0,0,0,0,0,0],"id":26,"left_children":[1,3,5,-1,-1,7,-1,-1,-1],"loss_changes":[7.647654E1,2.6573792E0,7.9003105E0,0E0,0E0,3.1630707E-1,0E0,0E0,0E0],"parents":[2147483647,0,0,1,1,2,2,5,5],"right_children":[2,4,6,-1,-1,8,-1,-1,-1],"split_conditions":[4.0112873E1,8.05038E1,1.3E0,3.5291806E-2,6.4766696E-3,1.3116962E2,7.760342E-3,-3.629938E-2,-8.025428E-3],"split_indices":[8,13,6,0,0,4,0,0,0],"split_type":[0,0,0,0,0,0,0,0,0],"sum_hessian":[6.866984E1,3.4187065E1,3.4482773E1,2.8386662E1,5.8004045E0,3.1352839E1,3.129935E0,2.8213022E1,3.1398165E0],"tree_param":{"num_deleted":"0","num_feature":"14","num_nodes":"9","size_leaf_vector":"1"}},{"base_weights":[-8.622866E-3,3.4260888E-2,-9.8907167E-1,2.7659968E-2,-3.672329E-2],"categories":[],"categories_nodes":[],"categories_segments":[],"categories_sizes":[],"default_left":[0,0,0,0,0],"id":27,"left_children":[1,-1,3,-1,-1],"loss_changes":[8.0708984E1,0E0,1.9876232E1,0E0,0E0],"parents":[2147483647,0,0,2,2],"right_children":[2,-1,4,-1,-1],"split_conditions":[1.3E1,3.4260888E-2,1.02E0,2.7659968E-2,-3.672329E-2],"split_indices":[7,0,2,0,0],"split_type":[0,0,0,0,0],"sum_hessian":[6.760595E1,3.0716986E1,3.688896E1,3.1668415E0,3.372212E1],"tree_param":{"num_deleted":"0","num_feature":"14","num_nodes":"5","size_leaf_vector":"1"}},{"base_weights":[3.234817E-2,1.0400699E0,-9.047101E-1,4.1543025E-1,3.5608605E-2,1.589356E-2,-1.0869441E0,2.7743608E-2,-6.8332152E-3,-3.4818903E-2,-4.167749E-3],"categories":[],"categories_nodes":[],"categories_segments":[],"categories_sizes":[],"default_left":[0,0,0,0,0,0,0,0,0,0,0],"id":28,"left_children":[1,3,5,7,-1,-1,9,-1,-1,-1,-1],"loss_changes":[6.666294E1,1.3511696E0,1.0925602E1,4.1238117E0,0E0,0E0,1.3464966E0,0E0,0E0,0E0,0E0],"parents":[2147483647,0,0,1,1,2,2,3,3,6,6],"right_children":[2,4,6,8,-1,-1,10,-1,-1,-1,-1],"split_conditions":[4.0112873E1,1.2296981E0,6.609398E1,1.02E0,3.5608605E-2,1.589356E-2,1.3163829E2,2.7743608E-2,-6.8332152E-3,-3.4818903E-2,-4.167749E-3],"split_indices":[8,6,13,2,0,0,4,0,0,0,0],"split_type":[0,0,0,0,0,0,0,0,0,0,0],"sum_hessian":[6.653092E1,3.2207924E1,3.4322998E1,8.237524E0,2.39704E1,3.1295977E0,3.11934E1,4.5422707E0,3.695253E0,2.8038147E1,3.1552536E0],"tree_param":{"num_deleted":"0","num_feature":"14","num_nodes":"11","size_leaf_vector":"1"}},{"base_weights":[2.3810143E-2,3.2945704E-2,-8.711576E-1,3.0339777E-2,-3.4441773E-2],"categories":[],"categories_nodes":[],"categories_segments":[],"categories_sizes":[],"default_left":[0,0,0,0,0],"id":29,"left_children":[1,-1,3,-1,-1],"loss_changes":[6.927949E1,0E0,2.2729546E1,0E0,0E0],"parents":[2147483647,0,0,2,2],"right_children":[2,-1,4,-1,-1],"split_conditions":[1.3E1,3.2945704E-2,1.02E0,3.0339777E-2,-3.4441773E-2],"split_indices":[7,0,2,0,0],"split_type":[0,0,0,0,0],"sum_hessian":[6.79429E1,3.0924076E1,3.7018826E1,3.835222E0,3.31836E1],"tree_param":{"num_deleted":"0","num_feature":"14","num_nodes":"5","size_leaf_vector":"1"}},{"base_weights":[1.408027E-2,1.017558E0,-9.2091626E-1,3.5071224E-2,3.4496954E-1,-3.219038E-2,9.133439E-3,2.6089238E-2,-7.0270165E-3],"categories":[],"categories_nodes":[],"categories_segments":[],"categories_sizes":[],"default_left":[0,0,0,0,0,0,0,0,0],"id":30,"left_children":[1,3,5,-1,7,-1,-1,-1,-1],"loss_changes":[6.568553E1,1.8992653E0,7.7418976E0,0E0,3.6703124E0,0E0,0E0,0E0,0E0],"parents":[2147483647,0,0,1,1,2,2,4,4],"right_children":[2,4,6,-1,8,-1,-1,-1,-1],"split_conditions":[1.31633625E1,6.757548E1,1.3E0,3.5071224E-2,1.02E0,-3.219038E-2,9.133439E-3,2.6089238E-2,-7.0270165E-3],"split_indices":[7,13,6,0,2,0,0,0,0],"split_type":[0,0,0,0,0,0,0,0,0],"sum_hessian":[6.595968E1,3.1987503E1,3.397218E1,2.429586E1,7.6916428E0,3.0805231E1,3.1669476E0,3.9625404E0,3.7291021E0],"tree_param":{"num_deleted":"0","num_feature":"14","num_nodes":"9","size_leaf_vector":"1"}},{"base_weights":[1.4137544E-2,1.0488713E0,-8.8889307E-1,3.4769937E-2,1.03691025E-2,2.7124675E-2,-3.3681184E-2],"categories":[],"categories_nodes":[],"categories_segments":[],"categories_sizes":[],"default_left":[0,0,0,0,0,0,0],"id":31,"left_children":[1,3,5,-1,-1,-1,-1],"loss_changes":[6.4672264E1,9.6035385E-1,1.7513681E1,0E0,0E0,0E0,0E0],"parents":[2147483647,0,0,1,1,2,2],"right_children":[2,4,6,-1,-1,-1,-1],"split_conditions":[1.3E1,7.417602E1,1.02E0,3.4769937E-2,1.03691025E-2,2.7124675E-2,-3.3681184E-2],"split_indices":[7,13,2,0,0,0,0],"split_type":[0,0,0,0,0,0,0],"sum_hessian":[6.51317E1,3.0459965E1,3.4671734E1,2.4600355E1,5.8596087E0,3.0914888E0,3.1580244E1],"tree_param":{"num_deleted":"0","num_feature":"14","num_nodes":"7","size_leaf_vector":"1"}},{"base_weights":[5.690271E-2,3.192475E-2,-8.1717545E-1,2.9539695E-2,-3.312628E-2],"categories":[],"categories_nodes":[],"categories_segments":[],"categories_sizes":[],"default_left":[0,0,0,0,0],"id":32,"left_children":[1,-1,3,-1,-1],"loss_changes":[5.9619217E1,0E0,2.0846804E1,0E0,0E0],"parents":[2147483647,0,0,2,2],"right_children":[2,-1,4,-1,-1],"split_conditions":[1.3E1,3.192475E-2,1.02E0,2.9539695E-2,-3.312628E-2],"split_indices":[7,0,2,0,0],"split_type":[0,0,0,0,0],"sum_hessian":[6.3601074E1,2.961311E1,3.3987965E1,3.7630224E0,3.0224941E1],"tree_param":{"num_deleted":"0","num_feature":"14","num_nodes":"5","size_leaf_vector":"1"}},{"base_weights":[7.5862114E-3,1.0124335E0,-8.3068126E-1,5.0403927E-3,3.295715E-2,2.7534822E-2,-3.28436E-2],"categories":[],"categories_nodes":[],"categories_segments":[],"categories_sizes":[],"default_left":[0,0,0,0,0,0,0],"id":33,"left_children":[1,3,5,-1,-1,-1,-1],"loss_changes":[5.5193684E1,1.180891E0,1.8447084E1,0E0,0E0,0E0,0E0],"parents":[2147483647,0,0,1,1,2,2],"right_children":[2,4,6,-1,-1,-1,-1],"split_conditions":[1.3E1,3.2411015E1,1.02E0,5.0403927E-3,3.295715E-2,2.7534822E-2,-3.28436E-2],"split_indices":[7,0,2,0,0,0,0],"split_type":[0,0,0,0,0,0,0],"sum_hessian":[6.14202E1,2.8016825E1,3.3403374E1,3.6769567E0,2.4339869E1,3.4853036E0,2.9918072E1],"tree_param":{"num_deleted":"0","num_feature":"14","num_nodes":"7","size_leaf_vector":"1"}},{"base_weights":[6.759076E-3,9.6333975E-1,-8.3008283E-1,5.610402E-3,3.3246927E-2,-9.863469E-1,9.412683E-3,-3.1700924E-2,-4.0302575E-3],"categories":[],"categories_nodes":[],"categories_segments":[],"categories_sizes":[],"default_left":[0,0,0,0,0,0,0,0,0],"id":34,"left_children":[1,3,5,-1,-1,7,-1,-1,-1],"loss_changes":[5.092787E1,2.3032894E0,6.9643364E0,0E0,0E0,9.4543266E-1,0E0,0E0,0E0],"parents":[2147483647,0,0,1,1,2,2,5,5],"right_children":[2,4,6,-1,-1,8,-1,-1,-1],"split_conditions":[4.0112873E1,1.1771202E0,1.3E0,5.610402E-3,3.3246927E-2,1.3117651E2,9.412683E-3,-3.1700924E-2,-4.0302575E-3],"split_indices":[8,6,6,0,0,4,0,0,0],"split_type":[0,0,0,0,0,0,0,0,0],"sum_hessian":[5.9538437E1,2.791939E1,3.1619047E1,5.6545644E0,2.2264826E1,2.8445501E1,3.1735451E0,2.528995E1,3.1555529E0],"tree_param":{"num_deleted":"0","num_feature":"14","num_nodes":"9","size_leaf_vector":"1"}},{"base_weights":[3.925446E-2,3.2194156E-2,-8.2661724E-1,2.8354729E-2,-3.3106584E-2],"categories":[],"categories_nodes":[],"categories_segments":[],"categories_sizes":[],"default_left":[0,0,0,0,0],"id":35,"left_children":[1,-1,3,-1,-1],"loss_changes":[5.7424084E1,0E0,1.9153408E1,0E0,0E0],"parents":[2147483647,0,0,2,2],"right_children":[2,-1,4,-1,-1],"split_conditions":[1.3E1,3.2194156E-2,1.02E0,2.8354729E-2,-3.3106584E-2],"split_indices":[7,0,2,0,0],"split_type":[0,0,0,0,0],"sum_hessian":[6.0026352E1,2.740383E1,3.2622524E1,3.5133774E0,2.9109146E1],"tree_param":{"num_deleted":"0","num_feature":"14","num_nodes":"5","size_leaf_vector":"1"}},{"base_weights":[-0E0,9.553715E-1,-8.6938065E-1,3.3317376E-2,1.9212122E-1,4.7126506E-3,-3.0179894E-2,2.242623E-2,-1.0361475E-2],"categories":[],"categories_nodes":[],"categories_segments":[],"categories_sizes":[],"default_left":[0,0,0,0,0,0,0,0,0],"id":36,"left_children":[1,3,5,-1,7,-1,-1,-1,-1],"loss_changes":[5.2213036E1,2.4913769E0,5.325264E0,0E0,3.1220775E0,0E0,0E0,0E0,0E0],"parents":[2147483647,0,0,1,1,2,2,4,4],"right_children":[2,4,6,-1,8,-1,-1,-1,-1],"split_conditions":[1.3079344E1,7.626231E1,6.622436E1,3.3317376E-2,1.02E0,4.7126506E-3,-3.0179894E-2,2.242623E-2,-1.0361475E-2],"split_indices":[7,13,13,0,2,0,0,0,0],"split_type":[0,0,0,0,0,0,0,0,0],"sum_hessian":[5.8825623E1,2.8131573E1,3.0694048E1,2.2076971E1,6.0546017E0,3.1402256E0,2.7553822E1,3.0508046E0,3.003797E0],"tree_param":{"num_deleted":"0","num_feature":"14","num_nodes":"9","size_leaf_vector":"1"}},{"base_weights":[7.634157E-2,3.279418E-2,-7.735996E-1,2.805751E-2,-3.161113E-2],"categories":[],"categories_nodes":[],"categories_segments":[],"categories_sizes":[],"default_left":[0,0,0,0,0],"id":37,"left_children":[1,-1,3,-1,-1],"loss_changes":[5.2959557E1,0E0,1.788116E1,0E0,0E0],"parents":[2147483647,0,0,2,2],"right_children":[2,-1,4,-1,-1],"split_conditions":[1.3E1,3.279418E-2,1.02E0,2.805751E-2,-3.161113E-2],"split_indices":[7,0,2,0,0],"split_type":[0,0,0,0,0],"sum_hessian":[5.7138393E1,2.6022854E1,3.1115538E1,3.4718328E0,2.7643705E1],"tree_param":{"num_deleted":"0","num_feature":"14","num_nodes":"5","size_leaf_vector":"1"}},{"base_weights":[3.892577E-2,9.666622E-1,-7.811006E-1,3.2762907E-2,8.348494E-3,2.6423087E-2,-3.1157391E-2],"categories":[],"categories_nodes":[],"categories_segments":[],"categories_sizes":[],"default_left":[0,0,0,0,0,0,0],"id":38,"left_children":[1,3,5,-1,-1,-1,-1],"loss_changes":[4.6812653E1,1.2163906E0,1.5757057E1,0E0,0E0,0E0,0E0],"parents":[2147483647,0,0,1,1,2,2],"right_children":[2,4,6,-1,-1,-1,-1],"split_conditions":[1.3E1,7.626231E1,1.02E0,3.2762907E-2,8.348494E-3,2.6423087E-2,-3.1157391E-2],"split_indices":[7,13,2,0,0,0,0],"split_type":[0,0,0,0,0,0,0],"sum_hessian":[5.742643E1,2.7061975E1,3.0364456E1,2.1284306E1,5.777669E0,3.1633809E0,2.7201075E1],"tree_param":{"num_deleted":"0","num_feature":"14","num_nodes":"7","size_leaf_vector":"1"}},{"base_weights":[2.1113848E-2,9.153451E-1,-7.877079E-1,3.232313E-2,2.3152371E-1,-2.8298523E-2,8.154528E-3,2.2882741E-2,-9.571248E-3],"categories":[],"categories_nodes":[],"categories_segments":[],"categories_sizes":[],"default_left":[0,0,0,0,0,0,0,0,0],"id":39,"left_children":[1,3,5,-1,7,-1,-1,-1,-1],"loss_changes":[4.2936626E1,1.9971294E0,5.935219E0,0E0,3.21947E0,0E0,0E0,0E0,0E0],"parents":[2147483647,0,0,1,1,2,2,4,4],"right_children":[2,4,6,-1,8,-1,-1,-1,-1],"split_conditions":[1.3079344E1,6.757548E1,1.2889339E0,3.232313E-2,1.02E0,-2.8298523E-2,8.154528E-3,2.2882741E-2,-9.571248E-3],"split_indices":[7,13,6,0,2,0,0,0,0],"split_type":[0,0,0,0,0,0,0,0,0],"sum_hessian":[5.528227E1,2.64234E1,2.8858866E1,1.983849E1,6.584913E0,2.576672E1,3.0921454E0,3.4211872E0,3.1637256E0],"tree_param":{"num_deleted":"0","num_feature":"14","num_nodes":"9","size_leaf_vector":"1"}},{"base_weights":[2.469371E-3,9.378859E-1,-7.982066E-1,3.2111097E-2,7.280004E-3,1.2303252E-2,-2.9782375E-2],"categories":[],"categories_nodes":[],"categories_segments":[],"categories_sizes":[],"default_left":[0,0,0,0,0,0,0],"id":40,"left_children":[1,3,5,-1,-1,-1,-1],"loss_changes":[4.3852848E1,1.3335037E0,8.4426155E0,0E0,0E0,0E0,0E0],"parents":[2147483647,0,0,1,1,2,2],"right_children":[2,4,6,-1,-1,-1,-1],"split_conditions":[1.3E1,7.626231E1,6.609398E1,3.2111097E-2,7.280004E-3,1.2303252E-2,-2.9782375E-2],"split_indices":[7,13,13,0,0,0,0],"split_type":[0,0,0,0,0,0,0],"sum_hessian":[5.4458878E1,2.524606E1,2.9212816E1,1.969455E1,5.551511E0,3.3873088E0,2.5825508E1],"tree_param":{"num_deleted":"0","num_feature":"14","num_nodes":"7","size_leaf_vector":"1"}},{"base_weights":[-6.814525E-3,9.2488E-1,-8.097796E-1,3.1739652E-2,7.903961E-3,1.2866828E-2,-2.9983742E-2],"categories":[],"categories_nodes":[],"categories_segments":[],"categories_sizes":[],"default_left":[0,0,0,0,0,0,0],"id":41,"left_children":[1,3,5,-1,-1,-1,-1],"loss_changes":[4.3122105E1,1.10919E0,8.491756E0,0E0,0E0,0E0,0E0],"parents":[2147483647,0,0,1,1,2,2],"right_children":[2,4,6,-1,-1,-1,-1],"split_conditions":[1.3E1,7.626231E1,6.609398E1,3.1739652E-2,7.903961E-3,1.2866828E-2,-2.9983742E-2],"split_indices":[7,13,13,0,0,0,0],"split_type":[0,0,0,0,0,0,0],"sum_hessian":[5.3715473E1,2.4435812E1,2.9279661E1,1.8714445E1,5.7213674E0,3.2031953E0,2.6076466E1],"tree_param":{"num_deleted":"0","num_feature":"14","num_nodes":"7","size_leaf_vector":"1"}},{"base_weights":[3.863975E-2,9.0604854E-1,-7.729655E-1,3.05532E-2,6.091827E-3,6.964018E-3,-2.782701E-2],"categories":[],"categories_nodes":[],"categories_segments":[],"categories_sizes":[],"default_left":[0,0,0,0,0,0,0],"id":42,"left_children":[1,3,5,-1,-1,-1,-1],"loss_changes":[3.9908264E1,1.1573582E0,5.283268E0,0E0,0E0,0E0,0E0],"parents":[2147483647,0,0,1,1,2,2],"right_children":[2,4,6,-1,-1,-1,-1],"split_conditions":[4.0112873E1,8.05038E1,6.6327736E1,3.05532E-2,6.091827E-3,6.964018E-3,-2.782701E-2],"split_indices":[8,13,13,0,0,0,0],"split_type":[0,0,0,0,0,0,0],"sum_hessian":[5.260425E1,2.5613247E1,2.6991007E1,2.069576E1,4.917485E0,3.0333562E0,2.395765E1],"tree_param":{"num_deleted":"0","num_feature":"14","num_nodes":"7","size_leaf_vector":"1"}},{"base_weights":[1.48687195E-2,8.92545E-1,-7.802992E-1,3.14484E-2,2.198891E-3,-9.271922E-1,5.1453626E-3,-3.1776216E-2,-3.7542245E-1,-0E0,-1.8403998E-2],"categories":[],"categories_nodes":[],"categories_segments":[],"categories_sizes":[],"default_left":[0,0,0,0,0,0,0,0,0,0,0],"id":43,"left_children":[1,3,5,-1,-1,7,-1,-1,9,-1,-1],"loss_changes":[3.9135803E1,2.7176266E0,4.764494E0,0E0,0E0,3.7957954E-1,0E0,0E0,9.358789E-1,0E0,0E0],"parents":[2147483647,0,0,1,1,2,2,5,5,8,8],"right_children":[2,4,6,-1,-1,8,-1,-1,10,-1,-1],"split_conditions":[4.0112873E1,8.05038E1,1.2527785E0,3.14484E-2,2.198891E-3,1.21E2,5.1453626E-3,-3.1776216E-2,4.411279E1,-0E0,-1.8403998E-2],"split_indices":[8,13,6,0,0,4,0,0,8,0,0],"split_type":[0,0,0,0,0,0,0,0,0,0,0],"sum_hessian":[5.2000256E1,2.4900217E1,2.710004E1,1.9940235E1,4.9599814E0,2.3976753E1,3.123287E0,1.7132252E1,6.844502E0,3.0454018E0,3.7991004E0],"tree_param":{"num_deleted":"0","num_feature":"14","num_nodes":"11","size_leaf_vector":"1"}},{"base_weights":[6.322912E-3,8.671974E-1,-8.178155E-1,3.060699E-2,-9.631459E-4,-2.6047037E-3,-2.8056322E-2],"categories":[],"categories_nodes":[],"categories_segments":[],"categories_sizes":[],"default_left":[0,0,0,0,0,0,0],"id":44,"left_children":[1,3,5,-1,-1,-1,-1],"loss_changes":[3.9096E1,4.3063507E0,1.7162495E0,0E0,0E0,0E0,0E0],"parents":[2147483647,0,0,1,1,2,2],"right_children":[2,4,6,-1,-1,-1,-1],"split_conditions":[1.3442114E1,4.0112873E1,6.9105194E1,3.060699E-2,-9.631459E-4,-2.6047037E-3,-2.8056322E-2],"split_indices":[7,8,13,0,0,0,0],"split_type":[0,0,0,0,0,0,0],"sum_hessian":[5.1071136E1,2.5224476E1,2.584666E1,2.1801521E1,3.4229546E0,4.647304E0,2.1199356E1],"tree_param":{"num_deleted":"0","num_feature":"14","num_nodes":"7","size_leaf_vector":"1"}},{"base_weights":[1.0401705E-2,2.8773623E-2,-7.78676E-1,-2.8707732E-2,1.0213449E-2],"categories":[],"categories_nodes":[],"categories_segments":[],"categories_sizes":[],"default_left":[0,0,0,0,0],"id":45,"left_children":[1,-1,3,-1,-1],"loss_changes":[4.0562626E1,0E0,6.7929935E0,0E0,0E0],"parents":[2147483647,0,0,2,2],"right_children":[2,-1,4,-1,-1],"split_conditions":[1.3E1,2.8773623E-2,1.3E0,-2.8707732E-2,1.0213449E-2],"split_indices":[7,0,6,0,0],"split_type":[0,0,0,0,0],"sum_hessian":[5.0067917E1,2.2826254E1,2.7241661E1,2.4134317E1,3.1073442E0],"tree_param":{"num_deleted":"0","num_feature":"14","num_nodes":"5","size_leaf_vector":"1"}},{"base_weights":[4.3224753E-3,8.858574E-1,-7.488449E-1,3.1508256E-2,2.6301762E-1,-2.8434014E-2,1.32856425E-2,-4.514834E-3,1.9715572E-2],"categories":[],"categories_nodes":[],"categories_segments":[],"categories_sizes":[],"default_left":[0,0,0,0,0,0,0,0,0],"id":46,"left_children":[1,3,5,-1,7,-1,-1,-1,-1],"loss_changes":[3.5969784E1,1.3730068E0,7.934477E0,0E0,1.8478999E0,0E0,0E0,0E0,0E0],"parents":[2147483647,0,0,1,1,2,2,4,4],"right_children":[2,4,6,-1,8,-1,-1,-1,-1],"split_conditions":[1.3E1,1.265E1,1.2936442E0,3.1508256E-2,4.7078915E1,-2.8434014E-2,1.32856425E-2,-4.514834E-3,1.9715572E-2],"split_indices":[7,7,6,0,0,0,0,0,0],"split_type":[0,0,0,0,0,0,0,0,0],"sum_hessian":[5.0074528E1,2.3214699E1,2.6859829E1,1.6645336E1,6.569363E0,2.3727411E1,3.1324177E0,3.1903477E0,3.3790154E0],"tree_param":{"num_deleted":"0","num_feature":"14","num_nodes":"9","size_leaf_vector":"1"}},{"base_weights":[7.5294753E-3,8.190657E-1,-7.948126E-1,6.552426E-4,3.072675E-2,-2.525868E-3,-8.9865106E-1,-5.1900824E-3,-2.9332077E-2],"categories":[],"categories_nodes":[],"categories_segments":[],"categories_sizes":[],"default_left":[0,0,0,0,0,0,0,0,0],"id":47,"left_children":[1,3,5,-1,-1,-1,7,-1,-1],"loss_changes":[3.384714E1,3.7067204E0,1.263195E0,0E0,0E0,0E0,3.3254814E-1,0E0,0E0],"parents":[2147483647,0,0,1,1,2,2,6,6],"right_children":[2,4,6,-1,-1,-1,8,-1,-1],"split_conditions":[1.3442114E1,1.1006953E0,6.9105194E1,6.552426E-4,3.072675E-2,-2.525868E-3,1.4039339E1,-5.1900824E-3,-2.9332077E-2],"split_indices":[7,6,13,0,0,0,7,0,0],"split_type":[0,0,0,0,0,0,0,0,0],"sum_hessian":[4.7963943E1,2.4134438E1,2.3829508E1,5.8913627E0,1.8243074E1,4.1137757E0,1.9715733E1,3.1853938E0,1.6530338E1],"tree_param":{"num_deleted":"0","num_feature":"14","num_nodes":"9","size_leaf_vector":"1"}},{"base_weights":[4.118909E-2,3.3387933E-2,-5.435315E-1,-9.180705E-1,2.9541543E-2,-0E0,-3.224856E-2],"categories":[],"categories_nodes":[],"categories_segments":[],"categories_sizes":[],"default_left":[0,0,0,0,0,0,0],"id":48,"left_children":[1,-1,3,5,-1,-1,-1],"loss_changes":[3.299126E1,0E0,2.0984581E1,4.429163E0,0E0,0E0,0E0],"parents":[2147483647,0,0,2,2,3,3],"right_children":[2,-1,4,6,-1,-1,-1],"split_conditions":[1.02E0,3.3387933E-2,1E0,1.3E1,2.9541543E-2,-0E0,-3.224856E-2],"split_indices":[2,0,10,7,0,0,0],"split_type":[0,0,0,0,0,0,0],"sum_hessian":[4.8260513E1,1.669974E1,3.1560776E1,2.6252573E1,5.308201E0,3.8117187E0,2.2440855E1],"tree_param":{"num_deleted":"0","num_feature":"14","num_nodes":"7","size_leaf_vector":"1"}},{"base_weights":[2.2634301E-2,8.8681716E-1,-6.7367697E-1,3.0745514E-2,3.3179566E-1,2.6946962E-2,-2.8858477E-2,-1.6342569E-4,1.8980814E-2],"categories":[],"categories_nodes":[],"categories_segments":[],"categories_sizes":[],"default_left":[0,0,0,0,0,0,0,0,0],"id":49,"left_children":[1,3,5,-1,7,-1,-1,-1,-1],"loss_changes":[3.135195E1,4.3946457E-1,1.4661703E1,0E0,1.1681288E0,0E0,0E0,0E0,0E0],"parents":[2147483647,0,0,1,1,2,2,4,4],"right_children":[2,4,6,-1,8,-1,-1,-1,-1],"split_conditions":[1.3E1,1.265E1,1.02E0,3.0745514E-2,5.0688274E1,2.6946962E-2,-2.8858477E-2,-1.6342569E-4,1.8980814E-2],"split_indices":[7,7,2,0,0,0,0,0,0],"split_type":[0,0,0,0,0,0,0,0,0],"sum_hessian":[4.7939358E1,2.146737E1,2.6471989E1,1.5114522E1,6.352847E0,3.1777666E0,2.3294222E1,3.1379585E0,3.2148883E0],"tree_param":{"num_deleted":"0","num_feature":"14","num_nodes":"9","size_leaf_vector":"1"}},{"base_weights":[5.442036E-2,3.309085E-2,-5.069378E-1,-9.0749663E-1,2.9522162E-2,-0E0,-3.1674102E-2],"categories":[],"categories_nodes":[],"categories_segments":[],"categories_sizes":[],"default_left":[0,0,0,0,0,0,0],"id":50,"left_children":[1,-1,3,5,-1,-1,-1],"loss_changes":[2.986588E1,0E0,2.1180973E1,3.7720337E0,0E0,0E0,0E0],"parents":[2147483647,0,0,2,2,3,3],"right_children":[2,-1,4,6,-1,-1,-1],"split_conditions":[1.02E0,3.309085E-2,1E0,1.3E1,2.9522162E-2,-0E0,-3.1674102E-2],"split_indices":[2,0,10,7,0,0,0],"split_type":[0,0,0,0,0,0,0],"sum_hessian":[4.6330517E1,1.5792055E1,3.0538462E1,2.4952927E1,5.585535E0,3.6564043E0,2.1296522E1],"tree_param":{"num_deleted":"0","num_feature":"14","num_nodes":"7","size_leaf_vector":"1"}},{"base_weights":[1.7568098E-2,8.7877584E-1,-7.2284037E-1,2.914946E-2,7.097315E-3,8.613369E-3,-2.7184218E-2],"categories":[],"categories_nodes":[],"categories_segments":[],"categories_sizes":[],"default_left":[0,0,0,0,0,0,0],"id":51,"left_children":[1,3,5,-1,-1,-1,-1],"loss_changes":[3.1813198E1,3.259201E-1,5.7310963E0,0E0,0E0,0E0,0E0],"parents":[2147483647,0,0,1,1,2,2],"right_children":[2,4,6,-1,-1,-1,-1],"split_conditions":[4.0112873E1,8.05038E1,6.622436E1,2.914946E-2,7.097315E-3,8.613369E-3,-2.7184218E-2],"split_indices":[8,13,13,0,0,0,0],"split_type":[0,0,0,0,0,0,0],"sum_hessian":[4.577702E1,2.1301582E1,2.447544E1,1.7033644E1,4.2679386E0,3.1667461E0,2.1308693E1],"tree_param":{"num_deleted":"0","num_feature":"14","num_nodes":"7","size_leaf_vector":"1"}},{"base_weights":[-0E0,8.5384154E-1,-6.822755E-1,-0E0,2.9253352E-2,1.1488788E-2,-2.6130587E-2],"categories":[],"categories_nodes":[],"categories_segments":[],"categories_sizes":[],"default_left":[0,0,0,0,0,0,0],"id":52,"left_children":[1,3,5,-1,-1,-1,-1],"loss_changes":[2.8553177E1,1.9077339E0,6.3179216E0,0E0,0E0,0E0,0E0],"parents":[2147483647,0,0,1,1,2,2],"right_children":[2,4,6,-1,-1,-1,-1],"split_conditions":[1.3E1,3.3070072E1,6.609398E1,-0E0,2.9253352E-2,1.1488788E-2,-2.6130587E-2],"split_indices":[7,0,13,0,0,0,0],"split_type":[0,0,0,0,0,0,0],"sum_hessian":[4.4886345E1,1.999464E1,2.4891703E1,3.124199E0,1.6870441E1,3.038114E0,2.1853588E1],"tree_param":{"num_deleted":"0","num_feature":"14","num_nodes":"7","size_leaf_vector":"1"}},{"base_weights":[7.2889007E-3,8.015228E-1,-7.6934916E-1,3.0212943E-2,1.6603653E-1,-2.7087849E-2,-0E0,-7.5863884E-3,1.8826839E-2],"categories":[],"categories_nodes":[],"categories_segments":[],"categories_sizes":[],"default_left":[0,0,0,0,0,0,0,0,0],"id":53,"left_children":[1,3,5,-1,7,-1,-1,-1,-1],"loss_changes":[2.9150532E1,2.1700764E0,2.7517157E0,0E0,2.2008333E0,0E0,0E0,0E0,0E0],"parents":[2147483647,0,0,1,1,2,2,4,4],"right_children":[2,4,6,-1,8,-1,-1,-1,-1],"split_conditions":[1.3079344E1,1.265E1,1.3116962E2,3.0212943E-2,1.2296981E0,-2.7087849E-2,-0E0,-7.5863884E-3,1.8826839E-2],"split_indices":[7,7,4,0,6,0,0,0,0],"split_type":[0,0,0,0,0,0,0,0,0],"sum_hessian":[4.323295E1,2.1660952E1,2.1571995E1,1.4888344E1,6.7726083E0,1.84886E1,3.0833945E0,3.4562416E0,3.3163667E0],"tree_param":{"num_deleted":"0","num_feature":"14","num_nodes":"9","size_leaf_vector":"1"}},{"base_weights":[1.1674236E-2,-5.7214755E-1,2.7602235E-2,-8.1853354E-1,2.3858888E-2,-2.8071128E-2,-0E0],"categories":[],"categories_nodes":[],"categories_segments":[],"categories_sizes":[],"default_left":[0,0,0,0,0,0,0],"id":54,"left_children":[1,3,-1,5,-1,-1,-1],"loss_changes":[2.5547277E1,1.1021696E1,0E0,2.585085E0,0E0,0E0,0E0],"parents":[2147483647,0,0,1,1,3,3],"right_children":[2,4,-1,6,-1,-1,-1],"split_conditions":[1.3E0,1E0,2.7602235E-2,1.33E2,2.3858888E-2,-2.8071128E-2,-0E0],"split_indices":[6,3,0,4,0,0,0],"split_type":[0,0,0,0,0,0,0],"sum_hessian":[4.3857937E1,2.681442E1,1.7043518E1,2.37107E1,3.10372E0,2.0627317E1,3.0833821E0],"tree_param":{"num_deleted":"0","num_feature":"14","num_nodes":"7","size_leaf_vector":"1"}},{"base_weights":[1.0752026E-2,-5.1502144E-1,3.3724457E-2,1.9271284E-2,-8.3896047E-1,-5.736839E-5,-2.8753942E-2],"categories":[],"categories_nodes":[],"categories_segments":[],"categories_sizes":[],"default_left":[0,0,0,0,0,0,0],"id":55,"left_children":[1,3,-1,-1,5,-1,-1],"loss_changes":[2.821547E1,1.3214494E1,0E0,0E0,2.1461468E0,0E0,0E0],"parents":[2147483647,0,0,1,1,4,4],"right_children":[2,4,-1,-1,6,-1,-1],"split_conditions":[1E0,6.3448326E1,3.3724457E-2,1.9271284E-2,1.3E1,-5.736839E-5,-2.8753942E-2],"split_indices":[3,13,0,0,7,0,0],"split_type":[0,0,0,0,0,0,0],"sum_hessian":[4.370079E1,3.0108568E1,1.3592223E1,5.8166842E0,2.4291885E1,3.811413E0,2.048047E1],"tree_param":{"num_deleted":"0","num_feature":"14","num_nodes":"7","size_leaf_vector":"1"}},{"base_weights":[2.301484E-4,3.2124188E-2,-5.3477645E-1,-9.1769594E-1,2.8012564E-2,-3.4571022E-3,-3.1346604E-2],"categories":[],"categories_nodes":[],"categories_segments":[],"categories_sizes":[],"default_left":[0,0,0,0,0,0,0],"id":56,"left_children":[1,-1,3,5,-1,-1,-1],"loss_changes":[2.6284445E1,0E0,1.8562199E1,1.7363892E0,0E0,0E0,0E0],"parents":[2147483647,0,0,2,2,3,3],"right_children":[2,-1,4,6,-1,-1,-1],"split_conditions":[1.02E0,3.2124188E-2,1E0,4.0112873E1,2.8012564E-2,-3.4571022E-3,-3.1346604E-2],"split_indices":[2,0,10,8,0,0,0],"split_type":[0,0,0,0,0,0,0],"sum_hessian":[4.1422924E1,1.3446793E1,2.7976133E1,2.3055151E1,4.9209814E0,4.2136946E0,1.8841457E1],"tree_param":{"num_deleted":"0","num_feature":"14","num_nodes":"7","size_leaf_vector":"1"}},{"base_weights":[5.0661717E-2,3.198004E-2,-4.8162606E-1,-8.512482E-1,2.7881533E-2,-0E0,-3.0676438E-2],"categories":[],"categories_nodes":[],"categories_segments":[],"categories_sizes":[],"default_left":[0,0,0,0,0,0,0],"id":57,"left_children":[1,-1,3,5,-1,-1,-1],"loss_changes":[2.5045128E1,0E0,1.7114283E1,4.030857E0,0E0,0E0,0E0],"parents":[2147483647,0,0,2,2,3,3],"right_children":[2,-1,4,6,-1,-1,-1],"split_conditions":[1.02E0,3.198004E-2,1E0,1.3E1,2.7881533E-2,-0E0,-3.0676438E-2],"split_indices":[2,0,10,7,0,0,0],"split_type":[0,0,0,0,0,0,0],"sum_hessian":[4.190042E1,1.40445E1,2.785592E1,2.2983137E1,4.872785E0,3.8143015E0,1.9168835E1],"tree_param":{"num_deleted":"0","num_feature":"14","num_nodes":"7","size_leaf_vector":"1"}},{"base_weights":[4.9686797E-2,3.1675037E-2,-4.7259784E-1,-8.600379E-1,2.7634317E-2,-0E0,-3.0099634E-2],"categories":[],"categories_nodes":[],"categories_segments":[],"categories_sizes":[],"default_left":[0,0,0,0,0,0,0],"id":58,"left_children":[1,-1,3,5,-1,-1,-1],"loss_changes":[2.3126276E1,0E0,1.689463E1,2.42029E0,0E0,0E0,0E0],"parents":[2147483647,0,0,2,2,3,3],"right_children":[2,-1,4,6,-1,-1,-1],"split_conditions":[1.02E0,3.1675037E-2,1E0,1.3E1,2.7634317E-2,-0E0,-3.0099634E-2],"split_indices":[2,0,10,7,0,0,0],"split_type":[0,0,0,0,0,0,0],"sum_hessian":[3.9554466E1,1.3145226E1,2.640924E1,2.1544724E1,4.864517E0,3.8403218E0,1.7704401E1],"tree_param":{"num_deleted":"0","num_feature":"14","num_nodes":"7","size_leaf_vector":"1"}},{"base_weights":[3.0010268E-2,8.163613E-1,-6.4710546E-1,2.8978476E-2,7.0655737E-3,-2.5407225E-2,9.24627E-3],"categories":[],"categories_nodes":[],"categories_segments":[],"categories_sizes":[],"default_left":[0,0,0,0,0,0,0],"id":59,"left_children":[1,3,5,-1,-1,-1,-1],"loss_changes":[2.3415747E1,7.325525E-1,5.2296543E0,0E0,0E0,0E0,0E0],"parents":[2147483647,0,0,1,1,2,2],"right_children":[2,4,6,-1,-1,-1,-1],"split_conditions":[1.3E1,1.265E1,1.3E0,2.8978476E-2,7.0655737E-3,-2.5407225E-2,9.24627E-3],"split_indices":[7,7,6,0,0,0,0],"split_type":[0,0,0,0,0,0,0],"sum_hessian":[3.983407E1,1.8581755E1,2.1252312E1,1.3037324E1,5.544431E0,1.8196827E1,3.0554852E0],"tree_param":{"num_deleted":"0","num_feature":"14","num_nodes":"7","size_leaf_vector":"1"}},{"base_weights":[4.4354778E-2,3.126528E-2,-4.704538E-1,2.1520076E-2,-2.6240688E-2],"categories":[],"categories_nodes":[],"categories_segments":[],"categories_sizes":[],"default_left":[0,0,0,0,0],"id":60,"left_children":[1,-1,3,-1,-1],"loss_changes":[2.2536291E1,0E0,1.4951237E1,0E0,0E0],"parents":[2147483647,0,0,2,2],"right_children":[2,-1,4,-1,-1],"split_conditions":[1.02E0,3.126528E-2,6.3738438E1,2.1520076E-2,-2.6240688E-2],"split_indices":[2,0,13,0,0],"split_type":[0,0,0,0,0],"sum_hessian":[3.940623E1,1.3044785E1,2.6361446E1,5.986111E0,2.0375334E1],"tree_param":{"num_deleted":"0","num_feature":"14","num_nodes":"5","size_leaf_vector":"1"}},{"base_weights":[1.3867227E-2,3.1167096E-2,-5.350434E-1,2.0909518E-2,-2.8466871E-2],"categories":[],"categories_nodes":[],"categories_segments":[],"categories_sizes":[],"default_left":[0,0,0,0,0],"id":61,"left_children":[1,-1,3,-1,-1],"loss_changes":[2.4032566E1,0E0,1.5338237E1,0E0,0E0],"parents":[2147483647,0,0,2,2],"right_children":[2,-1,4,-1,-1],"split_conditions":[1.02E0,3.1167096E-2,6.3738438E1,2.0909518E-2,-2.8466871E-2],"split_indices":[2,0,13,0,0],"split_type":[0,0,0,0,0],"sum_hessian":[3.8289333E1,1.3048369E1,2.5240963E1,5.698939E0,1.9542025E1],"tree_param":{"num_deleted":"0","num_feature":"14","num_nodes":"5","size_leaf_vector":"1"}},{"base_weights":[3.462298E-2,3.0442439E-2,-4.7126386E-1,2.1109356E-2,-8.880885E-1,-3.9995494E-3,-2.9229451E-2],"categories":[],"categories_nodes":[],"categories_segments":[],"categories_sizes":[],"default_left":[0,0,0,0,0,0,0],"id":62,"left_children":[1,-1,3,-1,5,-1,-1],"loss_changes":[2.085821E1,0E0,1.46341E1,0E0,5.6822014E-1,0E0,0E0],"parents":[2147483647,0,0,2,2,4,4],"right_children":[2,-1,4,-1,6,-1,-1],"split_conditions":[1.02E0,3.0442439E-2,6.3738438E1,2.1109356E-2,1.3E1,-3.9995494E-3,-2.9229451E-2],"split_indices":[2,0,13,0,7,0,0],"split_type":[0,0,0,0,0,0,0],"sum_hessian":[3.7590076E1,1.2448488E1,2.5141586E1,5.909275E0,1.9232311E1,3.0885077E0,1.6143803E1],"tree_param":{"num_deleted":"0","num_feature":"14","num_nodes":"7","size_leaf_vector":"1"}},{"base_weights":[3.8276646E-2,3.0451022E-2,-4.7458014E-1,2.179707E-2,-8.1177545E-1,-0E0,-3.011205E-2],"categories":[],"categories_nodes":[],"categories_segments":[],"categories_sizes":[],"default_left":[0,0,0,0,0,0,0],"id":63,"left_children":[1,-1,3,-1,5,-1,-1],"loss_changes":[2.0375895E1,0E0,1.1786734E1,0E0,2.9865026E0,0E0,0E0],"parents":[2147483647,0,0,2,2,4,4],"right_children":[2,-1,4,-1,6,-1,-1],"split_conditions":[1.02E0,3.0451022E-2,1.265E1,2.179707E-2,6.9105194E1,-0E0,-3.011205E-2],"split_indices":[2,0,7,0,13,0,0],"split_type":[0,0,0,0,0,0,0],"sum_hessian":[3.621289E1,1.2129096E1,2.4083796E1,4.4477663E0,1.963603E1,4.519925E0,1.5116105E1],"tree_param":{"num_deleted":"0","num_feature":"14","num_nodes":"7","size_leaf_vector":"1"}},{"base_weights":[4.8956353E-2,-4.2710477E-1,3.1994104E-2,2.3122242E-2,-7.1990466E-1,-2.9941855E-2,1.7194724E-2],"categories":[],"categories_nodes":[],"categories_segments":[],"categories_sizes":[],"default_left":[0,0,0,0,0,0,0],"id":64,"left_children":[1,3,-1,-1,5,-1,-1],"loss_changes":[1.9751574E1,1.0603512E1,0E0,0E0,9.693628E0,0E0,0E0],"parents":[2147483647,0,0,1,1,4,4],"right_children":[2,4,-1,-1,6,-1,-1],"split_conditions":[1E0,1.02E0,3.1994104E-2,2.3122242E-2,1.4E0,-2.9941855E-2,1.7194724E-2],"split_indices":[3,2,0,0,6,0,0],"split_type":[0,0,0,0,0,0,0],"sum_hessian":[3.6234825E1,2.5141193E1,1.1093634E1,3.9616747E0,2.1179518E1,1.812378E1,3.0557377E0],"tree_param":{"num_deleted":"0","num_feature":"14","num_nodes":"7","size_leaf_vector":"1"}},{"base_weights":[6.614331E-2,-3.8803157E-1,3.1326976E-2,-6.8531007E-1,2.2538489E-2,6.7035056E-4,-2.7044173E-2],"categories":[],"categories_nodes":[],"categories_segments":[],"categories_sizes":[],"default_left":[0,0,0,0,0,0,0],"id":65,"left_children":[1,3,-1,5,-1,-1,-1],"loss_changes":[1.7875229E1,1.0086653E1,0E0,3.9489317E0,0E0,0E0,0E0],"parents":[2147483647,0,0,1,1,3,3],"right_children":[2,4,-1,6,-1,-1,-1],"split_conditions":[1E0,1E0,3.1326976E-2,4.0112873E1,2.2538489E-2,6.7035056E-4,-2.7044173E-2],"split_indices":[3,11,0,8,0,0,0],"split_type":[0,0,0,0,0,0,0],"sum_hessian":[3.567638E1,2.4838156E1,1.0838223E1,2.0678425E1,4.159731E0,4.716875E0,1.5961549E1],"tree_param":{"num_deleted":"0","num_feature":"14","num_nodes":"7","size_leaf_vector":"1"}},{"base_weights":[3.3558615E-2,2.9835276E-2,-4.4401738E-1,-8.015916E-1,2.5105285E-2,-0E0,-2.9036561E-2],"categories":[],"categories_nodes":[],"categories_segments":[],"categories_sizes":[],"default_left":[0,0,0,0,0,0,0],"id":66,"left_children":[1,-1,3,5,-1,-1,-1],"loss_changes":[1.8201372E1,0E0,1.3160011E1,2.6502123E0,0E0,0E0,0E0],"parents":[2147483647,0,0,2,2,3,3],"right_children":[2,-1,4,6,-1,-1,-1],"split_conditions":[1.02E0,2.9835276E-2,1E0,1.3E1,2.5105285E-2,-0E0,-2.9036561E-2],"split_indices":[2,0,10,7,0,0,0],"split_type":[0,0,0,0,0,0,0],"sum_hessian":[3.513656E1,1.1293855E1,2.3842705E1,1.9529442E1,4.313263E0,3.9334788E0,1.5595963E1],"tree_param":{"num_deleted":"0","num_feature":"14","num_nodes":"7","size_leaf_vector":"1"}},{"base_weights":[3.264557E-2,-4.0497714E-1,3.0648433E-2,4.310065E-1,-8.128136E-1,2.0736592E-2,-0E0,-2.744597E-2,-2.75065E-3],"categories":[],"categories_nodes":[],"categories_segments":[],"categories_sizes":[],"default_left":[0,0,0,0,0,0,0,0,0],"id":67,"left_children":[1,3,-1,5,7,-1,-1,-1,-1],"loss_changes":[1.7022015E1,9.936093E0,0E0,1.3391559E0,7.216692E-1,0E0,0E0,0E0,0E0],"parents":[2147483647,0,0,1,1,3,3,4,4],"right_children":[2,4,-1,6,8,-1,-1,-1,-1],"split_conditions":[1E0,1.3E1,3.0648433E-2,6.676925E1,1.3E2,2.0736592E-2,-0E0,-2.744597E-2,-2.75065E-3],"split_indices":[3,7,0,13,4,0,0,0,0],"split_type":[0,0,0,0,0,0,0,0,0],"sum_hessian":[3.4706123E1,2.4527874E1,1.0178248E1,7.603206E0,1.6924667E1,4.5366488E0,3.0665574E0,1.37483425E1,3.1763241E0],"tree_param":{"num_deleted":"0","num_feature":"14","num_nodes":"9","size_leaf_vector":"1"}},{"base_weights":[7.9742715E-2,2.9746642E-2,-4.005162E-1,-7.85554E-1,2.6340235E-2,-0E0,-2.8608464E-2],"categories":[],"categories_nodes":[],"categories_segments":[],"categories_sizes":[],"default_left":[0,0,0,0,0,0,0],"id":68,"left_children":[1,-1,3,5,-1,-1,-1],"loss_changes":[1.7033094E1,0E0,1.3597307E1,2.4453096E0,0E0,0E0,0E0],"parents":[2147483647,0,0,2,2,3,3],"right_children":[2,-1,4,6,-1,-1,-1],"split_conditions":[1.02E0,2.9746642E-2,1E0,1.3E1,2.6340235E-2,-0E0,-2.8608464E-2],"split_indices":[2,0,10,7,0,0,0],"split_type":[0,0,0,0,0,0,0],"sum_hessian":[3.440807E1,1.149524E1,2.291283E1,1.8502796E1,4.410034E0,3.900887E0,1.4601909E1],"tree_param":{"num_deleted":"0","num_feature":"14","num_nodes":"7","size_leaf_vector":"1"}},{"base_weights":[5.6388605E-2,2.9447367E-2,-4.3872294E-1,-8.0412614E-1,2.5468696E-2,-4.5865797E-4,-2.843393E-2],"categories":[],"categories_nodes":[],"categories_segments":[],"categories_sizes":[],"default_left":[0,0,0,0,0,0,0],"id":69,"left_children":[1,-1,3,5,-1,-1,-1],"loss_changes":[1.7094982E1,0E0,1.2508127E1,1.7350397E0,0E0,0E0,0E0],"parents":[2147483647,0,0,2,2,3,3],"right_children":[2,-1,4,6,-1,-1,-1],"split_conditions":[1.02E0,2.9447367E-2,1E0,1.3E1,2.5468696E-2,-4.5865797E-4,-2.843393E-2],"split_indices":[2,0,10,7,0,0,0],"split_type":[0,0,0,0,0,0,0],"sum_hessian":[3.2846615E1,1.1117217E1,2.1729397E1,1.7813753E1,3.9156446E0,3.621681E0,1.4192072E1],"tree_param":{"num_deleted":"0","num_feature":"14","num_nodes":"7","size_leaf_vector":"1"}},{"base_weights":[4.2833064E-2,-3.938246E-1,3.0612605E-2,-7.330696E-1,1.4752755E-2,-2.4199262E-2,-3.2327874E-3],"categories":[],"categories_nodes":[],"categories_segments":[],"categories_sizes":[],"default_left":[0,0,0,0,0,0,0],"id":70,"left_children":[1,3,-1,5,-1,-1,-1],"loss_changes":[1.5703562E1,8.265219E0,0E0,2.4660683E-1,0E0,0E0,0E0],"parents":[2147483647,0,0,1,1,3,3],"right_children":[2,4,-1,6,-1,-1,-1],"split_conditions":[1E0,1.3E0,3.0612605E-2,1.3117651E2,1.4752755E-2,-2.4199262E-2,-3.2327874E-3],"split_indices":[3,6,0,4,0,0,0],"split_type":[0,0,0,0,0,0,0],"sum_hessian":[3.2170826E1,2.2709867E1,9.46096E0,1.7077091E1,5.6327753E0,1.4045011E1,3.0320811E0],"tree_param":{"num_deleted":"0","num_feature":"14","num_nodes":"7","size_leaf_vector":"1"}},{"base_weights":[3.8328975E-2,-4.210249E-1,3.0560907E-2,2.19178E-2,-7.2067803E-1,1.1605794E-2,-2.999055E-2],"categories":[],"categories_nodes":[],"categories_segments":[],"categories_sizes":[],"default_left":[0,0,0,0,0,0,0],"id":71,"left_children":[1,3,-1,-1,5,-1,-1],"loss_changes":[1.6591911E1,9.470665E0,0E0,0E0,7.482295E0,0E0,0E0],"parents":[2147483647,0,0,1,1,4,4],"right_children":[2,4,-1,-1,6,-1,-1],"split_conditions":[1E0,1.02E0,3.0560907E-2,2.19178E-2,6.114295E1,1.1605794E-2,-2.999055E-2],"split_indices":[3,2,0,0,13,0,0],"split_type":[0,0,0,0,0,0,0],"sum_hessian":[3.2275047E1,2.2407183E1,9.8678665E0,3.6881468E0,1.8719036E1,3.250553E0,1.5468483E1],"tree_param":{"num_deleted":"0","num_feature":"14","num_nodes":"7","size_leaf_vector":"1"}},{"base_weights":[8.810854E-2,2.8828908E-2,-3.7457782E-1,-7.701138E-1,2.5522716E-2,-0E0,-2.7904019E-2],"categories":[],"categories_nodes":[],"categories_segments":[],"categories_sizes":[],"default_left":[0,0,0,0,0,0,0],"id":72,"left_children":[1,-1,3,5,-1,-1,-1],"loss_changes":[1.4509849E1,0E0,1.2371905E1,2.1859512E0,0E0,0E0,0E0],"parents":[2147483647,0,0,2,2,3,3],"right_children":[2,-1,4,6,-1,-1,-1],"split_conditions":[1.02E0,2.8828908E-2,1E0,1.3079344E1,2.5522716E-2,-0E0,-2.7904019E-2],"split_indices":[2,0,10,7,0,0,0],"split_type":[0,0,0,0,0,0,0],"sum_hessian":[3.141952E1,1.051321E1,2.090631E1,1.6674786E1,4.2315245E0,3.34621E0,1.3328575E1],"tree_param":{"num_deleted":"0","num_feature":"14","num_nodes":"7","size_leaf_vector":"1"}},{"base_weights":[4.8091464E-2,-3.8641706E-1,2.9610442E-2,-7.345247E-1,1.579318E-2,-6.668392E-4,-2.5285548E-2],"categories":[],"categories_nodes":[],"categories_segments":[],"categories_sizes":[],"default_left":[0,0,0,0,0,0,0],"id":73,"left_children":[1,3,-1,5,-1,-1,-1],"loss_changes":[1.4168999E1,8.197205E0,0E0,9.117222E-1,0E0,0E0,0E0],"parents":[2147483647,0,0,1,1,3,3],"right_children":[2,4,-1,6,-1,-1,-1],"split_conditions":[1E0,1.3E0,2.9610442E-2,4.0112873E1,1.579318E-2,-6.668392E-4,-2.5285548E-2],"split_indices":[3,6,0,8,0,0,0],"split_type":[0,0,0,0,0,0,0],"sum_hessian":[3.0124657E1,2.103472E1,9.089936E0,1.5907148E1,5.127572E0,3.027308E0,1.287984E1],"tree_param":{"num_deleted":"0","num_feature":"14","num_nodes":"7","size_leaf_vector":"1"}},{"base_weights":[9.4631135E-2,-3.525568E-1,2.986014E-2,1.3517295E-2,-2.344071E-2],"categories":[],"categories_nodes":[],"categories_segments":[],"categories_sizes":[],"default_left":[0,0,0,0,0],"id":74,"left_children":[1,3,-1,-1,-1],"loss_changes":[1.3517444E1,8.388861E0,0E0,0E0,0E0],"parents":[2147483647,0,0,1,1],"right_children":[2,4,-1,-1,-1],"split_conditions":[1E0,4.0112873E1,2.986014E-2,1.3517295E-2,-2.344071E-2],"split_indices":[3,8,0,0,0],"split_type":[0,0,0,0,0],"sum_hessian":[2.9019575E1,1.9834211E1,9.185364E0,6.462493E0,1.3371718E1],"tree_param":{"num_deleted":"0","num_feature":"14","num_nodes":"5","size_leaf_vector":"1"}},{"base_weights":[7.100676E-2,2.833484E-2,-3.7206537E-1,-7.619008E-1,2.4957942E-2,-0E0,-2.7677648E-2],"categories":[],"categories_nodes":[],"categories_segments":[],"categories_sizes":[],"default_left":[0,0,0,0,0,0,0],"id":75,"left_children":[1,-1,3,5,-1,-1,-1],"loss_changes":[1.3463877E1,0E0,1.1765384E1,2.165762E0,0E0,0E0,0E0],"parents":[2147483647,0,0,2,2,3,3],"right_children":[2,-1,4,6,-1,-1,-1],"split_conditions":[1.02E0,2.833484E-2,1E0,1.3E1,2.4957942E-2,-0E0,-2.7677648E-2],"split_indices":[2,0,10,7,0,0,0],"split_type":[0,0,0,0,0,0,0],"sum_hessian":[3.0233202E1,9.792675E0,2.0440527E1,1.6309446E1,4.1310806E0,3.2780452E0,1.3031402E1],"tree_param":{"num_deleted":"0","num_feature":"14","num_nodes":"7","size_leaf_vector":"1"}},{"base_weights":[5.051589E-2,2.817815E-2,-4.0982458E-1,1.7480535E-2,-2.2818929E-2],"categories":[],"categories_nodes":[],"categories_segments":[],"categories_sizes":[],"default_left":[0,0,0,0,0],"id":76,"left_children":[1,-1,3,-1,-1],"loss_changes":[1.3904956E1,0E0,8.546736E0,0E0,0E0],"parents":[2147483647,0,0,2,2],"right_children":[2,-1,4,-1,-1],"split_conditions":[1.02E0,2.817815E-2,6.3738438E1,1.7480535E-2,-2.2818929E-2],"split_indices":[2,0,13,0,0],"split_type":[0,0,0,0,0],"sum_hessian":[2.945785E1,9.712263E0,1.9745586E1,4.4391074E0,1.5306479E1],"tree_param":{"num_deleted":"0","num_feature":"14","num_nodes":"5","size_leaf_vector":"1"}},{"base_weights":[5.777577E-2,2.7980674E-2,-4.0464607E-1,-7.526727E-1,2.3663856E-2,-0E0,-2.736731E-2],"categories":[],"categories_nodes":[],"categories_segments":[],"categories_sizes":[],"default_left":[0,0,0,0,0,0,0],"id":77,"left_children":[1,-1,3,5,-1,-1,-1],"loss_changes":[1.3405069E1,0E0,9.912461E0,2.0057268E0,0E0,0E0,0E0],"parents":[2147483647,0,0,2,2,3,3],"right_children":[2,-1,4,6,-1,-1,-1],"split_conditions":[1.02E0,2.7980674E-2,1E0,1.3E1,2.3663856E-2,-0E0,-2.736731E-2],"split_indices":[2,0,10,7,0,0,0],"split_type":[0,0,0,0,0,0,0],"sum_hessian":[2.8615105E1,9.565078E0,1.9050026E1,1.5645234E1,3.4047925E0,3.2229807E0,1.2422254E1],"tree_param":{"num_deleted":"0","num_feature":"14","num_nodes":"7","size_leaf_vector":"1"}},{"base_weights":[3.296285E-2,2.571868E-2,-4.4516417E-1,2.0956526E-2,-2.3530463E-2],"categories":[],"categories_nodes":[],"categories_segments":[],"categories_sizes":[],"default_left":[0,0,0,0,0],"id":78,"left_children":[1,-1,3,-1,-1],"loss_changes":[1.2708064E1,0E0,8.813036E0,0E0,0E0],"parents":[2147483647,0,0,2,2],"right_children":[2,-1,4,-1,-1],"split_conditions":[6.3738438E1,2.571868E-2,1.02E0,2.0956526E-2,-2.3530463E-2],"split_indices":[13,0,2,0,0],"split_type":[0,0,0,0,0],"sum_hessian":[2.77837E1,1.0000982E1,1.7782719E1,3.2455952E0,1.4537123E1],"tree_param":{"num_deleted":"0","num_feature":"14","num_nodes":"5","size_leaf_vector":"1"}},{"base_weights":[1.1916238E-2,2.713053E-2,-4.3092412E-1,-7.793396E-1,2.3357043E-2,-1.5048243E-3,-2.7270474E-2],"categories":[],"categories_nodes":[],"categories_segments":[],"categories_sizes":[],"default_left":[0,0,0,0,0,0,0],"id":79,"left_children":[1,-1,3,5,-1,-1,-1],"loss_changes":[1.3033826E1,0E0,1.0191481E1,1.1179905E0,0E0,0E0,0E0],"parents":[2147483647,0,0,2,2,3,3],"right_children":[2,-1,4,6,-1,-1,-1],"split_conditions":[1.02E0,2.713053E-2,1E0,1.3E1,2.3357043E-2,-1.5048243E-3,-2.7270474E-2],"split_indices":[2,0,10,7,0,0,0],"split_type":[0,0,0,0,0,0,0],"sum_hessian":[2.8408688E1,9.104859E0,1.930383E1,1.585982E1,3.4440086E0,3.3955846E0,1.2464235E1],"tree_param":{"num_deleted":"0","num_feature":"14","num_nodes":"7","size_leaf_vector":"1"}},{"base_weights":[3.7999656E-2,6.664095E-1,-5.6954855E-1,2.5878135E-2,2.3074765E-3,-0E0,-2.1250978E-2],"categories":[],"categories_nodes":[],"categories_segments":[],"categories_sizes":[],"default_left":[0,0,0,0,0,0,0],"id":80,"left_children":[1,3,5,-1,-1,-1,-1],"loss_changes":[1.1969337E1,1.2130136E0,1.0877318E0,0E0,0E0,0E0,0E0],"parents":[2147483647,0,0,1,1,2,2],"right_children":[2,4,6,-1,-1,-1,-1],"split_conditions":[1.3079344E1,1.265E1,6.9105194E1,2.5878135E-2,2.3074765E-3,-0E0,-2.1250978E-2],"split_indices":[7,7,13,0,0,0,0],"split_type":[0,0,0,0,0,0,0],"sum_hessian":[2.7235504E1,1.3697195E1,1.3538309E1,8.945258E0,4.7519374E0,3.325574E0,1.0212735E1],"tree_param":{"num_deleted":"0","num_feature":"14","num_nodes":"7","size_leaf_vector":"1"}},{"base_weights":[6.9424756E-2,2.7377902E-2,-3.6105898E-1,1.7203521E-2,-2.1482047E-2],"categories":[],"categories_nodes":[],"categories_segments":[],"categories_sizes":[],"default_left":[0,0,0,0,0],"id":81,"left_children":[1,-1,3,-1,-1],"loss_changes":[1.1732269E1,0E0,7.77113E0,0E0,0E0],"parents":[2147483647,0,0,2,2],"right_children":[2,-1,4,-1,-1],"split_conditions":[1.02E0,2.7377902E-2,6.3738438E1,1.7203521E-2,-2.1482047E-2],"split_indices":[2,0,13,0,0],"split_type":[0,0,0,0,0],"sum_hessian":[2.7747482E1,9.013907E0,1.8733576E1,4.430884E0,1.4302691E1],"tree_param":{"num_deleted":"0","num_feature":"14","num_nodes":"5","size_leaf_vector":"1"}},{"base_weights":[6.4858705E-2,2.7142085E-2,-3.707396E-1,-7.264235E-1,2.2325672E-2,-3.265449E-4,-2.6366068E-2],"categories":[],"categories_nodes":[],"categories_segments":[],"categories_sizes":[],"default_left":[0,0,0,0,0,0,0],"id":82,"left_children":[1,-1,3,5,-1,-1,-1],"loss_changes":[1.1410254E1,0E0,8.954242E0,1.327157E0,0E0,0E0,0E0],"parents":[2147483647,0,0,2,2,3,3],"right_children":[2,-1,4,6,-1,-1,-1],"split_conditions":[1.02E0,2.7142085E-2,1E0,1.3E1,2.2325672E-2,-3.265449E-4,-2.6366068E-2],"split_indices":[2,0,10,7,0,0,0],"split_type":[0,0,0,0,0,0,0],"sum_hessian":[2.6624939E1,8.749286E0,1.7875652E1,1.4420582E1,3.4550707E0,3.4851012E0,1.093548E1],"tree_param":{"num_deleted":"0","num_feature":"14","num_nodes":"7","size_leaf_vector":"1"}},{"base_weights":[7.8169644E-2,-3.2319143E-1,2.871897E-2,1.878956E-2,-6.0927796E-1,3.3289255E-4,-2.3096556E-2],"categories":[],"categories_nodes":[],"categories_segments":[],"categories_sizes":[],"default_left":[0,0,0,0,0,0,0],"id":83,"left_children":[1,3,-1,-1,5,-1,-1],"loss_changes":[1.1378105E1,6.574027E0,0E0,0E0,2.178094E0,0E0,0E0],"parents":[2147483647,0,0,1,1,4,4],"right_children":[2,4,-1,-1,6,-1,-1],"split_conditions":[1E0,1.265E1,2.871897E-2,1.878956E-2,6.676925E1,3.3289255E-4,-2.3096556E-2],"split_indices":[3,7,0,0,13,0,0],"split_type":[0,0,0,0,0,0,0],"sum_hessian":[2.759421E1,1.9422836E1,8.171373E0,3.5417283E0,1.5881108E1,3.0085757E0,1.2872533E1],"tree_param":{"num_deleted":"0","num_feature":"14","num_nodes":"7","size_leaf_vector":"1"}},{"base_weights":[6.1465755E-2,-3.3012846E-1,2.8354885E-2,-6.1886805E-1,1.9463275E-2,-0E0,-2.5554175E-2],"categories":[],"categories_nodes":[],"categories_segments":[],"categories_sizes":[],"default_left":[0,0,0,0,0,0,0],"id":84,"left_children":[1,3,-1,5,-1,-1,-1],"loss_changes":[1.0783223E1,6.672042E0,0E0,2.8175344E0,0E0,0E0,0E0],"parents":[2147483647,0,0,1,1,3,3],"right_children":[2,4,-1,6,-1,-1,-1],"split_conditions":[1E0,1E0,2.8354885E-2,1.3E1,1.9463275E-2,-0E0,-2.5554175E-2],"split_indices":[3,11,0,7,0,0,0],"split_type":[0,0,0,0,0,0,0],"sum_hessian":[2.6468824E1,1.8817316E1,7.6515074E0,1.5493645E1,3.3236716E0,4.3763466E0,1.1117298E1],"tree_param":{"num_deleted":"0","num_feature":"14","num_nodes":"7","size_leaf_vector":"1"}},{"base_weights":[7.661384E-2,2.6451375E-2,-3.375834E-1,1.8556993E-2,-6.5367115E-1,-0E0,-2.6095482E-2],"categories":[],"categories_nodes":[],"categories_segments":[],"categories_sizes":[],"default_left":[0,0,0,0,0,0,0],"id":85,"left_children":[1,-1,3,-1,5,-1,-1],"loss_changes":[9.718633E0,0E0,6.436307E0,0E0,2.2555456E0,0E0,0E0],"parents":[2147483647,0,0,2,2,4,4],"right_children":[2,-1,4,-1,6,-1,-1],"split_conditions":[1.02E0,2.6451375E-2,1.265E1,1.8556993E-2,6.9105194E1,-0E0,-2.6095482E-2],"split_indices":[2,0,7,0,13,0,0],"split_type":[0,0,0,0,0,0,0],"sum_hessian":[2.4542938E1,7.980496E0,1.6562443E1,3.246428E0,1.3316014E1,3.6857977E0,9.630217E0],"tree_param":{"num_deleted":"0","num_feature":"14","num_nodes":"7","size_leaf_vector":"1"}},{"base_weights":[9.7130954E-2,2.636635E-2,-2.9598698E-1,-6.652093E-1,2.3166468E-2,-0E0,-2.5973557E-2],"categories":[],"categories_nodes":[],"categories_segments":[],"categories_sizes":[],"default_left":[0,0,0,0,0,0,0],"id":86,"left_children":[1,-1,3,5,-1,-1,-1],"loss_changes":[9.2007265E0,0E0,8.55986E0,2.2376347E0,0E0,0E0,0E0],"parents":[2147483647,0,0,2,2,3,3],"right_children":[2,-1,4,6,-1,-1,-1],"split_conditions":[1.02E0,2.636635E-2,1E0,1.3E1,2.3166468E-2,-0E0,-2.5973557E-2],"split_indices":[2,0,10,7,0,0,0],"split_type":[0,0,0,0,0,0,0],"sum_hessian":[2.5297398E1,8.063341E0,1.7234056E1,1.3715813E1,3.5182443E0,3.453098E0,1.0262714E1],"tree_param":{"num_deleted":"0","num_feature":"14","num_nodes":"7","size_leaf_vector":"1"}},{"base_weights":[6.811186E-2,-3.0787787E-1,2.787364E-2,1.9415794E-2,-5.884191E-1,-2.6308376E-2,8.156771E-3],"categories":[],"categories_nodes":[],"categories_segments":[],"categories_sizes":[],"default_left":[0,0,0,0,0,0,0],"id":87,"left_children":[1,3,-1,-1,5,-1,-1],"loss_changes":[9.853784E0,6.194545E0,0E0,0E0,5.051323E0,0E0,0E0],"parents":[2147483647,0,0,1,1,4,4],"right_children":[2,4,-1,-1,6,-1,-1],"split_conditions":[1E0,1.02E0,2.787364E-2,1.9415794E-2,1.3E0,-2.6308376E-2,8.156771E-3],"split_indices":[3,2,0,0,6,0,0],"split_type":[0,0,0,0,0,0,0],"sum_hessian":[2.5711456E1,1.8386488E1,7.3249683E0,3.1764529E0,1.5210035E1,1.179635E1,3.4136853E0],"tree_param":{"num_deleted":"0","num_feature":"14","num_nodes":"7","size_leaf_vector":"1"}},{"base_weights":[4.1963976E-2,2.5741488E-2,-3.5014498E-1,-6.965189E-1,2.2185344E-2,-0E0,-2.5763862E-2],"categories":[],"categories_nodes":[],"categories_segments":[],"categories_sizes":[],"default_left":[0,0,0,0,0,0,0],"id":88,"left_children":[1,-1,3,5,-1,-1,-1],"loss_changes":[9.179272E0,0E0,8.020592E0,1.3284631E0,0E0,0E0,0E0],"parents":[2147483647,0,0,2,2,3,3],"right_children":[2,-1,4,6,-1,-1,-1],"split_conditions":[1.02E0,2.5741488E-2,1E0,1.3E1,2.2185344E-2,-0E0,-2.5763862E-2],"split_indices":[2,0,10,7,0,0,0],"split_type":[0,0,0,0,0,0,0],"sum_hessian":[2.401431E1,7.436174E0,1.6578138E1,1.3475167E1,3.1029701E0,3.4945445E0,9.980622E0],"tree_param":{"num_deleted":"0","num_feature":"14","num_nodes":"7","size_leaf_vector":"1"}},{"base_weights":[5.089918E-2,-3.478474E-1,2.7601568E-2,1.8910423E-2,-6.4108235E-1,-2.7165333E-2,6.2849675E-3],"categories":[],"categories_nodes":[],"categories_segments":[],"categories_sizes":[],"default_left":[0,0,0,0,0,0,0],"id":89,"left_children":[1,3,-1,-1,5,-1,-1],"loss_changes":[1.014567E1,6.3475294E0,0E0,0E0,4.377389E0,0E0,0E0],"parents":[2147483647,0,0,1,1,4,4],"right_children":[2,4,-1,-1,6,-1,-1],"split_conditions":[1E0,1.02E0,2.7601568E-2,1.8910423E-2,1.3E0,-2.7165333E-2,6.2849675E-3],"split_indices":[3,2,0,0,6,0,0],"split_type":[0,0,0,0,0,0,0],"sum_hessian":[2.4601967E1,1.729276E1,7.3092046E0,3.0647519E0,1.422801E1,1.1203682E1,3.0243273E0],"tree_param":{"num_deleted":"0","num_feature":"14","num_nodes":"7","size_leaf_vector":"1"}},{"base_weights":[5.2211467E-2,-3.372811E-1,2.7129984E-2,1.2978644E-2,-1.9237364E-2],"categories":[],"categories_nodes":[],"categories_segments":[],"categories_sizes":[],"default_left":[0,0,0,0,0],"id":90,"left_children":[1,3,-1,-1,-1],"loss_changes":[9.142552E0,4.8976536E0,0E0,0E0,0E0],"parents":[2147483647,0,0,1,1],"right_children":[2,4,-1,-1,-1],"split_conditions":[1E0,6.609398E1,2.7129984E-2,1.2978644E-2,-1.9237364E-2],"split_indices":[3,13,0,0,0],"split_type":[0,0,0,0,0],"sum_hessian":[2.2854246E1,1.6111507E1,6.742739E0,3.8552358E0,1.2256272E1],"tree_param":{"num_deleted":"0","num_feature":"14","num_nodes":"5","size_leaf_vector":"1"}},{"base_weights":[2.4209986E-2,-3.4758514E-1,2.6930347E-2,-6.638291E-1,1.2113531E-2,-2.331347E-2,-3.2131537E-3],"categories":[],"categories_nodes":[],"categories_segments":[],"categories_sizes":[],"default_left":[0,0,0,0,0,0,0],"id":91,"left_children":[1,3,-1,5,-1,-1,-1],"loss_changes":[9.227348E0,5.1875873E0,0E0,3.1329012E-1,0E0,0E0,0E0],"parents":[2147483647,0,0,1,1,3,3],"right_children":[2,4,-1,6,-1,-1,-1],"split_conditions":[1E0,1.3E0,2.6930347E-2,1.3E2,1.2113531E-2,-2.331347E-2,-3.2131537E-3],"split_indices":[3,6,0,4,0,0,0],"split_type":[0,0,0,0,0,0,0],"sum_hessian":[2.364505E1,1.70285E1,6.616551E0,1.2616716E1,4.4117827E0,9.079327E0,3.53739E0],"tree_param":{"num_deleted":"0","num_feature":"14","num_nodes":"7","size_leaf_vector":"1"}},{"base_weights":[6.939445E-2,-2.9772747E-1,2.6833994E-2,1.7234067E-2,-5.748022E-1,-2.04503E-2,-1.3132526E-3],"categories":[],"categories_nodes":[],"categories_segments":[],"categories_sizes":[],"default_left":[0,0,0,0,0,0,0],"id":92,"left_children":[1,3,-1,-1,5,-1,-1],"loss_changes":[8.478157E0,5.1442084E0,0E0,0E0,4.5812082E-1,0E0,0E0],"parents":[2147483647,0,0,1,1,4,4],"right_children":[2,4,-1,-1,6,-1,-1],"split_conditions":[1E0,1.265E1,2.6833994E-2,1.7234067E-2,1.29E2,-2.04503E-2,-1.3132526E-3],"split_indices":[3,7,0,0,4,0,0],"split_type":[0,0,0,0,0,0,0],"sum_hessian":[2.3246359E1,1.6553186E1,6.693171E0,3.0381703E0,1.3515017E1,9.994553E0,3.520464E0],"tree_param":{"num_deleted":"0","num_feature":"14","num_nodes":"7","size_leaf_vector":"1"}},{"base_weights":[5.0747357E-2,2.5007362E-2,-3.4029472E-1,6.9492757E-3,-2.0822482E-2],"categories":[],"categories_nodes":[],"categories_segments":[],"categories_sizes":[],"default_left":[0,0,0,0,0],"id":93,"left_children":[1,-1,3,-1,-1],"loss_changes":[8.018463E0,0E0,3.9297445E0,0E0,0E0],"parents":[2147483647,0,0,2,2],"right_children":[2,-1,4,-1,-1],"split_conditions":[1.02E0,2.5007362E-2,1.3E1,6.9492757E-3,-2.0822482E-2],"split_indices":[2,0,7,0,0],"split_type":[0,0,0,0,0],"sum_hessian":[2.1534874E1,6.8456855E0,1.4689188E1,5.337599E0,9.35159E0],"tree_param":{"num_deleted":"0","num_feature":"14","num_nodes":"5","size_leaf_vector":"1"}},{"base_weights":[7.5706355E-2,-2.9111072E-1,2.6625257E-2,1.1742761E-2,-5.770451E-1,-7.935081E-4,-2.2166375E-2],"categories":[],"categories_nodes":[],"categories_segments":[],"categories_sizes":[],"default_left":[0,0,0,0,0,0,0],"id":94,"left_children":[1,3,-1,-1,5,-1,-1],"loss_changes":[8.117417E0,4.0520735E0,0E0,0E0,8.249035E-1,0E0,0E0],"parents":[2147483647,0,0,1,1,4,4],"right_children":[2,4,-1,-1,6,-1,-1],"split_conditions":[1E0,6.609398E1,2.6625257E-2,1.1742761E-2,2.4122591E1,-7.935081E-4,-2.2166375E-2],"split_indices":[3,13,0,0,5,0,0],"split_type":[0,0,0,0,0,0,0],"sum_hessian":[2.2522871E1,1.5972503E1,6.5503683E0,3.9816446E0,1.1990858E1,3.9542165E0,8.036641E0],"tree_param":{"num_deleted":"0","num_feature":"14","num_nodes":"7","size_leaf_vector":"1"}},{"base_weights":[6.3252285E-2,2.5171427E-2,-3.3388132E-1,-7.059988E-1,2.144784E-2,-2.096344E-3,-2.4859259E-2],"categories":[],"categories_nodes":[],"categories_segments":[],"categories_sizes":[],"default_left":[0,0,0,0,0,0,0],"id":95,"left_children":[1,-1,3,5,-1,-1,-1],"loss_changes":[8.242928E0,0E0,7.6223164E0,5.172558E-1,0E0,0E0,0E0],"parents":[2147483647,0,0,2,2,3,3],"right_children":[2,-1,4,6,-1,-1,-1],"split_conditions":[1.02E0,2.5171427E-2,1E0,1.3E1,2.144784E-2,-2.096344E-3,-2.4859259E-2],"split_indices":[2,0,10,7,0,0,0],"split_type":[0,0,0,0,0,0,0],"sum_hessian":[2.211618E1,7.16092E0,1.495526E1,1.1873122E1,3.0821385E0,3.085544E0,8.787578E0],"tree_param":{"num_deleted":"0","num_feature":"14","num_nodes":"7","size_leaf_vector":"1"}},{"base_weights":[5.142598E-2,2.49126E-2,-3.32518E-1,1.4530419E-2,-1.983897E-2],"categories":[],"categories_nodes":[],"categories_segments":[],"categories_sizes":[],"default_left":[0,0,0,0,0],"id":96,"left_children":[1,-1,3,-1,-1],"loss_changes":[8.048774E0,0E0,5.356539E0,0E0,0E0],"parents":[2147483647,0,0,2,2],"right_children":[2,-1,4,-1,-1],"split_conditions":[1.02E0,2.49126E-2,6.3738438E1,1.4530419E-2,-1.983897E-2],"split_indices":[2,0,13,0,0],"split_type":[0,0,0,0,0],"sum_hessian":[2.2232046E1,7.0020137E0,1.5230031E1,3.662747E0,1.1567285E1],"tree_param":{"num_deleted":"0","num_feature":"14","num_nodes":"5","size_leaf_vector":"1"}},{"base_weights":[4.8201513E-2,2.4711747E-2,-3.2608902E-1,1.3624684E-2,-1.9191872E-2],"categories":[],"categories_nodes":[],"categories_segments":[],"categories_sizes":[],"default_left":[0,0,0,0,0],"id":97,"left_children":[1,-1,3,-1,-1],"loss_changes":[7.760976E0,0E0,4.8842015E0,0E0,0E0],"parents":[2147483647,0,0,2,2],"right_children":[2,-1,4,-1,-1],"split_conditions":[1.02E0,2.4711747E-2,6.3738438E1,1.3624684E-2,-1.9191872E-2],"split_indices":[2,0,13,0,0],"split_type":[0,0,0,0,0],"sum_hessian":[2.2029064E1,6.824062E0,1.5205003E1,3.645598E0,1.1559404E1],"tree_param":{"num_deleted":"0","num_feature":"14","num_nodes":"5","size_leaf_vector":"1"}},{"base_weights":[3.186142E-2,2.3798818E-2,-3.3374053E-1,1.2886744E-2,-1.9311577E-2],"categories":[],"categories_nodes":[],"categories_segments":[],"categories_sizes":[],"default_left":[0,0,0,0,0],"id":98,"left_children":[1,-1,3,-1,-1],"loss_changes":[7.088593E0,0E0,4.5226603E0,0E0,0E0],"parents":[2147483647,0,0,2,2],"right_children":[2,-1,4,-1,-1],"split_conditions":[1.02E0,2.3798818E-2,6.3738438E1,1.2886744E-2,-1.9311577E-2],"split_indices":[2,0,13,0,0],"split_type":[0,0,0,0,0],"sum_hessian":[2.0736115E1,6.4113207E0,1.4324793E1,3.448524E0,1.0876269E1],"tree_param":{"num_deleted":"0","num_feature":"14","num_nodes":"5","size_leaf_vector":"1"}},{"base_weights":[4.369991E-2,-3.2472974E-1,2.5992177E-2,1.0890012E-2,-5.689763E-1,-2.1877753E-2,-4.232057E-3],"categories":[],"categories_nodes":[],"categories_segments":[],"categories_sizes":[],"default_left":[0,0,0,0,0,0,0],"id":99,"left_children":[1,3,-1,-1,5,-1,-1],"loss_changes":[7.762379E0,3.3420274E0,0E0,0E0,3.007779E-1,0E0,0E0],"parents":[2147483647,0,0,1,1,4,4],"right_children":[2,4,-1,-1,6,-1,-1],"split_conditions":[1E0,6.114295E1,2.5992177E-2,1.0890012E-2,1.21E2,-2.1877753E-2,-4.232057E-3],"split_indices":[3,13,0,0,4,0,0],"split_type":[0,0,0,0,0,0,0],"sum_hessian":[2.085923E1,1.482364E1,6.035589E0,3.0935483E0,1.1730092E1,6.658896E0,5.0711956E0],"tree_param":{"num_deleted":"0","num_feature":"14","num_nodes":"7","size_leaf_vector":"1"}},{"base_weights":[4.526758E-2,-3.1648335E-1,2.5714168E-2,-6.2313855E-1,1.06936265E-2,-2.1942591E-2,-2.5624319E-3],"categories":[],"categories_nodes":[],"categories_segments":[],"categories_sizes":[],"default_left":[0,0,0,0,0,0,0],"id":100,"left_children":[1,3,-1,5,-1,-1,-1],"loss_changes":[7.39937E0,3.9925065E0,0E0,2.0063639E-1,0E0,0E0,0E0],"parents":[2147483647,0,0,1,1,3,3],"right_children":[2,4,-1,6,-1,-1,-1],"split_conditions":[1E0,1.3E0,2.5714168E-2,1.3E2,1.06936265E-2,-2.1942591E-2,-2.5624319E-3],"split_indices":[3,6,0,4,0,0,0],"split_type":[0,0,0,0,0,0,0],"sum_hessian":[2.0426317E1,1.4548392E1,5.8779235E0,1.0606201E1,3.9421918E0,7.4547668E0,3.151434E0],"tree_param":{"num_deleted":"0","num_feature":"14","num_nodes":"7","size_leaf_vector":"1"}},{"base_weights":[4.687128E-2,2.3679618E-2,-3.042076E-1,1.4001587E-2,-1.8017706E-2],"categories":[],"categories_nodes":[],"categories_segments":[],"categories_sizes":[],"default_left":[0,0,0,0,0],"id":101,"left_children":[1,-1,3,-1,-1],"loss_changes":[6.3850665E0,0E0,4.2228694E0,0E0,0E0],"parents":[2147483647,0,0,2,2],"right_children":[2,-1,4,-1,-1],"split_conditions":[1.02E0,2.3679618E-2,6.3738438E1,1.4001587E-2,-1.8017706E-2],"split_indices":[2,0,13,0,0],"split_type":[0,0,0,0,0],"sum_hessian":[1.9722984E1,5.9878106E0,1.3735173E1,3.0264802E0,1.07086935E1],"tree_param":{"num_deleted":"0","num_feature":"14","num_nodes":"5","size_leaf_vector":"1"}},{"base_weights":[5.7002228E-2,-3.016241E-1,2.5515735E-2,-1.7806794E-2,1.0645247E-2],"categories":[],"categories_nodes":[],"categories_segments":[],"categories_sizes":[],"default_left":[0,0,0,0,0],"id":102,"left_children":[1,3,-1,-1,-1],"loss_changes":[7.0523367E0,3.646116E0,0E0,0E0,0E0],"parents":[2147483647,0,0,1,1],"right_children":[2,4,-1,-1,-1],"split_conditions":[1E0,1.3E0,2.5515735E-2,-1.7806794E-2,1.0645247E-2],"split_indices":[3,6,0,0,0],"split_type":[0,0,0,0,0],"sum_hessian":[2.0014383E1,1.4204466E1,5.8099174E0,1.0491925E1,3.7125406E0],"tree_param":{"num_deleted":"0","num_feature":"14","num_nodes":"5","size_leaf_vector":"1"}},{"base_weights":[6.5037524E-3,-3.587463E-1,1.8643213E-2,-1.9816777E-2,7.577638E-5],"categories":[],"categories_nodes":[],"categories_segments":[],"categories_sizes":[],"default_left":[0,0,0,0,0],"id":103,"left_children":[1,3,-1,-1,-1],"loss_changes":[5.364209E0,1.8729173E0,0E0,0E0,0E0],"parents":[2147483647,0,0,1,1],"right_children":[2,4,-1,-1,-1],"split_conditions":[1.3E0,1.21E2,1.8643213E-2,-1.9816777E-2,7.577638E-5],"split_indices":[6,4,0,0,0],"split_type":[0,0,0,0,0],"sum_hessian":[1.9312836E1,1.2128865E1,7.183971E0,6.4595737E0,5.669291E0],"tree_param":{"num_deleted":"0","num_feature":"14","num_nodes":"5","size_leaf_vector":"1"}},{"base_weights":[8.7030195E-2,-2.1911547E-1,2.462637E-2,1.7440364E-2,-5.380292E-1,-2.4598648E-4,-1.969747E-2],"categories":[],"categories_nodes":[],"categories_segments":[],"categories_sizes":[],"default_left":[0,0,0,0,0,0,0],"id":104,"left_children":[1,3,-1,-1,5,-1,-1],"loss_changes":[5.347556E0,4.642047E0,0E0,0E0,4.6067238E-1,0E0,0E0],"parents":[2147483647,0,0,1,1,4,4],"right_children":[2,4,-1,-1,6,-1,-1],"split_conditions":[1E0,1.265E1,2.462637E-2,1.7440364E-2,1.31633625E1,-2.4598648E-4,-1.969747E-2],"split_indices":[11,7,0,0,7,0,0],"split_type":[0,0,0,0,0,0,0],"sum_hessian":[1.886194E1,1.3818611E1,5.0433292E0,3.0214024E0,1.0797209E1,3.1363387E0,7.6608696E0],"tree_param":{"num_deleted":"0","num_feature":"14","num_nodes":"7","size_leaf_vector":"1"}},{"base_weights":[8.422403E-2,-2.383933E-1,2.5014825E-2,1.7832641E-1,-1.9534538E-2,1.5239161E-2,-5.611741E-3],"categories":[],"categories_nodes":[],"categories_segments":[],"categories_sizes":[],"default_left":[0,0,0,0,0,0,0],"id":105,"left_children":[1,3,-1,5,-1,-1,-1],"loss_changes":[5.9334106E0,3.2605805E0,0E0,1.4398663E0,0E0,0E0,0E0],"parents":[2147483647,0,0,1,1,3,3],"right_children":[2,4,-1,6,-1,-1,-1],"split_conditions":[1E0,1.3707772E1,2.5014825E-2,8.05038E1,-1.9534538E-2,1.5239161E-2,-5.611741E-3],"split_indices":[3,7,0,13,0,0,0],"split_type":[0,0,0,0,0,0,0],"sum_hessian":[1.965995E1,1.4231758E1,5.428192E0,7.044354E0,7.187404E0,4.0123763E0,3.031978E0],"tree_param":{"num_deleted":"0","num_feature":"14","num_nodes":"7","size_leaf_vector":"1"}},{"base_weights":[6.386733E-2,-2.4384266E-1,2.421861E-2,1.8965453E-2,-6.1277777E-1,-0E0,-2.3726337E-2],"categories":[],"categories_nodes":[],"categories_segments":[],"categories_sizes":[],"default_left":[0,0,0,0,0,0,0],"id":106,"left_children":[1,3,-1,-1,5,-1,-1],"loss_changes":[5.561021E0,5.9896436E0,0E0,0E0,1.131762E0,0E0,0E0],"parents":[2147483647,0,0,1,1,4,4],"right_children":[2,4,-1,-1,6,-1,-1],"split_conditions":[1E0,1.02E0,2.421861E-2,1.8965453E-2,1.3E1,-0E0,-2.3726337E-2],"split_indices":[10,2,0,0,7,0,0],"split_type":[0,0,0,0,0,0,0],"sum_hessian":[1.9357086E1,1.4165325E1,5.1917624E0,3.3732762E0,1.0792048E1,3.3032415E0,7.488807E0],"tree_param":{"num_deleted":"0","num_feature":"14","num_nodes":"7","size_leaf_vector":"1"}},{"base_weights":[7.568871E-2,-2.5417218E-1,2.489091E-2,-5.3242254E-1,1.0137353E-2,-1.3416313E-4,-2.1206938E-2],"categories":[],"categories_nodes":[],"categories_segments":[],"categories_sizes":[],"default_left":[0,0,0,0,0,0,0],"id":107,"left_children":[1,3,-1,5,-1,-1,-1],"loss_changes":[6.075233E0,3.105814E0,0E0,7.699363E-1,0E0,0E0,0E0],"parents":[2147483647,0,0,1,1,3,3],"right_children":[2,4,-1,6,-1,-1,-1],"split_conditions":[1E0,1.3E0,2.489091E-2,2.4122591E1,1.0137353E-2,-1.3416313E-4,-2.1206938E-2],"split_indices":[3,6,0,5,0,0,0],"split_type":[0,0,0,0,0,0,0],"sum_hessian":[1.9573435E1,1.4077534E1,5.4959016E0,1.02884655E1,3.7890685E0,3.776881E0,6.5115848E0],"tree_param":{"num_deleted":"0","num_feature":"14","num_nodes":"7","size_leaf_vector":"1"}},{"base_weights":[5.8353275E-2,2.3430353E-2,-3.024363E-1,1.2792003E-2,-1.8994018E-2],"categories":[],"categories_nodes":[],"categories_segments":[],"categories_sizes":[],"default_left":[0,0,0,0,0],"id":108,"left_children":[1,-1,3,-1,-1],"loss_changes":[6.1358395E0,0E0,4.2240524E0,0E0,0E0],"parents":[2147483647,0,0,2,2],"right_children":[2,-1,4,-1,-1],"split_conditions":[1.02E0,2.3430353E-2,6.3738438E1,1.2792003E-2,-1.8994018E-2],"split_indices":[2,0,13,0,0],"split_type":[0,0,0,0,0],"sum_hessian":[1.8803852E1,5.9474835E0,1.2856369E1,3.3601236E0,9.496244E0],"tree_param":{"num_deleted":"0","num_feature":"14","num_nodes":"5","size_leaf_vector":"1"}},{"base_weights":[6.124784E-2,2.2781005E-2,-2.7117854E-1,1.2999075E-2,-1.8248985E-2],"categories":[],"categories_nodes":[],"categories_segments":[],"categories_sizes":[],"default_left":[0,0,0,0,0],"id":109,"left_children":[1,-1,3,-1,-1],"loss_changes":[5.3373327E0,0E0,4.09482E0,0E0,0E0],"parents":[2147483647,0,0,2,2],"right_children":[2,-1,4,-1,-1],"split_conditions":[1.02E0,2.2781005E-2,6.3738438E1,1.2999075E-2,-1.8248985E-2],"split_indices":[2,0,13,0,0],"split_type":[0,0,0,0,0],"sum_hessian":[1.8172043E1,5.518423E0,1.2653619E1,3.4307127E0,9.222906E0],"tree_param":{"num_deleted":"0","num_feature":"14","num_nodes":"5","size_leaf_vector":"1"}},{"base_weights":[1.11877926E-1,-1.9825377E-1,2.436913E-2,9.191512E-3,-1.8066384E-2],"categories":[],"categories_nodes":[],"categories_segments":[],"categories_sizes":[],"default_left":[0,0,0,0,0],"id":110,"left_children":[1,3,-1,-1,-1],"loss_changes":[5.011534E0,3.5943084E0,0E0,0E0,0E0],"parents":[2147483647,0,0,1,1],"right_children":[2,4,-1,-1,-1],"split_conditions":[1E0,1.3E1,2.436913E-2,9.191512E-3,-1.8066384E-2],"split_indices":[3,7,0,0,0],"split_type":[0,0,0,0,0],"sum_hessian":[1.8174635E1,1.309607E1,5.0785646E0,5.486953E0,7.609117E0],"tree_param":{"num_deleted":"0","num_feature":"14","num_nodes":"5","size_leaf_vector":"1"}},{"base_weights":[1.1931516E-1,-1.7328879E-1,2.3953382E-2,1.0847473E-2,-1.656471E-2],"categories":[],"categories_nodes":[],"categories_segments":[],"categories_sizes":[],"default_left":[0,0,0,0,0],"id":111,"left_children":[1,3,-1,-1,-1],"loss_changes":[4.510674E0,3.518112E0,0E0,0E0,0E0],"parents":[2147483647,0,0,1,1],"right_children":[2,4,-1,-1,-1],"split_conditions":[1E0,4.0112873E1,2.3953382E-2,1.0847473E-2,-1.656471E-2],"split_indices":[3,8,0,0,0],"split_type":[0,0,0,0,0],"sum_hessian":[1.7733507E1,1.292025E1,4.8132577E0,4.847819E0,8.072432E0],"tree_param":{"num_deleted":"0","num_feature":"14","num_nodes":"5","size_leaf_vector":"1"}},{"base_weights":[7.973385E-2,2.2795813E-2,-2.4482456E-1,1.2250475E-2,-1.6326623E-2],"categories":[],"categories_nodes":[],"categories_segments":[],"categories_sizes":[],"default_left":[0,0,0,0,0],"id":112,"left_children":[1,-1,3,-1,-1],"loss_changes":[5.095088E0,0E0,3.38896E0,0E0,0E0],"parents":[2147483647,0,0,2,2],"right_children":[2,-1,4,-1,-1],"split_conditions":[1.02E0,2.2795813E-2,6.3738438E1,1.2250475E-2,-1.6326623E-2],"split_indices":[2,0,13,0,0],"split_type":[0,0,0,0,0],"sum_hessian":[1.8229631E1,5.520114E0,1.2709517E1,3.2409961E0,9.468521E0],"tree_param":{"num_deleted":"0","num_feature":"14","num_nodes":"5","size_leaf_vector":"1"}},{"base_weights":[1.0319475E-1,5.096178E-1,-1.2935753E-2,-0E0,2.0454945E-2],"categories":[],"categories_nodes":[],"categories_segments":[],"categories_sizes":[],"default_left":[0,0,0,0,0],"id":113,"left_children":[1,3,-1,-1,-1],"loss_changes":[4.540541E0,8.5486555E-1,0E0,0E0,0E0],"parents":[2147483647,0,0,1,1],"right_children":[2,4,-1,-1,-1],"split_conditions":[1.3707772E1,4.4844006E1,-1.2935753E-2,-0E0,2.0454945E-2],"split_indices":[7,0,0,0,0],"split_type":[0,0,0,0,0],"sum_hessian":[1.670205E1,1.0070993E1,6.6310554E0,3.4887679E0,6.582226E0],"tree_param":{"num_deleted":"0","num_feature":"14","num_nodes":"5","size_leaf_vector":"1"}},{"base_weights":[7.567993E-2,2.2562025E-2,-2.515269E-1,-1.6142346E-2,9.638022E-3],"categories":[],"categories_nodes":[],"categories_segments":[],"categories_sizes":[],"default_left":[0,0,0,0,0],"id":114,"left_children":[1,-1,3,-1,-1],"loss_changes":[4.985002E0,0E0,2.7958133E0,0E0,0E0],"parents":[2147483647,0,0,2,2],"right_children":[2,-1,4,-1,-1],"split_conditions":[1.02E0,2.2562025E-2,1.3E0,-1.6142346E-2,9.638022E-3],"split_indices":[2,0,6,0,0],"split_type":[0,0,0,0,0],"sum_hessian":[1.7683844E1,5.4170814E0,1.2266762E1,8.839009E0,3.4277527E0],"tree_param":{"num_deleted":"0","num_feature":"14","num_nodes":"5","size_leaf_vector":"1"}},{"base_weights":[1.20072015E-1,-1.72179E-1,2.3741199E-2,-4.1547564E-1,8.826697E-3,3.8943926E-4,-1.9221965E-2],"categories":[],"categories_nodes":[],"categories_segments":[],"categories_sizes":[],"default_left":[0,0,0,0,0,0,0],"id":115,"left_children":[1,3,-1,5,-1,-1,-1],"loss_changes":[4.345025E0,1.9489379E0,0E0,1.3973494E0,0E0,0E0,0E0],"parents":[2147483647,0,0,1,1,3,3],"right_children":[2,4,-1,6,-1,-1,-1],"split_conditions":[1E0,1.3E0,2.3741199E-2,2.4122591E1,8.826697E-3,3.8943926E-4,-1.9221965E-2],"split_indices":[3,6,0,5,0,0,0],"split_type":[0,0,0,0,0,0,0],"sum_hessian":[1.7180088E1,1.248636E1,4.693729E0,9.053867E0,3.4324923E0,3.0043638E0,6.049503E0],"tree_param":{"num_deleted":"0","num_feature":"14","num_nodes":"7","size_leaf_vector":"1"}},{"base_weights":[9.236471E-2,2.2217749E-2,-2.2245625E-1,7.862053E-3,-1.8137122E-2],"categories":[],"categories_nodes":[],"categories_segments":[],"categories_sizes":[],"default_left":[0,0,0,0,0],"id":116,"left_children":[1,-1,3,-1,-1],"loss_changes":[4.470705E0,0E0,3.0474176E0,0E0,0E0],"parents":[2147483647,0,0,2,2],"right_children":[2,-1,4,-1,-1],"split_conditions":[1.02E0,2.2217749E-2,1.3E1,7.862053E-3,-1.8137122E-2],"split_indices":[2,0,7,0,0],"split_type":[0,0,0,0,0],"sum_hessian":[1.702306E1,5.1998196E0,1.1823241E1,4.913145E0,6.910096E0],"tree_param":{"num_deleted":"0","num_feature":"14","num_nodes":"5","size_leaf_vector":"1"}},{"base_weights":[4.136321E-2,-2.3469266E-1,2.2705873E-2,-4.8979115E-1,8.744251E-3,-1.9492963E-2,-0E0],"categories":[],"categories_nodes":[],"categories_segments":[],"categories_sizes":[],"default_left":[0,0,0,0,0,0,0],"id":117,"left_children":[1,3,-1,5,-1,-1,-1],"loss_changes":[4.3552246E0,2.3553178E0,0E0,6.899178E-1,0E0,0E0,0E0],"parents":[2147483647,0,0,1,1,3,3],"right_children":[2,4,-1,6,-1,-1,-1],"split_conditions":[1E0,1.3E0,2.2705873E-2,1.3E2,8.744251E-3,-1.9492963E-2,-0E0],"split_indices":[3,6,0,4,0,0,0],"split_type":[0,0,0,0,0,0,0],"sum_hessian":[1.6929333E1,1.2681632E1,4.2476997E0,9.273943E0,3.407689E0,6.0400853E0,3.2338579E0],"tree_param":{"num_deleted":"0","num_feature":"14","num_nodes":"7","size_leaf_vector":"1"}},{"base_weights":[6.8531916E-2,-2.2023088E-1,2.2972366E-2,-4.9564895E-1,1.051046E-2,-0E0,-2.048823E-2],"categories":[],"categories_nodes":[],"categories_segments":[],"categories_sizes":[],"default_left":[0,0,0,0,0,0,0],"id":118,"left_children":[1,3,-1,5,-1,-1,-1],"loss_changes":[4.3391438E0,2.6426373E0,0E0,8.3829165E-1,0E0,0E0,0E0],"parents":[2147483647,0,0,1,1,3,3],"right_children":[2,4,-1,6,-1,-1,-1],"split_conditions":[1E0,1.3E0,2.2972366E-2,2.4122591E1,1.051046E-2,-0E0,-2.048823E-2],"split_indices":[3,6,0,5,0,0,0],"split_type":[0,0,0,0,0,0,0],"sum_hessian":[1.6522411E1,1.2143917E1,4.3784947E0,8.958573E0,3.1853435E0,3.3891103E0,5.569463E0],"tree_param":{"num_deleted":"0","num_feature":"14","num_nodes":"7","size_leaf_vector":"1"}},{"base_weights":[8.065037E-2,2.1129215E-2,-2.2299035E-1,8.176435E-3,-4.9932086E-1,-2.0279892E-2,-6.527032E-4],"categories":[],"categories_nodes":[],"categories_segments":[],"categories_sizes":[],"default_left":[0,0,0,0,0,0,0],"id":119,"left_children":[1,-1,3,-1,5,-1,-1],"loss_changes":[3.9636865E0,0E0,2.1775823E0,0E0,4.4483757E-1,0E0,0E0],"parents":[2147483647,0,0,2,2,4,4],"right_children":[2,-1,4,-1,6,-1,-1],"split_conditions":[1.265E1,2.1129215E-2,6.9105194E1,8.176435E-3,1.21E2,-2.0279892E-2,-6.527032E-4],"split_indices":[7,0,13,0,4,0,0],"split_type":[0,0,0,0,0,0,0],"sum_hessian":[1.6001604E1,4.914717E0,1.1086886E1,3.33115E0,7.7557364E0,4.2904716E0,3.465265E0],"tree_param":{"num_deleted":"0","num_feature":"14","num_nodes":"7","size_leaf_vector":"1"}},{"base_weights":[9.297101E-3,2.095143E-2,-2.9493317E-1,1.1099616E-2,-1.8241767E-2],"categories":[],"categories_nodes":[],"categories_segments":[],"categories_sizes":[],"default_left":[0,0,0,0,0],"id":120,"left_children":[1,-1,3,-1,-1],"loss_changes":[4.3821616E0,0E0,3.3533177E0,0E0,0E0],"parents":[2147483647,0,0,2,2],"right_children":[2,-1,4,-1,-1],"split_conditions":[1.02E0,2.095143E-2,6.3738438E1,1.1099616E-2,-1.8241767E-2],"split_indices":[2,0,13,0,0],"split_type":[0,0,0,0,0],"sum_hessian":[1.5975969E1,4.6028457E0,1.1373123E1,3.0136564E0,8.359467E0],"tree_param":{"num_deleted":"0","num_feature":"14","num_nodes":"5","size_leaf_vector":"1"}},{"base_weights":[1.2405606E-1,-1.5880185E-1,2.2999406E-2,8.02887E-3,-1.4623896E-2],"categories":[],"categories_nodes":[],"categories_segments":[],"categories_sizes":[],"default_left":[0,0,0,0,0],"id":121,"left_children":[1,3,-1,-1,-1],"loss_changes":[3.8043034E0,2.2710516E0,0E0,0E0,0E0],"parents":[2147483647,0,0,1,1],"right_children":[2,4,-1,-1,-1],"split_conditions":[1E0,4.0112873E1,2.2999406E-2,8.02887E-3,-1.4623896E-2],"split_indices":[3,8,0,0,0],"split_type":[0,0,0,0,0],"sum_hessian":[1.5918447E1,1.1558312E1,4.360134E0,4.5303545E0,7.027958E0],"tree_param":{"num_deleted":"0","num_feature":"14","num_nodes":"5","size_leaf_vector":"1"}},{"base_weights":[5.41564E-2,-2.1904106E-1,2.2562666E-2,4.779353E-3,-1.5287949E-2],"categories":[],"categories_nodes":[],"categories_segments":[],"categories_sizes":[],"default_left":[0,0,0,0,0],"id":122,"left_children":[1,3,-1,-1,-1],"loss_changes":[4.0998154E0,1.9030178E0,0E0,0E0,0E0],"parents":[2147483647,0,0,1,1],"right_children":[2,4,-1,-1,-1],"split_conditions":[1E0,4.0112873E1,2.2562666E-2,4.779353E-3,-1.5287949E-2],"split_indices":[3,8,0,0,0],"split_type":[0,0,0,0,0],"sum_hessian":[1.6376003E1,1.2240512E1,4.1354914E0,4.9618936E0,7.2786183E0],"tree_param":{"num_deleted":"0","num_feature":"14","num_nodes":"5","size_leaf_vector":"1"}},{"base_weights":[5.1145695E-2,2.1410426E-2,-2.7713263E-1,4.230454E-3,-1.733329E-2],"categories":[],"categories_nodes":[],"categories_segments":[],"categories_sizes":[],"default_left":[0,0,0,0,0],"id":123,"left_children":[1,-1,3,-1,-1],"loss_changes":[4.356555E0,0E0,1.9455462E0,0E0,0E0],"parents":[2147483647,0,0,2,2],"right_children":[2,-1,4,-1,-1],"split_conditions":[1.02E0,2.1410426E-2,1.3E1,4.230454E-3,-1.733329E-2],"split_indices":[2,0,7,0,0],"split_type":[0,0,0,0,0],"sum_hessian":[1.5208194E1,4.7654934E0,1.04427E1,4.1163383E0,6.3263617E0],"tree_param":{"num_deleted":"0","num_feature":"14","num_nodes":"5","size_leaf_vector":"1"}},{"base_weights":[3.637207E-2,2.0903688E-2,-2.7506685E-1,5.832301E-3,-1.7416367E-2],"categories":[],"categories_nodes":[],"categories_segments":[],"categories_sizes":[],"default_left":[0,0,0,0,0],"id":124,"left_children":[1,-1,3,-1,-1],"loss_changes":[4.1111264E0,0E0,2.2170808E0,0E0,0E0],"parents":[2147483647,0,0,2,2],"right_children":[2,-1,4,-1,-1],"split_conditions":[1.02E0,2.0903688E-2,6.9105194E1,5.832301E-3,-1.7416367E-2],"split_indices":[2,0,13,0,0],"split_type":[0,0,0,0,0],"sum_hessian":[1.5099095E1,4.560081E0,1.0539014E1,3.7958074E0,6.7432065E0],