{"learner":{"attributes":{"best_iteration":"999","best_ntree_limit":"1000","scikit_learn":"{\"use_label_encoder\": null, \"n_estimators\": 1000, \"objective\": \"binary:logistic\", \"max_depth\": 6, \"max_leaves\": null, \"max_bin\": null, \"grow_policy\": null, \"learning_rate\": 0.03, \"verbosity\": null, \"booster\": null, \"tree_method\": null, \"gamma\": 0.2, \"min_child_weight\": 3, \"max_delta_step\": null, \"subsample\": 0.9, \"sampling_method\": null, \"colsample_bytree\": 0.9, \"colsample_bylevel\": null, \"colsample_bynode\": null, \"reg_alpha\": 0.5, \"reg_lambda\": 2, \"scale_pos_weight\": 1, \"base_score\": null, \"missing\": NaN, \"num_parallel_tree\": null, \"random_state\": 42, \"n_jobs\": null, \"monotone_constraints\": null, \"interaction_constraints\": null, \"importance_type\": null, \"gpu_id\": null, \"validate_parameters\": null, \"predictor\": null, \"enable_categorical\": false, \"feature_types\": null, \"max_cat_to_onehot\": null, \"max_cat_threshold\": null, \"eval_metric\": \"logloss\", \"early_stopping_rounds\": null, \"callbacks\": null, \"classes_\": [0, 1], \"n_classes_\": 2, \"_estimator_type\": \"classifier\"}"},"feature_names":["age","bp","sg","al","bgr","bu","sc","hemo","pcv","wc","htn","dm","ane","egfr"],"feature_types":["float","float","float","float","float","float","float","float","float","float","int","int","int","float"],"gradient_booster":{"model":{"gbtree_model_param":{"num_parallel_tree":"1","num_trees":"1000","size_leaf_vector":"0"},"tree_info":[0,0,0,0,0,0,0,0,0,0,0,0,0,0,0,0,0,0,0,0,0,0,0,0,0,0,0,0,0,0,0,0,0,0,0,0,0,0,0,0,0,0,0,0,0,0,0,0,0,0,0,0,0,0,0,0,0,0,0,0,0,0,0,0,0,0,0,0,0,0,0,0,0,0,0,0,0,0,0,0,0,0,0,0,0,0,0,0,0,0,0,0,0,0,0,0,0,0,0,0,0,0,0,0,0,0,0,0,0,0,0,0,0,0,0,0,0,0,0,0,0,0,0,0,0,0,0,0,0,0,0,0,0,0,0,0,0,0,0,0,0,0,0,0,0,0,0,0,0,0,0,0,0,0,0,0,0,0,0,0,0,0,0,0,0,0,0,0,0,0,0,0,0,0,0,0,0,0,0,0,0,0,0,0,0,0,0,0,0,0,0,0,0,0,0,0,0,0,0,0,0,0,0,0,0,0,0,0,0,0,0,0,0,0,0,0,0,0,0,0,0,0,0,0,0,0,0,0,0,0,0,0,0,0,0,0,0,0,0,0,0,0,0,0,0,0,0,0,0,0,0,0,0,0,0,0,0,0,0,0,0,0,0,0,0,0,0,0,0,0,0,0,0,0,0,0,0,0,0,0,0,0,0,0,0,0,0,0,0,0,0,0,0,0,0,0,0,0,0,0,0,0,0,0,0,0,0,0,0,0,0,0,0,0,0,0,0,0,0,0,0,0,0,0,0,0,0,0,0,0,0,0,0,0,0,0,0,0,0,0,0,0,0,0,0,0,0,0,0,0,0,0,0,0,0,0,0,0,0,0,0,0,0,0,0,0,0,0,0,0,0,0,0,0,0,0,0,0,0,0,0,0,0,0,0,0,0,0,0,0,0,0,0,0,0,0,0,0,0,0,0,0,0,0,0,0,0,0,0,0,0,0,0,0,0,0,0,0,0,0,0,0,0,0,0,0,0,0,0,0,0,0,0,0,0,0,0,0,0,0,0,0,0,0,0,0,0,0,0,0,0,0,0,0,0,0,0,0,0,0,0,0,0,0,0,0,0,0,0,0,0,0,0,0,0,0,0,0,0,0,0,0,0,0,0,0,0,0,0,0,0,0,0,0,0,0,0,0,0,0,0,0,0,0,0,0,0,0,0,0,0,0,0,0,0,0,0,0,0,0,0,0,0,0,0,0,0,0,0,0,0,0,0,0,0,0,0,0,0,0,0,0,0,0,0,0,0,0,0,0,0,0,0,0,0,0,0,0,0,0,0,0,0,0,0,0,0,0,0,0,0,0,0,0,0,0,0,0,0,0,0,0,0,0,0,0,0,0,0,0,0,0,0,0,0,0,0,0,0,0,0,0,0,0,0,0,0,0,0,0,0,0,0,0,0,0,0,0,0,0,0,0,0,0,0,0,0,0,0,0,0,0,0,0,0,0,0,0,0,0,0,0,0,0,0,0,0,0,0,0,0,0,0,0,0,0,0,0,0,0,0,0,0,0,0,0,0,0,0,0,0,0,0,0,0,0,0,0,0,0,0,0,0,0,0,0,0,0,0,0,0,0,0,0,0,0,0,0,0,0,0,0,0,0,0,0,0,0,0,0,0,0,0,0,0,0,0,0,0,0,0,0,0,0,0,0,0,0,0,0,0,0,0,0,0,0,0,0,0,0,0,0,0,0,0,0,0,0,0,0,0,0,0,0,0,0,0,0,0,0,0,0,0,0,0,0,0,0,0,0,0,0,0,0,0,0,0,0,0,0,0,0,0,0,0,0,0,0,0,0,0,0,0,0,0,0,0,0,0,0,0,0,0,0,0,0,0,0,0,0,0,0,0,0,0,0,0,0,0,0,0,0,0,0,0,0,0,0,0,0,0,0,0,0,0,0,0,0,0,0,0,0,0,0,0,0,0,0,0,0,0,0,0,0,0,0,0,0,0,0,0,0,0,0,0,0,0,0,0,0,0,0,0,0,0,0,0,0,0,0,0,0,0,0,0,0,0,0,0,0,0,0,0,0,0,0,0,0,0,0,0,0,0,0,0,0,0,0,0,0,0,0,0,0,0,0,0,0,0,0,0,0,0,0,0,0,0,0,0,0,0,0,0,0,0,0,0,0,0,0,0,0,0,0,0,0,0,0,0,0,0,0,0,0,0,0,0,0,0,0,0,0,0,0,0,0,0,0,0,0,0,0,0,0,0,0,0,0,0,0,0,0,0,0,0,0,0,0,0,0,0,0,0,0,0,0,0,0,0,0],"trees":[{"base_weights":[-5.4054055E-3,1.7444445E0,-1.6060606E0,1.8807946E0,7.567568E-1,1.1E0,-1.8387097E0,1.28E0,-1E-1],"categories":[],"categories_nodes":[],"categories_segments":[],"categories_sizes":[],"default_left":[1,1,1,0,1,0,0,0,0],"id":0,"left_children":[1,3,5,-1,7,-1,-1,-1,-1],"loss_changes":[2.6461798E2,1.8948364E0,3.5577858E1,0E0,4.9927025E0,0E0,0E0,0E0,0E0],"parents":[2147483647,0,0,1,1,2,2,4,4],"right_children":[2,4,6,-1,8,-1,-1,-1,-1],"split_conditions":[1.3039672E1,6.8829544E1,1.0174999E0,5.642384E-2,1.0174999E0,3.3E-2,-5.516129E-2,3.8399998E-2,-3E-3],"split_indices":[7,13,2,0,2,0,0,0,0],"split_type":[0,0,0,0,0,0,0,0,0],"sum_hessian":[9.05E1,4.3E1,4.75E1,3.575E1,7.25E0,3E0,4.45E1,4.25E0,3E0],"tree_param":{"num_deleted":"0","num_feature":"14","num_nodes":"9","size_leaf_vector":"0"}},{"base_weights":[-4.0662814E-2,1.7086452E0,-1.5165843E0,1.8270179E0,6.717484E-1,1.1931111E0,-1.7913865E0],"categories":[],"categories_nodes":[],"categories_segments":[],"categories_sizes":[],"default_left":[1,1,1,0,0,0,0],"id":1,"left_children":[1,3,5,-1,-1,-1,-1],"loss_changes":[2.4309578E2,1.5703354E0,4.27097E1,0E0,0E0,0E0,0E0],"parents":[2147483647,0,0,1,1,2,2],"right_children":[2,4,6,-1,-1,-1,-1],"split_conditions":[1.285E1,7.661839E1,1.0174999E0,5.4810535E-2,2.0152451E-2,3.579333E-2,-5.3741593E-2],"split_indices":[7,13,2,0,0,0,0],"split_type":[0,0,0,0,0,0,0],"sum_hessian":[9.018584E1,4.0971275E1,4.921456E1,3.497257E1,5.9987044E0,3.7485867E0,4.5465973E1],"tree_param":{"num_deleted":"0","num_feature":"14","num_nodes":"7","size_leaf_vector":"0"}},{"base_weights":[-1.1763904E-2,1.6315829E0,-1.5303866E0,1.779703E0,6.5580374E-1,3.8959765E-1,-1.6958294E0,1.1513484E0,-0E0],"categories":[],"categories_nodes":[],"categories_segments":[],"categories_sizes":[],"default_left":[1,1,1,0,1,0,0,0,0],"id":2,"left_children":[1,3,5,-1,7,-1,-1,-1,-1],"loss_changes":[2.3267728E2,2.899437E0,1.741742E1,0E0,3.2040682E0,0E0,0E0,0E0,0E0],"parents":[2147483647,0,0,1,1,2,2,4,4],"right_children":[2,4,6,-1,8,-1,-1,-1,-1],"split_conditions":[1.3039672E1,6.8829544E1,6.614494E1,5.3391088E-2,1.2525E1,1.168793E-2,-5.087488E-2,3.454045E-2,-0E0],"split_indices":[7,13,13,0,7,0,0,0,0],"split_type":[0,0,0,0,0,0,0,0,0],"sum_hessian":[8.9253334E1,4.2636784E1,4.6616547E1,3.514215E1,7.4946346E0,3.2434924E0,4.3373055E1,3.4975033E0,3.997131E0],"tree_param":{"num_deleted":"0","num_feature":"14","num_nodes":"9","size_leaf_vector":"0"}},{"base_weights":[-4.1855508E-4,1.5396322E0,-1.441127E0,5.590007E-1,1.7362138E0,5.0564075E-1,-1.635432E0,1.2894646E0,-3.9669645E-1],"categories":[],"categories_nodes":[],"categories_segments":[],"categories_sizes":[],"default_left":[1,1,1,1,0,0,0,0,0],"id":3,"left_children":[1,3,5,7,-1,-1,-1,-1,-1],"loss_changes":[2.095637E2,5.681488E0,2.074559E1,9.128694E0,0E0,0E0,0E0,0E0,0E0],"parents":[2147483647,0,0,1,1,2,2,3,3],"right_children":[2,4,6,8,-1,-1,-1,-1,-1],"split_conditions":[4.0205345E1,1.25E0,6.605713E1,1.0174999E0,5.2086413E-2,1.5169222E-2,-4.906296E-2,3.8683936E-2,-1.1900893E-2],"split_indices":[8,6,13,2,0,0,0,0,0],"split_type":[0,0,0,0,0,0,0,0,0],"sum_hessian":[9.047281E1,4.349465E1,4.6978153E1,8.9715395E0,3.4523113E1,3.7389765E0,4.3239178E1,4.985609E0,3.9859307E0],"tree_param":{"num_deleted":"0","num_feature":"14","num_nodes":"9","size_leaf_vector":"0"}},{"base_weights":[-2.6408075E-3,1.5245064E0,-1.4542556E0,1.6957897E0,6.0517E-1,-1.614903E0,3.8809574E-1,1.2526387E0,-2.4064645E-1],"categories":[],"categories_nodes":[],"categories_segments":[],"categories_sizes":[],"default_left":[1,1,1,0,1,0,0,0,0],"id":4,"left_children":[1,3,5,-1,7,-1,-1,-1,-1],"loss_changes":[2.0803711E2,3.9734344E0,1.6158089E1,0E0,6.982689E0,0E0,0E0,0E0,0E0],"parents":[2147483647,0,0,1,1,2,2,4,4],"right_children":[2,4,6,-1,8,-1,-1,-1,-1],"split_conditions":[1.3131681E1,6.8829544E1,1.2732114E0,5.087369E-2,1.0174999E0,-4.8447087E-2,1.1642871E-2,3.757916E-2,-7.2193933E-3],"split_indices":[7,13,6,0,2,0,0,0,0],"split_type":[0,0,0,0,0,0,0,0,0],"sum_hessian":[8.98601E1,4.3573963E1,4.628614E1,3.484828E1,8.725679E0,4.3050564E1,3.2355757E0,4.7323036E0,3.9933758E0],"tree_param":{"num_deleted":"0","num_feature":"14","num_nodes":"9","size_leaf_vector":"0"}},{"base_weights":[-7.5319083E-3,1.5073667E0,-1.4102792E0,1.6587914E0,5.908656E-1,4.33163E-1,-1.5814707E0,1.1793834E0,-1.6521762E-1,-1.6346248E0,-4.459375E-1],"categories":[],"categories_nodes":[],"categories_segments":[],"categories_sizes":[],"default_left":[1,1,1,0,1,0,1,0,0,0,0],"id":5,"left_children":[1,3,5,-1,7,-1,9,-1,-1,-1,-1],"loss_changes":[2.0002544E2,3.1738968E0,1.7423866E1,0E0,5.3329515E0,0E0,2.518463E-1,0E0,0E0,0E0,0E0],"parents":[2147483647,0,0,1,1,2,2,4,4,6,6],"right_children":[2,4,6,-1,8,-1,10,-1,-1,-1,-1],"split_conditions":[1.3039672E1,6.8829544E1,6.605713E1,4.9763743E-2,1.0174999E0,1.2994889E-2,1.325E2,3.53815E-2,-4.9565285E-3,-4.9038745E-2,-1.3378125E-2],"split_indices":[7,13,13,0,2,0,4,0,0,0,0],"split_type":[0,0,0,0,0,0,0,0,0,0,0],"sum_hessian":[9.015085E1,4.3099686E1,4.7051163E1,3.5130085E1,7.9696026E0,3.489873E0,4.356129E1,4.223619E0,3.7459836E0,4.0353004E1,3.208284E0],"tree_param":{"num_deleted":"0","num_feature":"14","num_nodes":"11","size_leaf_vector":"0"}},{"base_weights":[4.5942143E-2,1.4792249E0,-1.3704122E0,1.6217216E0,6.6824526E-1,-1.5101382E0,1.8836012E-1,1.2062856E0,-7.299704E-2,-1.5630593E0,-4.349424E-1],"categories":[],"categories_nodes":[],"categories_segments":[],"categories_sizes":[],"default_left":[1,1,1,0,1,1,0,0,0,1,1],"id":6,"left_children":[1,3,5,-1,7,-1,-1,-1,-1,-1,-1],"loss_changes":[1.8462457E2,1.9265213E0,1.115892E1,0E0,5.010632E0,5.129242E-2,0E0,0E0,0E0,0E0,0E0],"parents":[2147483647,0,0,1,1,2,2,4,4,5,5],"right_children":[2,4,6,-1,8,-1,-1,-1,-1,-1,-1],"split_conditions":[1.3039672E1,6.8829544E1,1.2968221E0,4.8651647E-2,1.0174999E0,-4.5304142E-2,5.6508034E-3,3.618857E-2,-2.1899112E-3,-4.689178E-2,-1.3048272E-2],"split_indices":[7,13,6,0,2,4,0,0,0,2147483647,2147483647],"split_type":[0,0,0,0,0,0,0,0,0,0,0],"sum_hessian":[8.692248E1,4.3334393E1,4.358809E1,3.4633083E1,8.701309E0,4.035399E1,3.2341008E0,4.7055216E0,3.9957879E0,3.71528E1,3.2011836E0],"tree_param":{"num_deleted":"2","num_feature":"14","num_nodes":"11","size_leaf_vector":"0"}},{"base_weights":[-0E0,1.4780014E0,-1.3244833E0,1.586852E0,6.9818527E-1,1.1251466E0,-1.5616728E0,1.1330919E0,-0E0],"categories":[],"categories_nodes":[],"categories_segments":[],"categories_sizes":[],"default_left":[1,1,1,0,1,0,0,0,0],"id":7,"left_children":[1,3,5,-1,7,-1,-1,-1,-1],"loss_changes":[1.792052E2,3.1770325E-1,3.1753326E1,0E0,3.3499374E0,0E0,0E0,0E0,0E0],"parents":[2147483647,0,0,1,1,2,2,4,4],"right_children":[2,4,6,-1,8,-1,-1,-1,-1],"split_conditions":[1.3039672E1,6.8829544E1,1.0174999E0,4.760556E-2,1.0174999E0,3.3754397E-2,-4.6850182E-2,3.3992756E-2,-0E0],"split_indices":[7,13,2,0,2,0,0,0,0],"split_type":[0,0,0,0,0,0,0,0,0],"sum_hessian":[8.753347E1,4.1307022E1,4.6226448E1,3.38685E1,7.438523E0,3.2337542E0,4.299269E1,4.1927567E0,3.245766E0],"tree_param":{"num_deleted":"0","num_feature":"14","num_nodes":"9","size_leaf_vector":"0"}},{"base_weights":[9.413791E-4,1.3769739E0,-1.2735574E0,5.7409084E-1,1.5585898E0,-1.4491346E0,4.673643E-1,1.2085664E0,-2.2418241E-1,-1.5181596E0,-2.9278055E-1],"categories":[],"categories_nodes":[],"categories_segments":[],"categories_sizes":[],"default_left":[1,1,1,1,0,1,0,0,0,0,0],"id":8,"left_children":[1,3,5,7,-1,9,-1,-1,-1,-1,-1],"loss_changes":[1.6492448E2,3.7631607E0,1.6706467E1,7.136223E0,0E0,1.7903824E0,0E0,0E0,0E0,0E0,0E0],"parents":[2147483647,0,0,1,1,2,2,3,3,5,5],"right_children":[2,4,6,8,-1,10,-1,-1,-1,-1,-1],"split_conditions":[4.0056435E1,1.25E0,1.2968221E0,1.0174999E0,4.6757694E-2,1.325E2,1.4020929E-2,3.625699E-2,-6.7254724E-3,-4.554479E-2,-8.783416E-3],"split_indices":[8,6,6,2,0,4,0,0,0,0,0],"split_type":[0,0,0,0,0,0,0,0,0,0,0],"sum_hessian":[9.0011566E1,4.339307E1,4.66185E1,1.0048044E1,3.3345024E1,4.2913006E1,3.7054918E0,5.374633E0,4.6734114E0,3.9497185E1,3.4158242E0],"tree_param":{"num_deleted":"0","num_feature":"14","num_nodes":"11","size_leaf_vector":"0"}},{"base_weights":[-4.092851E-2,1.3322213E0,-1.2819437E0,1.5013566E0,4.6092793E-1,3.9472917E-1,-1.4417744E0,1.0849574E0,-1.3560985E-1,-1.5117775E0,-2.8745356E-1],"categories":[],"categories_nodes":[],"categories_segments":[],"categories_sizes":[],"default_left":[1,1,1,0,1,0,1,0,0,0,0],"id":9,"left_children":[1,3,5,-1,7,-1,9,-1,-1,-1,-1],"loss_changes":[1.5444798E2,3.9525833E0,1.44640045E1,0E0,4.6165314E0,0E0,1.8123474E0,0E0,0E0,0E0,0E0],"parents":[2147483647,0,0,1,1,2,2,4,4,6,6],"right_children":[2,4,6,-1,8,-1,10,-1,-1,-1,-1],"split_conditions":[4.0056435E1,6.745106E1,6.610809E1,4.5040697E-2,3.95E1,1.1841875E-2,1.325E2,3.2548722E-2,-4.0682955E-3,-4.5353323E-2,-8.6236065E-3],"split_indices":[8,13,13,0,8,0,4,0,0,0,0],"split_type":[0,0,0,0,0,0,0,0,0,0,0],"sum_hessian":[8.6643555E1,4.0871006E1,4.5772545E1,3.2535152E1,8.335854E0,3.455511E0,4.2317036E1,3.6833797E0,4.652474E0,3.890516E1,3.4118733E0],"tree_param":{"num_deleted":"0","num_feature":"14","num_nodes":"11","size_leaf_vector":"0"}},{"base_weights":[1.690202E-2,1.4074048E0,-1.26305E0,-1.4077876E0,3.4208056E-1,-1.4555326E0,-3.8831845E-1],"categories":[],"categories_nodes":[],"categories_segments":[],"categories_sizes":[],"default_left":[1,0,1,1,0,1,1],"id":10,"left_children":[1,-1,3,-1,-1,-1,-1],"loss_changes":[1.6169908E2,0E0,1.2441406E1,8.4121704E-2,0E0,0E0,0E0],"parents":[2147483647,0,0,2,2,3,3],"right_children":[2,-1,4,-1,-1,-1,-1],"split_conditions":[1.3039672E1,4.2222142E-2,1.2968221E0,-4.2233627E-2,1.0262417E-2,-4.3665975E-2,-1.1649554E-2],"split_indices":[7,0,6,4,0,2147483647,2147483647],"split_type":[0,0,0,0,0,0,0],"sum_hessian":[8.6815445E1,4.1702522E1,4.5112923E1,4.1892765E1,3.2201576E0,3.8732857E1,3.1599069E0],"tree_param":{"num_deleted":"2","num_feature":"14","num_nodes":"7","size_leaf_vector":"0"}},{"base_weights":[8.311795E-3,1.3910264E0,-1.1897522E0,1.1339562E0,-1.4598788E0],"categories":[],"categories_nodes":[],"categories_segments":[],"categories_sizes":[],"default_left":[1,0,1,0,0],"id":11,"left_children":[1,-1,3,-1,-1],"loss_changes":[1.4811732E2,0E0,3.3405838E1,0E0,0E0],"parents":[2147483647,0,0,2,2],"right_children":[2,-1,4,-1,-1],"split_conditions":[1.285E1,4.173079E-2,1.0174999E0,3.4018684E-2,-4.3796364E-2],"split_indices":[7,0,2,0,0],"split_type":[0,0,0,0,0],"sum_hessian":[8.535267E1,3.966711E1,4.5685555E1,3.8989472E0,4.178661E1],"tree_param":{"num_deleted":"0","num_feature":"14","num_nodes":"5","size_leaf_vector":"0"}},{"base_weights":[9.858105E-3,1.3802936E0,-1.1860725E0,1.4622474E0,5.162629E-1,4.2852047E-1,-1.3574958E0,-1.407685E0,-3.414308E-1],"categories":[],"categories_nodes":[],"categories_segments":[],"categories_sizes":[],"default_left":[1,1,1,0,0,0,1,0,0],"id":12,"left_children":[1,3,5,-1,-1,-1,7,-1,-1],"loss_changes":[1.4197246E2,3.707199E-1,1.4370712E1,0E0,0E0,0E0,3.254013E-1,0E0,0E0],"parents":[2147483647,0,0,1,1,2,2,6,6],"right_children":[2,4,6,-1,-1,-1,8,-1,-1],"split_conditions":[1.285E1,8.330848E1,6.605713E1,4.386742E-2,1.5487886E-2,1.2855614E-2,1.3108481E2,-4.223055E-2,-1.0242924E-2],"split_indices":[7,13,13,0,0,0,4,0,0],"split_type":[0,0,0,0,0,0,0,0,0],"sum_hessian":[8.256723E1,3.8527607E1,4.403962E1,3.3396534E1,5.1310744E0,3.6591063E0,4.0380512E1,3.7276276E1,3.1042395E0],"tree_param":{"num_deleted":"0","num_feature":"14","num_nodes":"9","size_leaf_vector":"0"}},{"base_weights":[8.847818E-3,1.3396543E0,-1.1311194E0,1.4348998E0,5.358772E-1,1.1610723E0,-1.4140915E0],"categories":[],"categories_nodes":[],"categories_segments":[],"categories_sizes":[],"default_left":[1,1,1,0,0,0,0],"id":13,"left_children":[1,3,5,-1,-1,-1,-1],"loss_changes":[1.3438626E2,6.1821747E-1,3.420782E1,0E0,0E0,0E0,0E0],"parents":[2147483647,0,0,1,1,2,2],"right_children":[2,4,6,-1,-1,-1,-1],"split_conditions":[1.285E1,7.661839E1,1.0174999E0,4.3046992E-2,1.6076317E-2,3.483217E-2,-4.242274E-2],"split_indices":[7,13,2,0,0,0,0],"split_type":[0,0,0,0,0,0,0],"sum_hessian":[8.451603E1,3.9034786E1,4.5481243E1,3.2939133E1,6.095653E0,4.121573E0,4.1359673E1],"tree_param":{"num_deleted":"0","num_feature":"14","num_nodes":"7","size_leaf_vector":"0"}},{"base_weights":[4.5476638E-2,1.3145409E0,-1.1914927E0,1.4165872E0,5.4985696E-1,3.321898E-1,-1.3439673E0,9.68815E-1,-1.3846567E-2],"categories":[],"categories_nodes":[],"categories_segments":[],"categories_sizes":[],"default_left":[1,1,1,0,1,0,0,0,0],"id":14,"left_children":[1,3,5,-1,7,-1,-1,-1,-1],"loss_changes":[1.3310747E2,7.3630524E-1,1.1332615E1,0E0,2.5803742E0,0E0,0E0,0E0,0E0],"parents":[2147483647,0,0,1,1,2,2,4,4],"right_children":[2,4,6,-1,8,-1,-1,-1,-1],"split_conditions":[1.3131681E1,7.661839E1,6.605713E1,4.2497616E-2,1.0174999E0,9.965694E-3,-4.0319018E-2,2.906445E-2,-4.15397E-4],"split_indices":[7,13,13,0,2,0,0,0,0],"split_type":[0,0,0,0,0,0,0,0,0],"sum_hessian":[8.075828E1,3.9999615E1,4.0758667E1,3.3209007E1,6.790605E0,3.194946E0,3.756372E1,3.5797317E0,3.2108731E0],"tree_param":{"num_deleted":"0","num_feature":"14","num_nodes":"9","size_leaf_vector":"0"}},{"base_weights":[4.678291E-2,1.3190264E0,-1.0744734E0,1.1417316E0,-1.3646307E0],"categories":[],"categories_nodes":[],"categories_segments":[],"categories_sizes":[],"default_left":[1,0,1,0,0],"id":15,"left_children":[1,-1,3,-1,-1],"loss_changes":[1.210217E2,0E0,3.20915E1,0E0,0E0],"parents":[2147483647,0,0,2,2],"right_children":[2,-1,4,-1,-1],"split_conditions":[1.285E1,3.957079E-2,1.0174999E0,3.4251947E-2,-4.093892E-2],"split_indices":[7,0,2,0,0],"split_type":[0,0,0,0,0],"sum_hessian":[8.07648E1,3.7878635E1,4.288617E1,4.085836E0,3.880033E1],"tree_param":{"num_deleted":"0","num_feature":"14","num_nodes":"5","size_leaf_vector":"0"}},{"base_weights":[2.527111E-2,1.2415172E0,-1.0978954E0,1.3285972E0,3.0424467E-1,5.092911E-1,-1.2712755E0,-1.3206046E0,-3.458232E-1],"categories":[],"categories_nodes":[],"categories_segments":[],"categories_sizes":[],"default_left":[1,1,1,0,0,0,1,1,1],"id":16,"left_children":[1,3,5,-1,-1,-1,-1,-1,-1],"loss_changes":[1.1465588E2,1.677845E0,1.3774742E1,0E0,0E0,0E0,8.1466675E-2,0E0,0E0],"parents":[2147483647,0,0,1,1,2,2,6,6],"right_children":[2,4,6,-1,-1,-1,-1,-1,-1],"split_conditions":[4.0056435E1,8.330848E1,6.605713E1,3.9857917E-2,9.12734E-3,1.5278733E-2,-3.8138263E-2,-3.9618134E-2,-1.0374696E-2],"split_indices":[8,13,13,0,0,0,4,2147483647,2147483647],"split_type":[0,0,0,0,0,0,0,0,0],"sum_hessian":[7.988442E1,3.8465557E1,4.141887E1,3.394345E1,4.5221066E0,3.3749852E0,3.804388E1,3.4794975E1,3.2489064E0],"tree_param":{"num_deleted":"2","num_feature":"14","num_nodes":"9","size_leaf_vector":"0"}},{"base_weights":[1.298037E-2,1.2022737E0,-1.144497E0,1.3396341E0,2.891922E-1,-1.2914871E0,3.2519868E-1,9.257345E-1,-3.2838604E-1,-1.3456216E0,-3.2480383E-1],"categories":[],"categories_nodes":[],"categories_segments":[],"categories_sizes":[],"default_left":[1,1,1,0,1,1,0,0,0,0,0],"id":17,"left_children":[1,3,5,-1,7,9,-1,-1,-1,-1,-1],"loss_changes":[1.1635092E2,3.6634026E0,1.0530697E1,0E0,4.249327E0,3.555374E-1,0E0,0E0,0E0,0E0,0E0],"parents":[2147483647,0,0,1,1,2,2,4,4,5,5],"right_children":[2,4,6,-1,8,10,-1,-1,-1,-1,-1],"split_conditions":[1.3131681E1,7.661839E1,1.2968221E0,4.018902E-2,1.2525E1,1.3158826E2,9.75596E-3,2.7772035E-2,-9.8515805E-3,-4.0368646E-2,-9.744114E-3],"split_indices":[7,13,6,0,7,4,0,0,0,0,0],"split_type":[0,0,0,0,0,0,0,0,0,0,0],"sum_hessian":[8.050158E1,3.9879974E1,4.06216E1,3.337697E1,6.5030065E0,3.7457996E1,3.163604E0,3.1095915E0,3.393415E0,3.4239353E1,3.2186427E0],"tree_param":{"num_deleted":"0","num_feature":"14","num_nodes":"11","size_leaf_vector":"0"}},{"base_weights":[1.215813E-2,1.1520557E0,-1.044989E0,1.2867186E0,1.8155517E-1,3.980423E-1,-1.2110419E0,-1.2802383E0,-1.8123953E-1],"categories":[],"categories_nodes":[],"categories_segments":[],"categories_sizes":[],"default_left":[1,1,1,0,0,0,1,0,0],"id":18,"left_children":[1,3,5,-1,-1,-1,7,-1,-1],"loss_changes":[9.9636505E1,4.023712E0,1.1592796E1,0E0,0E0,0E0,1.5887833E0,0E0,0E0],"parents":[2147483647,0,0,1,1,2,2,6,6],"right_children":[2,4,6,-1,-1,-1,8,-1,-1],"split_conditions":[4.0205345E1,8.120637E1,6.605713E1,3.860156E-2,5.4466547E-3,1.1941268E-2,1.325E2,-3.8407147E-2,-5.437186E-3],"split_indices":[8,13,13,0,0,0,4,0,0],"split_type":[0,0,0,0,0,0,0,0,0],"sum_hessian":[7.864067E1,3.7980537E1,4.0660133E1,3.232798E1,5.65256E0,3.5969238E0,3.706321E1,3.3818882E1,3.24433E0],"tree_param":{"num_deleted":"0","num_feature":"14","num_nodes":"9","size_leaf_vector":"0"}},{"base_weights":[1.69086E-2,1.2398902E0,-1.0426533E0,1.3185815E0,4.510285E-1,1.0507784E0,-1.2961185E0],"categories":[],"categories_nodes":[],"categories_segments":[],"categories_sizes":[],"default_left":[1,1,1,0,0,0,0],"id":19,"left_children":[1,3,5,-1,-1,-1,-1],"loss_changes":[1.0463145E2,2.63134E-1,2.5673748E1,0E0,0E0,0E0,0E0],"parents":[2147483647,0,0,1,1,2,2],"right_children":[2,4,6,-1,-1,-1,-1],"split_conditions":[1.285E1,7.661839E1,1.0174999E0,3.9557442E-2,1.3530854E-2,3.152335E-2,-3.8883556E-2],"split_indices":[7,13,2,0,0,0,0],"split_type":[0,0,0,0,0,0,0],"sum_hessian":[7.667366E1,3.5653133E1,4.1020523E1,3.0621708E1,5.0314245E0,3.5377135E0,3.748281E1],"tree_param":{"num_deleted":"0","num_feature":"14","num_nodes":"7","size_leaf_vector":"0"}},{"base_weights":[1.5255152E-2,1.2332178E0,-1.0359695E0,4.9261895E-1,-1.2068692E0],"categories":[],"categories_nodes":[],"categories_segments":[],"categories_sizes":[],"default_left":[1,0,1,0,0],"id":20,"left_children":[1,-1,3,-1,-1],"loss_changes":[1.0428651E2,0E0,1.2902683E1,0E0,0E0],"parents":[2147483647,0,0,2,2],"right_children":[2,-1,4,-1,-1],"split_conditions":[1.285E1,3.6996536E-2,6.605713E1,1.4778568E-2,-3.6206078E-2],"split_indices":[7,0,13,0,0],"split_type":[0,0,0,0,0],"sum_hessian":[7.7378716E1,3.5906433E1,4.1472282E1,3.4976223E0,3.797466E1],"tree_param":{"num_deleted":"0","num_feature":"14","num_nodes":"5","size_leaf_vector":"0"}},{"base_weights":[-2.8778829E-2,1.1549923E0,-1.0741242E0,1.278041E0,4.6664783E-1,-1.1781497E0,3.5397414E-2,9.324172E-1,-5.0901834E-2],"categories":[],"categories_nodes":[],"categories_segments":[],"categories_sizes":[],"default_left":[1,1,1,0,1,0,0,0,0],"id":21,"left_children":[1,3,5,-1,7,-1,-1,-1,-1],"loss_changes":[9.631992E1,1.0108566E0,5.4502716E0,0E0,2.7712307E0,0E0,0E0,0E0,0E0],"parents":[2147483647,0,0,1,1,2,2,4,4],"right_children":[2,4,6,-1,8,-1,-1,-1,-1],"split_conditions":[1.3131681E1,6.8829544E1,1.2708561E0,3.8341228E-2,1.2525E1,-3.534449E-2,1.0619224E-3,2.7972516E-2,-1.5270549E-3],"split_indices":[7,13,6,0,7,0,0,0,0],"split_type":[0,0,0,0,0,0,0,0,0],"sum_hessian":[7.386502E1,3.4316357E1,3.9548664E1,2.704248E1,7.2738767E0,3.6457455E1,3.0912073E0,3.493126E0,3.7807508E0],"tree_param":{"num_deleted":"0","num_feature":"14","num_nodes":"9","size_leaf_vector":"0"}},{"base_weights":[9.909441E-3,1.1397905E0,-1.0222863E0,1.2648404E0,4.5594484E-1,3.5304686E-1,-1.18071E0,9.551383E-1,-1.819733E-1,-1.2330498E0,-3.1282267E-1],"categories":[],"categories_nodes":[],"categories_segments":[],"categories_sizes":[],"default_left":[1,1,1,0,1,0,1,0,0,1,1],"id":22,"left_children":[1,3,5,-1,7,-1,-1,-1,-1,-1,-1],"loss_changes":[9.045503E1,1.169651E0,1.0024967E1,0E0,3.7595747E0,0E0,1.3224792E-1,0E0,0E0,0E0,0E0],"parents":[2147483647,0,0,1,1,2,2,4,4,6,6],"right_children":[2,4,6,-1,8,-1,-1,-1,-1,-1,-1],"split_conditions":[1.3039672E1,6.8829544E1,6.605713E1,3.794521E-2,1.0174999E0,1.0591405E-2,-3.5421297E-2,2.8654149E-2,-5.4591987E-3,-3.6991492E-2,-9.38468E-3],"split_indices":[7,13,13,0,2,0,4,0,0,2147483647,2147483647],"split_type":[0,0,0,0,0,0,0,0,0,0,0],"sum_hessian":[7.3511475E1,3.5226795E1,3.828468E1,2.772633E1,7.500467E0,3.3746905E0,3.490999E1,4.0895224E0,3.4109445E0,3.1587435E1,3.3225536E0],"tree_param":{"num_deleted":"2","num_feature":"14","num_nodes":"11","size_leaf_vector":"0"}},{"base_weights":[5.6857467E-3,1.1304927E0,-1.0270629E0,1.2610023E0,3.080449E-1,-1.1471652E0,1.6174997E-1,8.4364665E-1,-2.4895094E-1],"categories":[],"categories_nodes":[],"categories_segments":[],"categories_sizes":[],"default_left":[1,1,1,0,1,0,0,0,0],"id":23,"left_children":[1,3,5,-1,7,-1,-1,-1,-1],"loss_changes":[9.1309494E1,2.499218E0,6.6791534E0,0E0,3.2090857E0,0E0,0E0,0E0,0E0],"parents":[2147483647,0,0,1,1,2,2,4,4],"right_children":[2,4,6,-1,8,-1,-1,-1,-1],"split_conditions":[1.3039672E1,7.661839E1,1.2968221E0,3.783007E-2,1.0174999E0,-3.4414954E-2,4.852499E-3,2.5309399E-2,-7.468528E-3],"split_indices":[7,13,6,0,2,0,0,0,0],"split_type":[0,0,0,0,0,0,0,0,0],"sum_hessian":[7.4560196E1,3.583057E1,3.872962E1,2.9478405E1,6.352165E0,3.5621536E1,3.1080854E0,3.171184E0,3.1809812E0],"tree_param":{"num_deleted":"0","num_feature":"14","num_nodes":"9","size_leaf_vector":"0"}},{"base_weights":[2.46725E-3,1.1476377E0,-9.8582387E-1,1.2411684E0,4.6313682E-1,1.0749872E0,-1.2472647E0,8.577989E-1,-5.4796566E-3],"categories":[],"categories_nodes":[],"categories_segments":[],"categories_sizes":[],"default_left":[1,1,1,0,1,0,0,0,0],"id":24,"left_children":[1,3,5,-1,7,-1,-1,-1,-1],"loss_changes":[8.6759575E1,2.8442E-1,2.4791897E1,0E0,1.9384375E0,0E0,0E0,0E0,0E0],"parents":[2147483647,0,0,1,1,2,2,4,4],"right_children":[2,4,6,-1,8,-1,-1,-1,-1],"split_conditions":[1.285E1,7.661839E1,1.0174999E0,3.723505E-2,1.2525E1,3.2249615E-2,-3.741794E-2,2.5733966E-2,-1.643897E-4],"split_indices":[7,13,2,0,7,0,0,0,0],"split_type":[0,0,0,0,0,0,0,0,0],"sum_hessian":[7.258807E1,3.371022E1,3.8877857E1,2.758415E1,6.1260695E0,3.460936E0,3.541692E1,3.0029848E0,3.1230848E0],"tree_param":{"num_deleted":"0","num_feature":"14","num_nodes":"9","size_leaf_vector":"0"}},{"base_weights":[3.3114765E-2,1.1341211E0,-9.5286435E-1,3.0186895E-1,1.2037096E0,1.0364281E0,-1.2018462E0],"categories":[],"categories_nodes":[],"categories_segments":[],"categories_sizes":[],"default_left":[1,1,1,0,0,0,0],"id":25,"left_children":[1,3,5,-1,-1,-1,-1],"loss_changes":[8.127203E1,5.789337E-1,2.2013885E1,0E0,0E0,0E0,0E0],"parents":[2147483647,0,0,1,1,2,2],"right_children":[2,4,6,-1,-1,-1,-1],"split_conditions":[1.285E1,3.2592583E1,1.0174999E0,9.056068E-3,3.6111288E-2,3.1092843E-2,-3.6055386E-2],"split_indices":[7,0,2,0,0,0,0],"split_type":[0,0,0,0,0,0,0],"sum_hessian":[7.0791374E1,3.3542416E1,3.7248962E1,3.9664245E0,2.9575993E1,3.2165067E0,3.4032455E1],"tree_param":{"num_deleted":"0","num_feature":"14","num_nodes":"7","size_leaf_vector":"0"}},{"base_weights":[1.1991498E-2,1.1121825E0,-9.0500295E-1,1.2103736E0,4.3802375E-1,1.0749235E0,-1.1900439E0],"categories":[],"categories_nodes":[],"categories_segments":[],"categories_sizes":[],"default_left":[1,1,1,0,0,0,0],"id":26,"left_children":[1,3,5,-1,-1,-1,-1],"loss_changes":[7.44322E1,3.4827423E-1,2.516196E1,0E0,0E0,0E0,0E0],"parents":[2147483647,0,0,1,1,2,2],"right_children":[2,4,6,-1,-1,-1,-1],"split_conditions":[1.285E1,7.661839E1,1.0174999E0,3.631121E-2,1.3140712E-2,3.2247704E-2,-3.5701316E-2],"split_indices":[7,13,2,0,0,0,0],"split_type":[0,0,0,0,0,0,0],"sum_hessian":[6.967982E1,3.1730167E1,3.794965E1,2.5660315E1,6.0698514E0,3.857645E0,3.4092007E1],"tree_param":{"num_deleted":"0","num_feature":"14","num_nodes":"7","size_leaf_vector":"0"}},{"base_weights":[2.9943323E-2,1.1188757E0,-8.9824766E-1,1.035541E0,-1.1726785E0],"categories":[],"categories_nodes":[],"categories_segments":[],"categories_sizes":[],"default_left":[1,0,1,0,0],"id":27,"left_children":[1,-1,3,-1,-1],"loss_changes":[7.2282745E1,0E0,2.28418E1,0E0,0E0],"parents":[2147483647,0,0,2,2],"right_children":[2,-1,4,-1,-1],"split_conditions":[1.285E1,3.356627E-2,1.0174999E0,3.1066231E-2,-3.5180353E-2],"split_indices":[7,0,2,0,0],"split_type":[0,0,0,0,0],"sum_hessian":[6.741704E1,3.108115E1,3.6335884E1,3.5999439E0,3.2735943E1],"tree_param":{"num_deleted":"0","num_feature":"14","num_nodes":"5","size_leaf_vector":"0"}},{"base_weights":[2.2564352E-2,1.0789126E0,-9.304292E-1,1.1771702E0,3.2482556E-1,2.9601648E-1,-1.071124E0,-1.1232635E0,-2.3559684E-1],"categories":[],"categories_nodes":[],"categories_segments":[],"categories_sizes":[],"default_left":[1,1,1,0,0,0,1,0,0],"id":28,"left_children":[1,3,5,-1,-1,-1,7,-1,-1],"loss_changes":[7.222634E1,1.0199127E0,7.4849052E0,0E0,0E0,0E0,2.8990173E-1,0E0,0E0],"parents":[2147483647,0,0,1,1,2,2,6,6],"right_children":[2,4,6,-1,-1,-1,8,-1,-1],"split_conditions":[1.3039672E1,8.330848E1,6.605713E1,3.5315104E-2,9.744766E-3,8.880494E-3,1.3140741E2,-3.3697903E-2,-7.067905E-3],"split_indices":[7,13,13,0,0,0,4,0,0],"split_type":[0,0,0,0,0,0,0,0,0],"sum_hessian":[6.7678024E1,3.2221935E1,3.545609E1,2.6928053E1,5.2938833E0,3.0558968E0,3.2400192E1,2.9285505E1,3.114687E0],"tree_param":{"num_deleted":"0","num_feature":"14","num_nodes":"9","size_leaf_vector":"0"}},{"base_weights":[4.904201E-2,1.060115E0,-9.2459524E-1,1.170101E0,2.980895E-1,-1.0479844E0,1.4633963E-1,-1.9810998E-1,-1.1041685E0],"categories":[],"categories_nodes":[],"categories_segments":[],"categories_sizes":[],"default_left":[1,1,1,0,0,1,0,0,0],"id":29,"left_children":[1,3,5,-1,-1,7,-1,-1,-1],"loss_changes":[6.992597E1,1.5033646E0,5.5084515E0,0E0,0E0,4.8243713E-1,0E0,0E0,0E0],"parents":[2147483647,0,0,1,1,2,2,5,5],"right_children":[2,4,6,-1,-1,8,-1,-1,-1],"split_conditions":[1.3131681E1,8.330848E1,1.3329233E2,3.510303E-2,8.942685E-3,6.644711E1,4.3901885E-3,-5.9432993E-3,-3.3125054E-2],"split_indices":[7,13,4,0,0,13,0,0,0],"split_type":[0,0,0,0,0,0,0,0,0],"sum_hessian":[6.697256E1,3.301944E1,3.3953117E1,2.7345402E1,5.67404E0,3.0902401E1,3.0507169E0,3.0293987E0,2.7873003E1],"tree_param":{"num_deleted":"0","num_feature":"14","num_nodes":"9","size_leaf_vector":"0"}},{"base_weights":[2.8373282E-2,1.0672004E0,-9.0174276E-1,1.1674073E0,4.190165E-1,2.993166E-1,-1.0502094E0,8.327297E-1,-6.576777E-2,-1.103317E0,-2.2692747E-1],"categories":[],"categories_nodes":[],"categories_segments":[],"categories_sizes":[],"default_left":[1,1,1,0,1,0,1,0,0,0,0],"id":30,"left_children":[1,3,5,-1,7,-1,9,-1,-1,-1,-1],"loss_changes":[6.683544E1,3.6309433E-1,7.464432E0,0E0,2.13528E0,0E0,2.7949905E-1,0E0,0E0,0E0,0E0],"parents":[2147483647,0,0,1,1,2,2,4,4,6,6],"right_children":[2,4,6,-1,8,-1,10,-1,-1,-1,-1],"split_conditions":[1.285E1,7.661839E1,6.605713E1,3.5022218E-2,1.2525E1,8.979498E-3,1.3117307E2,2.498189E-2,-1.9730332E-3,-3.309951E-2,-6.807824E-3],"split_indices":[7,13,13,0,7,0,4,0,0,0,0],"split_type":[0,0,0,0,0,0,0,0,0,0,0],"sum_hessian":[6.50938E1,3.0864592E1,3.4229218E1,2.4676258E1,6.188333E0,3.171629E0,3.1057587E1,3.1208944E0,3.0674386E0,2.7965963E1,3.091624E0],"tree_param":{"num_deleted":"0","num_feature":"14","num_nodes":"11","size_leaf_vector":"0"}},{"base_weights":[2.390291E-2,1.0585482E0,-8.5361385E-1,4.2666093E-1,1.1588151E0,1.044172E0,-1.1369108E0,8.30627E-1,-6.1599754E-2],"categories":[],"categories_nodes":[],"categories_segments":[],"categories_sizes":[],"default_left":[1,1,1,1,0,0,0,0,0],"id":31,"left_children":[1,3,5,7,-1,-1,-1,-1,-1],"loss_changes":[6.43718E1,2.9187012E-1,2.288894E1,2.1299002E0,0E0,0E0,0E0,0E0,0E0],"parents":[2147483647,0,0,1,1,2,2,3,3],"right_children":[2,4,6,8,-1,-1,-1,-1,-1],"split_conditions":[1.285E1,1.1500001E0,1.0174999E0,1.2299999E1,3.4764454E-2,3.132516E-2,-3.4107324E-2,2.491881E-2,-1.8479925E-3],"split_indices":[7,6,2,7,0,0,0,0,0],"split_type":[0,0,0,0,0,0,0,0,0],"sum_hessian":[6.679709E1,3.0726215E1,3.6070873E1,6.3301926E0,2.4396023E1,3.758233E0,3.231264E1,3.257077E0,3.0731158E0],"tree_param":{"num_deleted":"0","num_feature":"14","num_nodes":"9","size_leaf_vector":"0"}},{"base_weights":[4.7114413E-2,1.0637034E0,-8.7010384E-1,3.8606286E-1,-1.0441161E0,-1.1022997E0,-2.1088895E-1],"categories":[],"categories_nodes":[],"categories_segments":[],"categories_sizes":[],"default_left":[1,0,1,0,1,0,0],"id":32,"left_children":[1,-1,3,-1,5,-1,-1],"loss_changes":[6.074773E1,0E0,8.565489E0,0E0,3.6903763E-1,0E0,0E0],"parents":[2147483647,0,0,2,2,4,4],"right_children":[2,-1,4,-1,6,-1,-1],"split_conditions":[1.285E1,3.19111E-2,6.6159164E1,1.1581886E-2,1.3181915E2,-3.306899E-2,-6.3266684E-3],"split_indices":[7,0,13,0,4,0,0],"split_type":[0,0,0,0,0,0,0],"sum_hessian":[6.1060616E1,2.9068535E1,3.1992083E1,3.2463865E0,2.8745695E1,2.5704817E1,3.040878E0],"tree_param":{"num_deleted":"0","num_feature":"14","num_nodes":"7","size_leaf_vector":"0"}},{"base_weights":[4.8705E-2,1.0428433E0,-8.552597E-1,1.140385E0,3.3092523E-1,2.8166494E-1,-1.0014127E0,-1.0554653E0,-2.0380819E-1],"categories":[],"categories_nodes":[],"categories_segments":[],"categories_sizes":[],"default_left":[1,1,1,0,0,0,1,0,0],"id":33,"left_children":[1,3,5,-1,-1,-1,7,-1,-1],"loss_changes":[5.849735E1,6.740837E-1,6.5460415E0,0E0,0E0,0E0,2.6839066E-1,0E0,0E0],"parents":[2147483647,0,0,1,1,2,2,6,6],"right_children":[2,4,6,-1,-1,-1,8,-1,-1],"split_conditions":[1.305E1,7.661839E1,6.605713E1,3.421155E-2,9.927756E-3,8.449948E-3,1.3108481E2,-3.1663958E-2,-6.1142454E-3],"split_indices":[7,13,13,0,0,0,4,0,0],"split_type":[0,0,0,0,0,0,0,0,0],"sum_hessian":[6.1004223E1,2.9170128E1,3.1834097E1,2.3978718E1,5.19141E0,3.0252466E0,2.880885E1,2.5787779E1,3.0210707E0],"tree_param":{"num_deleted":"0","num_feature":"14","num_nodes":"9","size_leaf_vector":"0"}},{"base_weights":[2.1635862E-2,1.0126331E0,-8.504707E-1,3.2769454E-1,1.1265006E0,8.91204E-1,-1.0944997E0],"categories":[],"categories_nodes":[],"categories_segments":[],"categories_sizes":[],"default_left":[1,1,1,0,0,0,0],"id":34,"left_children":[1,3,5,-1,-1,-1,-1],"loss_changes":[5.5848164E1,9.096813E-1,1.6537352E1,0E0,0E0,0E0,0E0],"parents":[2147483647,0,0,1,1,2,2],"right_children":[2,4,6,-1,-1,-1,-1],"split_conditions":[1.285E1,1.1500001E0,1.0174999E0,9.830836E-3,3.3795018E-2,2.673612E-2,-3.283499E-2],"split_indices":[7,6,2,0,0,0,0],"split_type":[0,0,0,0,0,0,0],"sum_hessian":[6.0533215E1,2.8452715E1,3.20805E1,5.7873435E0,2.266537E1,3.0388322E0,2.9041668E1],"tree_param":{"num_deleted":"0","num_feature":"14","num_nodes":"7","size_leaf_vector":"0"}},{"base_weights":[4.757036E-2,9.731059E-1,-8.394752E-1,1.1205215E0,3.1820765E-1,2.79046E-1,-9.8438E-1,8.456417E-1,-2.1271494E-1,-1.0363687E0,-2.3108366E-1],"categories":[],"categories_nodes":[],"categories_segments":[],"categories_sizes":[],"default_left":[1,1,1,0,1,0,1,0,0,1,1],"id":35,"left_children":[1,3,5,-1,7,-1,-1,-1,-1,-1,-1],"loss_changes":[5.4233185E1,1.7066917E0,6.3269253E0,0E0,3.3059177E0,0E0,8.05645E-2,0E0,0E0,0E0,0E0],"parents":[2147483647,0,0,1,1,2,2,4,4,6,6],"right_children":[2,4,6,-1,8,-1,-1,-1,-1,-1,-1],"split_conditions":[1.3131681E1,6.8829544E1,6.605713E1,3.3615645E-2,1.2525E1,8.37138E-3,-2.9531399E-2,2.536925E-2,-6.381448E-3,-3.109106E-2,-6.9325096E-3],"split_indices":[7,13,13,0,7,0,4,0,0,2147483647,2147483647],"split_type":[0,0,0,0,0,0,0,0,0,0,0],"sum_hessian":[6.198669E1,3.0516096E1,3.1470594E1,2.3125227E1,7.390868E0,3.001329E0,2.8469267E1,3.585314E0,3.8055542E0,2.5307371E1,3.1618962E0],"tree_param":{"num_deleted":"2","num_feature":"14","num_nodes":"11","size_leaf_vector":"0"}},{"base_weights":[2.2572547E-2,9.460357E-1,-8.6823744E-1,1.06821E0,2.5398648E-1,1.8308032E-1,-1.0133114E0],"categories":[],"categories_nodes":[],"categories_segments":[],"categories_sizes":[],"default_left":[1,1,1,0,0,0,0],"id":36,"left_children":[1,3,5,-1,-1,-1,-1],"loss_changes":[5.18182E1,1.4306736E0,5.634577E0,0E0,0E0,0E0,0E0],"parents":[2147483647,0,0,1,1,2,2],"right_children":[2,4,6,-1,-1,-1,-1],"split_conditions":[4.0056435E1,8.120637E1,6.627605E1,3.20463E-2,7.619594E-3,5.492409E-3,-3.0399341E-2],"split_indices":[8,13,13,0,0,0,0],"split_type":[0,0,0,0,0,0,0],"sum_hessian":[5.8946617E1,2.9157564E1,2.9789055E1,2.3244413E1,5.9131513E0,3.1307487E0,2.6658306E1],"tree_param":{"num_deleted":"0","num_feature":"14","num_nodes":"7","size_leaf_vector":"0"}},{"base_weights":[1.6740683E-2,9.5857346E-1,-7.985987E-1,1.0579705E0,1.8661253E-1,3.9712036E-1,-9.623031E-1,-1.0384463E0,-8.944088E-2],"categories":[],"categories_nodes":[],"categories_segments":[],"categories_sizes":[],"default_left":[1,1,1,0,0,0,1,0,0],"id":37,"left_children":[1,3,5,-1,-1,-1,7,-1,-1],"loss_changes":[4.8081078E1,1.2289639E0,7.5538273E0,0E0,0E0,0E0,1.2568626E0,0E0,0E0],"parents":[2147483647,0,0,1,1,2,2,6,6],"right_children":[2,4,6,-1,-1,-1,8,-1,-1],"split_conditions":[4.0056435E1,8.330848E1,6.605713E1,3.1739116E-2,5.598376E-3,1.1913611E-2,1.3117307E2,-3.1153388E-2,-2.6832265E-3],"split_indices":[8,13,13,0,0,0,4,0,0],"split_type":[0,0,0,0,0,0,0,0,0],"sum_hessian":[5.8514717E1,2.7272732E1,3.1241985E1,2.2931406E1,4.341326E0,3.051013E0,2.8190971E1,2.5053246E1,3.1377275E0],"tree_param":{"num_deleted":"0","num_feature":"14","num_nodes":"9","size_leaf_vector":"0"}},{"base_weights":[-6.158437E-3,9.636449E-1,-8.042053E-1,1.0851687E0,2.8415763E-1,9.440072E-1,-1.0715873E0],"categories":[],"categories_nodes":[],"categories_segments":[],"categories_sizes":[],"default_left":[1,1,1,0,0,0,0],"id":38,"left_children":[1,3,5,-1,-1,-1,-1],"loss_changes":[4.7926304E1,9.87854E-1,1.812077E1,0E0,0E0,0E0,0E0],"parents":[2147483647,0,0,1,1,2,2],"right_children":[2,4,6,-1,-1,-1,-1],"split_conditions":[1.285E1,7.661839E1,1.0174999E0,3.2555062E-2,8.524729E-3,2.8320216E-2,-3.214762E-2],"split_indices":[7,13,2,0,0,0,0],"split_type":[0,0,0,0,0,0,0],"sum_hessian":[5.802478E1,2.5723501E1,3.2301277E1,2.0183777E1,5.5397243E0,3.3655229E0,2.8935755E1],"tree_param":{"num_deleted":"0","num_feature":"14","num_nodes":"7","size_leaf_vector":"0"}},{"base_weights":[1.336807E-2,9.629369E-1,-7.8162414E-1,3.0725354E-1,1.0808427E0,9.308874E-1,-1.0548381E0],"categories":[],"categories_nodes":[],"categories_segments":[],"categories_sizes":[],"default_left":[1,1,1,0,0,0,0],"id":39,"left_children":[1,3,5,-1,-1,-1,-1],"loss_changes":[4.611052E1,8.1059074E-1,1.7425467E1,0E0,0E0,0E0,0E0],"parents":[2147483647,0,0,1,1,2,2],"right_children":[2,4,6,-1,-1,-1,-1],"split_conditions":[1.285E1,1.1500001E0,1.0174999E0,9.217606E-3,3.242528E-2,2.7926622E-2,-3.164514E-2],"split_indices":[7,6,2,0,0,0,0],"split_type":[0,0,0,0,0,0,0],"sum_hessian":[5.6967495E1,2.6054018E1,3.0913477E1,5.7165217E0,2.0337496E1,3.3391545E0,2.7574322E1],"tree_param":{"num_deleted":"0","num_feature":"14","num_nodes":"7","size_leaf_vector":"0"}},{"base_weights":[3.0638825E-2,9.5167553E-1,-7.5193423E-1,1.09676E0,3.4592843E-1,9.180895E-1,-1.0334125E0,7.032232E-1,-1.0542311E-1],"categories":[],"categories_nodes":[],"categories_segments":[],"categories_sizes":[],"default_left":[1,1,1,0,1,0,0,0,0],"id":40,"left_children":[1,3,5,-1,7,-1,-1,-1,-1],"loss_changes":[4.211505E1,8.963375E-1,1.6652004E1,0E0,1.8683337E0,0E0,0E0,0E0,0E0],"parents":[2147483647,0,0,1,1,2,2,4,4],"right_children":[2,4,6,-1,8,-1,-1,-1,-1],"split_conditions":[1.285E1,1.2625E1,1.0174999E0,3.29028E-2,7.487218E1,2.7542684E-2,-3.1002373E-2,2.1096697E-2,-3.1626932E-3],"split_indices":[7,7,2,0,13,0,0,0,0],"split_type":[0,0,0,0,0,0,0,0,0],"sum_hessian":[5.4305763E1,2.5040958E1,2.9264805E1,1.8228405E1,6.812555E0,3.3124146E0,2.595239E1,3.7978454E0,3.0147095E0],"tree_param":{"num_deleted":"0","num_feature":"14","num_nodes":"9","size_leaf_vector":"0"}},{"base_weights":[-6.0379882E-3,9.524373E-1,-8.656815E-1,1.0894921E0,4.0523508E-1,9.6610166E-2,-9.9512374E-1,7.524695E-1,-1.0347656E-1],"categories":[],"categories_nodes":[],"categories_segments":[],"categories_sizes":[],"default_left":[1,1,1,0,1,0,0,0,0],"id":41,"left_children":[1,3,5,-1,7,-1,-1,-1,-1],"loss_changes":[4.8776375E1,4.505024E-1,4.5656586E0,0E0,2.1534905E0,0E0,0E0,0E0,0E0],"parents":[2147483647,0,0,1,1,2,2,4,4],"right_children":[2,4,6,-1,8,-1,-1,-1,-1],"split_conditions":[1.285E1,1.2625E1,6.627605E1,3.2684762E-2,7.585831E1,2.898305E-3,-2.985371E-2,2.2574084E-2,-3.1042967E-3],"split_indices":[7,7,13,0,13,0,0,0,0],"split_type":[0,0,0,0,0,0,0,0,0],"sum_hessian":[5.5249718E1,2.5746103E1,2.9503613E1,1.8273462E1,7.472641E0,3.1002755E0,2.6403337E1,4.4557757E0,3.0168653E0],"tree_param":{"num_deleted":"0","num_feature":"14","num_nodes":"9","size_leaf_vector":"0"}},{"base_weights":[3.088835E-2,1.1676447E0,-5.577098E-1,-9.458047E-1,1.0105522E0,-3.861615E-2,-1.093986E0],"categories":[],"categories_nodes":[],"categories_segments":[],"categories_sizes":[],"default_left":[1,0,1,1,0,0,0],"id":42,"left_children":[1,-1,3,5,-1,-1,-1],"loss_changes":[3.8662827E1,0E0,2.4734707E1,3.5690956E0,0E0,0E0,0E0],"parents":[2147483647,0,0,2,2,3,3],"right_children":[2,-1,4,6,-1,-1,-1],"split_conditions":[1.0174999E0,3.502934E-2,5E-1,4.0056435E1,3.0316565E-2,-1.1584845E-3,-3.281958E-2],"split_indices":[2,0,10,8,0,0,0],"split_type":[0,0,0,0,0,0,0],"sum_hessian":[5.338163E1,1.7829515E1,3.5552113E1,2.9391336E1,6.160777E0,4.9545097E0,2.4436827E1],"tree_param":{"num_deleted":"0","num_feature":"14","num_nodes":"7","size_leaf_vector":"0"}},{"base_weights":[1.7471878E-2,8.911224E-1,-7.786104E-1,9.4195254E-2,9.8502225E-1,2.0448144E-1,-9.218987E-1,-9.80665E-1,-1.7198195E-1],"categories":[],"categories_nodes":[],"categories_segments":[],"categories_sizes":[],"default_left":[1,1,1,0,0,0,1,0,0],"id":43,"left_children":[1,3,5,-1,-1,-1,7,-1,-1],"loss_changes":[4.067512E1,1.3794937E0,5.001396E0,0E0,0E0,0E0,2.866783E-1,0E0,0E0],"parents":[2147483647,0,0,1,1,2,2,6,6],"right_children":[2,4,6,-1,-1,-1,8,-1,-1],"split_conditions":[4.0056435E1,3.35E1,6.627605E1,2.8258576E-3,2.9550666E-2,6.134443E-3,1.3108481E2,-2.941995E-2,-5.159458E-3],"split_indices":[8,0,13,0,0,0,4,0,0],"split_type":[0,0,0,0,0,0,0,0,0],"sum_hessian":[5.440736E1,2.612553E1,2.828183E1,3.7373965E0,2.2388134E1,3.0452151E0,2.5236616E1,2.2213726E1,3.0228891E0],"tree_param":{"num_deleted":"0","num_feature":"14","num_nodes":"9","size_leaf_vector":"0"}},{"base_weights":[-0E0,9.0854955E-1,-7.4266243E-1,1.040492E0,2.1328846E-1,9.309873E-1,-1.0108712E0],"categories":[],"categories_nodes":[],"categories_segments":[],"categories_sizes":[],"default_left":[1,1,1,0,0,0,0],"id":44,"left_children":[1,3,5,-1,-1,-1,-1],"loss_changes":[3.8118046E1,1.2731171E0,1.5780016E1,0E0,0E0,0E0,0E0],"parents":[2147483647,0,0,1,1,2,2],"right_children":[2,4,6,-1,-1,-1,-1],"split_conditions":[1.285E1,7.661839E1,1.0174999E0,3.121476E-2,6.3986536E-3,2.7929619E-2,-3.0326134E-2],"split_indices":[7,13,2,0,0,0,0],"split_type":[0,0,0,0,0,0,0],"sum_hessian":[5.242199E1,2.3550432E1,2.8871555E1,1.8354897E1,5.195535E0,3.04762E0,2.5823935E1],"tree_param":{"num_deleted":"0","num_feature":"14","num_nodes":"7","size_leaf_vector":"0"}},{"base_weights":[1.56222535E-2,8.9631814E-1,-7.3053217E-1,1.0893129E-1,1.0034665E0,-8.786187E-1,2.3082307E-1,-9.599773E-1,-6.210732E-2],"categories":[],"categories_nodes":[],"categories_segments":[],"categories_sizes":[],"default_left":[1,1,1,0,0,1,0,0,0],"id":45,"left_children":[1,3,5,-1,-1,7,-1,-1,-1],"loss_changes":[3.5728874E1,1.3487606E0,4.8695917E0,0E0,0E0,1.1012936E0,0E0,0E0,0E0],"parents":[2147483647,0,0,1,1,2,2,5,5],"right_children":[2,4,6,-1,-1,8,-1,-1,-1],"split_conditions":[4.0056435E1,3.35E1,1.2968221E0,3.2679385E-3,3.0103995E-2,1.3117307E2,6.924692E-3,-2.879932E-2,-1.8632195E-3],"split_indices":[8,0,6,0,0,4,0,0,0],"split_type":[0,0,0,0,0,0,0,0,0],"sum_hessian":[5.0251663E1,2.3170647E1,2.7081018E1,3.8174632E0,1.9353184E1,2.4066113E1,3.014905E0,2.1008968E1,3.057144E0],"tree_param":{"num_deleted":"0","num_feature":"14","num_nodes":"9","size_leaf_vector":"0"}},{"base_weights":[2.717389E-2,8.983149E-1,-7.421391E-1,1.0501469E0,3.5425642E-1,-8.708873E-1,1.00290865E-1,-1.2948804E-1,7.279596E-1,-1.0204686E0,-3.4297353E-1,-0E0,-6.5257174E-1],"categories":[],"categories_nodes":[],"categories_segments":[],"categories_sizes":[],"default_left":[1,1,1,0,1,1,0,0,0,0,1,0,0],"id":46,"left_children":[1,3,5,-1,7,9,-1,-1,-1,-1,11,-1,-1],"loss_changes":[3.604299E1,6.5550804E-1,3.6220312E0,0E0,2.1668067E0,6.090603E-1,0E0,0E0,0E0,0E0,1.1543872E0,0E0,0E0],"parents":[2147483647,0,0,1,1,2,2,4,4,5,5,10,10],"right_children":[2,4,6,-1,8,10,-1,-1,-1,-1,12,-1,-1],"split_conditions":[1.3039672E1,1.2625E1,1.2708561E0,3.1504408E-2,4.85E1,1.2095465E2,3.0087258E-3,-3.884641E-3,2.1838786E-2,-3.0614058E-2,1.0202997E0,-0E0,-1.9577151E-2],"split_indices":[7,7,6,0,0,4,0,0,0,0,2,0,0],"split_type":[0,0,0,0,0,0,0,0,0,0,0,0,0],"sum_hessian":[4.9675E1,2.3443277E1,2.623172E1,1.6155325E1,7.287953E0,2.3210442E1,3.0212796E0,3.1628304E0,4.1251225E0,1.5893844E1,7.3165975E0,4.032326E0,3.2842715E0],"tree_param":{"num_deleted":"0","num_feature":"14","num_nodes":"13","size_leaf_vector":"0"}},{"base_weights":[2.7113577E-2,9.230208E-1,-7.3314357E-1,1.816683E-1,1.0161798E0,2.958986E-1,-9.0196574E-1],"categories":[],"categories_nodes":[],"categories_segments":[],"categories_sizes":[],"default_left":[1,1,1,0,0,0,0],"id":47,"left_children":[1,3,5,-1,-1,-1,-1],"loss_changes":[3.6303387E1,7.362213E-1,5.787113E0,0E0,0E0,0E0,0E0],"parents":[2147483647,0,0,1,1,2,2],"right_children":[2,4,6,-1,-1,-1,-1],"split_conditions":[1.285E1,3.2592583E1,6.605713E1,5.450049E-3,3.0485393E-2,8.876957E-3,-2.7058972E-2],"split_indices":[7,0,13,0,0,0,0],"split_type":[0,0,0,0,0,0,0],"sum_hessian":[4.9173126E1,2.267812E1,2.6495005E1,3.7894337E0,1.8888685E1,3.104518E0,2.3390488E1],"tree_param":{"num_deleted":"0","num_feature":"14","num_nodes":"7","size_leaf_vector":"0"}},{"base_weights":[9.803038E-3,1.1225116E0,-5.529972E-1,7.875634E-1,-1.0110874E0],"categories":[],"categories_nodes":[],"categories_segments":[],"categories_sizes":[],"default_left":[1,0,1,0,0],"id":48,"left_children":[1,-1,3,-1,-1],"loss_changes":[3.2672325E1,0E0,2.2627289E1,0E0,0E0],"parents":[2147483647,0,0,2,2],"right_children":[2,-1,4,-1,-1],"split_conditions":[1.0174999E0,3.3675347E-2,6.3593384E1,2.3626901E-2,-3.0332621E-2],"split_indices":[2,0,13,0,0],"split_type":[0,0,0,0,0],"sum_hessian":[4.7735634E1,1.5664615E1,3.207102E1,7.5236816E0,2.4547337E1],"tree_param":{"num_deleted":"0","num_feature":"14","num_nodes":"5","size_leaf_vector":"0"}},{"base_weights":[5.2823618E-2,8.4153974E-1,-6.8715024E-1,9.8084277E-1,1.8035993E-1,-8.591903E-1,2.6969516E-1,-1.0173175E0,-2.61942E-1,-3.728025E-1,-0E0],"categories":[],"categories_nodes":[],"categories_segments":[],"categories_sizes":[],"default_left":[1,1,1,0,0,1,0,0,1,1,1],"id":49,"left_children":[1,3,5,-1,-1,7,-1,-1,-1,-1,-1],"loss_changes":[3.0201324E1,1.3913708E0,5.101074E0,0E0,0E0,1.0262089E0,0E0,0E0,1.6140342E-1,0E0,0E0],"parents":[2147483647,0,0,1,1,2,2,5,5,8,8],"right_children":[2,4,6,-1,-1,8,-1,-1,-1,-1,-1],"split_conditions":[4.0056435E1,8.120637E1,1.259316E0,2.9425282E-2,5.410798E-3,1.2090907E2,8.090855E-3,-3.0519525E-2,-7.85826E-3,-1.1184075E-2,-0E0],"split_indices":[8,13,6,0,0,4,0,0,1,2147483647,2147483647],"split_type":[0,0,0,0,0,0,0,0,0,0,0],"sum_hessian":[4.7633564E1,2.3251581E1,2.438198E1,1.7781956E1,5.4696255E0,2.1282139E1,3.0998418E0,1.5052886E1,6.229253E0,3.2240126E0,3.0052404E0],"tree_param":{"num_deleted":"2","num_feature":"14","num_nodes":"11","size_leaf_vector":"0"}},{"base_weights":[2.5721038E-2,1.1206787E0,-5.4596555E-1,7.534729E-1,-9.598413E-1,-4.4792898E-2,-1.0608996E0],"categories":[],"categories_nodes":[],"categories_segments":[],"categories_sizes":[],"default_left":[1,0,1,0,1,0,0],"id":50,"left_children":[1,-1,3,-1,5,-1,-1],"loss_changes":[3.2501648E1,0E0,1.9604134E1,0E0,1.8149147E0,0E0,0E0],"parents":[2147483647,0,0,2,2,4,4],"right_children":[2,-1,4,-1,6,-1,-1],"split_conditions":[1.0174999E0,3.3620358E-2,6.3593384E1,2.2604188E-2,1.285E1,-1.343787E-3,-3.1826988E-2],"split_indices":[2,0,13,0,7,0,0],"split_type":[0,0,0,0,0,0,0],"sum_hessian":[4.7507896E1,1.59372015E1,3.1570696E1,6.9381027E0,2.4632593E1,3.229022E0,2.1403572E1],"tree_param":{"num_deleted":"0","num_feature":"14","num_nodes":"7","size_leaf_vector":"0"}},{"base_weights":[1.2133408E-2,8.0614775E-1,-7.178144E-1,2.3615035E-1,9.9140525E-1,2.6131505E-1,-8.9038664E-1,7.5464016E-1,-2.8194985E-1,-9.754425E-1,-1.6472743E-1],"categories":[],"categories_nodes":[],"categories_segments":[],"categories_sizes":[],"default_left":[1,1,1,1,0,0,1,0,0,0,0],"id":51,"left_children":[1,3,5,7,-1,-1,9,-1,-1,-1,-1],"loss_changes":[2.9368605E1,1.5101395E0,5.1816645E0,3.162492E0,0E0,0E0,5.303097E-1,0E0,0E0,0E0,0E0],"parents":[2147483647,0,0,1,1,2,2,3,3,6,6],"right_children":[2,4,6,8,-1,-1,10,-1,-1,-1,-1],"split_conditions":[4.0056435E1,1.25E0,6.605713E1,1.0174999E0,2.9742157E-2,7.839452E-3,1.305E2,2.2639204E-2,-8.458495E-3,-2.9263275E-2,-4.941823E-3],"split_indices":[8,6,13,2,0,0,4,0,0,0,0],"split_type":[0,0,0,0,0,0,0,0,0,0,0],"sum_hessian":[4.6598415E1,2.2547812E1,2.4050606E1,7.3087463E0,1.5239065E1,3.0155218E0,2.1035084E1,3.6789696E0,3.6297767E0,1.7595251E1,3.4398324E0],"tree_param":{"num_deleted":"0","num_feature":"14","num_nodes":"11","size_leaf_vector":"0"}},{"base_weights":[5.133443E-3,1.0930498E0,-5.3305787E-1,-8.91988E-1,9.365669E-1,1.6689887E-2,-1.0620775E0],"categories":[],"categories_nodes":[],"categories_segments":[],"categories_sizes":[],"default_left":[1,0,1,1,0,0,0],"id":52,"left_children":[1,-1,3,5,-1,-1,-1],"loss_changes":[2.8415056E1,0E0,1.8451235E1,4.715576E0,0E0,0E0,0E0],"parents":[2147483647,0,0,2,2,3,3],"right_children":[2,-1,4,6,-1,-1,-1],"split_conditions":[1.0174999E0,3.279149E-2,5E-1,1.285E1,2.8097006E-2,5.006966E-4,-3.1862326E-2],"split_indices":[2,0,10,7,0,0,0],"split_type":[0,0,0,0,0,0,0],"sum_hessian":[4.4062195E1,1.4208268E1,2.9853926E1,2.4899084E1,4.954841E0,3.7467532E0,2.1152332E1],"tree_param":{"num_deleted":"0","num_feature":"14","num_nodes":"7","size_leaf_vector":"0"}},{"base_weights":[3.0746497E-2,8.400315E-1,-7.7269644E-1,3.495779E-2,9.6018034E-1,-9.3709785E-1,-3.3769062E-1,7.052983E-3,-7.0372045E-1],"categories":[],"categories_nodes":[],"categories_segments":[],"categories_sizes":[],"default_left":[1,1,1,0,0,0,1,0,0],"id":53,"left_children":[1,3,5,-1,-1,-1,7,-1,-1],"loss_changes":[3.134698E1,1.7824821E0,4.3866444E-1,0E0,0E0,0E0,1.6851131E0,0E0,0E0],"parents":[2147483647,0,0,1,1,2,2,6,6],"right_children":[2,4,6,-1,-1,-1,8,-1,-1],"split_conditions":[1.3421057E1,6.9275406E1,1.2095465E2,1.0487336E-3,2.880541E-2,-2.8112935E-2,1.0202997E0,2.1158949E-4,-2.1111613E-2],"split_indices":[7,1,4,0,0,0,2,0,0],"split_type":[0,0,0,0,0,0,0,0,0],"sum_hessian":[4.4161907E1,2.2265625E1,2.1896282E1,3.7670972E0,1.8498528E1,1.3381264E1,8.5150175E0,4.6916556E0,3.8233619E0],"tree_param":{"num_deleted":"0","num_feature":"14","num_nodes":"9","size_leaf_vector":"0"}},{"base_weights":[4.0253036E-2,1.0921106E0,-5.379971E-1,-8.862817E-1,8.855967E-1,-0E0,-1.0417938E0],"categories":[],"categories_nodes":[],"categories_segments":[],"categories_sizes":[],"default_left":[1,0,1,1,0,0,0],"id":54,"left_children":[1,-1,3,5,-1,-1,-1],"loss_changes":[2.8569962E1,0E0,1.6346443E1,3.3440437E0,0E0,0E0,0E0],"parents":[2147483647,0,0,2,2,3,3],"right_children":[2,-1,4,6,-1,-1,-1],"split_conditions":[1.0174999E0,3.2763317E-2,5E-1,1.285E1,2.65679E-2,-0E0,-3.1253815E-2],"split_indices":[2,0,10,7,0,0,0],"split_type":[0,0,0,0,0,0,0],"sum_hessian":[4.2584282E1,1.4782242E1,2.780204E1,2.322588E1,4.5761604E0,3.8878868E0,1.9337994E1],"tree_param":{"num_deleted":"0","num_feature":"14","num_nodes":"7","size_leaf_vector":"0"}},{"base_weights":[8.048087E-2,8.6275995E-1,-5.9316456E-1,9.9653786E-1,2.950927E-1,3.2611057E-1,-7.91602E-1,-9.6007675E-1,-2.4478312E-1,-5.002674E-1,2.6274499E-2],"categories":[],"categories_nodes":[],"categories_segments":[],"categories_sizes":[],"default_left":[1,1,1,0,0,0,1,0,1,0,0],"id":55,"left_children":[1,3,5,-1,-1,-1,7,-1,9,-1,-1],"loss_changes":[2.4680851E1,4.224205E-1,5.277648E0,0E0,0E0,0E0,9.0351677E-1,0E0,8.4743834E-1,0E0,0E0],"parents":[2147483647,0,0,1,1,2,2,6,6,8,8],"right_children":[2,4,6,-1,-1,-1,8,-1,10,-1,-1],"split_conditions":[1.285E1,1.2625E1,6.605713E1,2.9896135E-2,8.852781E-3,9.783317E-3,1.2095465E2,-2.8802302E-2,7.543266E1,-1.5008021E-2,7.8823493E-4],"split_indices":[7,7,13,0,0,0,4,0,1,0,0],"split_type":[0,0,0,0,0,0,0,0,0,0,0],"sum_hessian":[4.2636597E1,1.9811275E1,2.2825323E1,1.4097282E1,5.713992E0,3.3765864E0,1.9448736E1,1.3013427E1,6.4353094E0,3.391791E0,3.0435185E0],"tree_param":{"num_deleted":"0","num_feature":"14","num_nodes":"11","size_leaf_vector":"0"}},{"base_weights":[3.533536E-2,-4.6440956E-1,1.1100471E0,4.824206E-1,-8.7201524E-1,7.411063E-1,-0E0,-9.559457E-1,-1.4041664E-1],"categories":[],"categories_nodes":[],"categories_segments":[],"categories_sizes":[],"default_left":[1,1,0,1,1,0,0,0,0],"id":56,"left_children":[1,3,-1,5,7,-1,-1,-1,-1],"loss_changes":[2.4471834E1,1.2797007E1,0E0,1.5445447E0,5.5784035E-1,0E0,0E0,0E0,0E0],"parents":[2147483647,0,0,1,1,3,3,4,4],"right_children":[2,4,-1,6,8,-1,-1,-1,-1],"split_conditions":[5E-1,1.285E1,3.3301413E-2,7.2133705E1,1.305E2,2.2233188E-2,-0E0,-2.8678369E-2,-4.212499E-3],"split_indices":[3,7,0,13,4,0,0,0,0],"split_type":[0,0,0,0,0,0,0,0,0],"sum_hessian":[4.1043694E1,2.8473787E1,1.2569907E1,8.089307E0,2.038448E1,5.0873146E0,3.0019927E0,1.7123318E1,3.2611618E0],"tree_param":{"num_deleted":"0","num_feature":"14","num_nodes":"9","size_leaf_vector":"0"}},{"base_weights":[4.400307E-2,7.6417357E-1,-7.616778E-1,9.1038257E-1,-4.7296897E-2,-1.3972983E-1,-8.444644E-1],"categories":[],"categories_nodes":[],"categories_segments":[],"categories_sizes":[],"default_left":[1,1,1,0,0,0,0],"id":57,"left_children":[1,3,5,-1,-1,-1,-1],"loss_changes":[2.638163E1,3.397563E0,3.6274624E-1,0E0,0E0,0E0,0E0],"parents":[2147483647,0,0,1,1,2,2],"right_children":[2,4,6,-1,-1,-1,-1],"split_conditions":[1.3421057E1,4.05E1,1.4104452E1,2.7311476E-2,-1.4189068E-3,-4.1918945E-3,-2.5333932E-2],"split_indices":[7,8,7,0,0,0,0],"split_type":[0,0,0,0,0,0,0],"sum_hessian":[4.145928E1,2.2273441E1,1.9185837E1,1.9188484E1,3.084958E0,3.5947757E0,1.5591061E1],"tree_param":{"num_deleted":"0","num_feature":"14","num_nodes":"7","size_leaf_vector":"0"}},{"base_weights":[7.701383E-2,7.900801E-1,-5.9799784E-1,1.2095785E-2,8.983311E-1,1.5761891E-1,-7.6133513E-1,-9.3143946E-1,-2.3695388E-1,-4.8225465E-1,5.1727872E-3],"categories":[],"categories_nodes":[],"categories_segments":[],"categories_sizes":[],"default_left":[1,1,1,0,0,0,1,0,1,0,0],"id":58,"left_children":[1,3,5,-1,-1,-1,7,-1,9,-1,-1],"loss_changes":[2.0906538E1,1.3162403E0,3.254655E0,0E0,0E0,0E0,6.6564846E-1,0E0,7.21439E-1,0E0,0E0],"parents":[2147483647,0,0,1,1,2,2,6,6,8,8],"right_children":[2,4,6,-1,-1,-1,8,-1,10,-1,-1],"split_conditions":[4.0056435E1,6.628539E1,6.621014E1,3.6287354E-4,2.6949933E-2,4.7285673E-3,1.2095465E2,-2.7943183E-2,7.981557E1,-1.4467639E-2,1.5518362E-4],"split_indices":[8,1,13,0,0,0,4,0,1,0,0],"split_type":[0,0,0,0,0,0,0,0,0,0,0],"sum_hessian":[3.9272408E1,1.9292286E1,1.998012E1,3.192271E0,1.6100016E1,3.0196671E0,1.6960453E1,1.0914017E1,6.046437E0,3.044038E0,3.0023987E0],"tree_param":{"num_deleted":"0","num_feature":"14","num_nodes":"11","size_leaf_vector":"0"}},{"base_weights":[-0E0,-5.0086707E-1,1.0983247E0,4.53791E-1,-9.5919186E-1,-9.154287E-2,7.6978695E-1],"categories":[],"categories_nodes":[],"categories_segments":[],"categories_sizes":[],"default_left":[1,1,0,1,0,0,0],"id":59,"left_children":[1,3,-1,5,-1,-1,-1],"loss_changes":[2.42844E1,1.4495079E1,0E0,2.3612864E0,0E0,0E0,0E0],"parents":[2147483647,0,0,1,1,3,3],"right_children":[2,4,-1,6,-1,-1,-1],"split_conditions":[5E-1,1.285E1,3.294974E-2,1.1500001E0,-2.8775755E-2,-2.746286E-3,2.3093607E-2],"split_indices":[3,7,0,6,0,0,0],"split_type":[0,0,0,0,0,0,0],"sum_hessian":[4.0336628E1,2.8561155E1,1.1775475E1,8.916847E0,1.9644308E1,3.212003E0,5.7048445E0],"tree_param":{"num_deleted":"0","num_feature":"14","num_nodes":"7","size_leaf_vector":"0"}},{"base_weights":[3.8973615E-2,1.0536939E0,-4.759159E-1,-8.581607E-1,9.122515E-1,-0E0,-1.0183716E0],"categories":[],"categories_nodes":[],"categories_segments":[],"categories_sizes":[],"default_left":[1,0,1,1,0,0,0],"id":60,"left_children":[1,-1,3,5,-1,-1,-1],"loss_changes":[2.303671E1,0E0,1.6746548E1,3.0810509E0,0E0,0E0,0E0],"parents":[2147483647,0,0,2,2,3,3],"right_children":[2,-1,4,6,-1,-1,-1],"split_conditions":[1.0174999E0,3.1610817E-2,5E-1,1.285E1,2.7367543E-2,-0E0,-3.0551147E-2],"split_indices":[2,0,10,7,0,0,0],"split_type":[0,0,0,0,0,0,0],"sum_hessian":[3.9619484E1,1.2958893E1,2.6660591E1,2.1785536E1,4.8750563E0,3.9243383E0,1.7861197E1],"tree_param":{"num_deleted":"0","num_feature":"14","num_nodes":"7","size_leaf_vector":"0"}},{"base_weights":[-0E0,1.0392979E0,-5.345865E-1,-8.663927E-1,8.411453E-1,-0E0,-1.0158843E0],"categories":[],"categories_nodes":[],"categories_segments":[],"categories_sizes":[],"default_left":[1,0,1,1,0,0,0],"id":61,"left_children":[1,-1,3,5,-1,-1,-1],"loss_changes":[2.3109743E1,0E0,1.4210358E1,3.0463715E0,0E0,0E0,0E0],"parents":[2147483647,0,0,2,2,3,3],"right_children":[2,-1,4,6,-1,-1,-1],"split_conditions":[1.0174999E0,3.1178938E-2,5E-1,1.2825E1,2.5234358E-2,-0E0,-3.0476527E-2],"split_indices":[2,0,10,7,0,0,0],"split_type":[0,0,0,0,0,0,0],"sum_hessian":[3.7920654E1,1.2010747E1,2.5909908E1,2.176453E1,4.1453776E0,3.5276442E0,1.8236885E1],"tree_param":{"num_deleted":"0","num_feature":"14","num_nodes":"7","size_leaf_vector":"0"}},{"base_weights":[2.5399104E-2,-4.74584E-1,1.0783862E0,-8.133765E-1,5.3931826E-1,-1.7462388E-1,-9.1099584E-1],"categories":[],"categories_nodes":[],"categories_segments":[],"categories_sizes":[],"default_left":[1,1,0,1,0,0,0],"id":62,"left_children":[1,3,-1,5,-1,-1,-1],"loss_changes":[2.1881594E1,1.0474779E1,0E0,4.9899387E-1,0E0,0E0,0E0],"parents":[2147483647,0,0,1,1,3,3],"right_children":[2,4,-1,6,-1,-1,-1],"split_conditions":[5E-1,1.2968221E0,3.2351583E-2,2.0045444E1,1.6179547E-2,-5.238716E-3,-2.7329875E-2],"split_indices":[3,6,0,5,0,0,0],"split_type":[0,0,0,0,0,0,0],"sum_hessian":[3.704477E1,2.5541037E1,1.1503733E1,1.981021E1,5.7308264E0,4.0446224E0,1.5765588E1],"tree_param":{"num_deleted":"0","num_feature":"14","num_nodes":"7","size_leaf_vector":"0"}},{"base_weights":[3.5254322E-2,8.290381E-1,-6.021415E-1,9.462299E-1,2.7332714E-1,2.5388503E-1,-7.8419363E-1],"categories":[],"categories_nodes":[],"categories_segments":[],"categories_sizes":[],"default_left":[1,1,1,1,1,0,0],"id":63,"left_children":[1,-1,5,-1,-1,-1,-1],"loss_changes":[2.1047197E1,9.332085E-2,4.1951256E0,0E0,0E0,0E0,0E0],"parents":[2147483647,0,0,1,1,2,2],"right_children":[2,-1,6,-1,-1,-1,-1],"split_conditions":[1.285E1,2.4871143E-2,6.605713E1,2.8386896E-2,8.199814E-3,7.6165507E-3,-2.3525808E-2],"split_indices":[7,7,13,2147483647,2147483647,0,0],"split_type":[0,0,0,0,0,0,0],"sum_hessian":[3.7401478E1,1.6738821E1,2.0662655E1,1.1919864E1,4.8189583E0,3.0036397E0,1.7659016E1],"tree_param":{"num_deleted":"2","num_feature":"14","num_nodes":"7","size_leaf_vector":"0"}},{"base_weights":[2.258999E-2,1.0319355E0,-4.9127412E-1,-8.247538E-1,8.542475E-1,-0E0,-9.991845E-1],"categories":[],"categories_nodes":[],"categories_segments":[],"categories_sizes":[],"default_left":[1,0,1,1,0,0,0],"id":64,"left_children":[1,-1,3,5,-1,-1,-1],"loss_changes":[2.1608957E1,0E0,1.3506374E1,3.5992556E0,0E0,0E0,0E0],"parents":[2147483647,0,0,2,2,3,3],"right_children":[2,-1,4,6,-1,-1,-1],"split_conditions":[1.0174999E0,3.0958062E-2,5E-1,1.285E1,2.5627425E-2,-0E0,-2.9975533E-2],"split_indices":[2,0,10,7,0,0,0],"split_type":[0,0,0,0,0,0,0],"sum_hessian":[3.718646E1,1.2193097E1,2.499336E1,2.094736E1,4.046002E0,3.7075098E0,1.723985E1],"tree_param":{"num_deleted":"0","num_feature":"14","num_nodes":"7","size_leaf_vector":"0"}},{"base_weights":[3.4600362E-2,1.0257995E0,-4.7322664E-1,-8.469053E-1,8.7680846E-1,-0E0,-9.9187577E-1],"categories":[],"categories_nodes":[],"categories_segments":[],"categories_sizes":[],"default_left":[1,0,1,1,0,0,0],"id":65,"left_children":[1,-1,3,5,-1,-1,-1],"loss_changes":[2.0846151E1,0E0,1.4980661E1,2.2544909E0,0E0,0E0,0E0],"parents":[2147483647,0,0,2,2,3,3],"right_children":[2,-1,4,6,-1,-1,-1],"split_conditions":[1.0174999E0,3.0773984E-2,5E-1,1.285E1,2.6304252E-2,-0E0,-2.9756272E-2],"split_indices":[2,0,10,7,0,0,0],"split_type":[0,0,0,0,0,0,0],"sum_hessian":[3.6936512E1,1.21555E1,2.4781012E1,2.0282658E1,4.4983544E0,3.7459939E0,1.6536663E1],"tree_param":{"num_deleted":"0","num_feature":"14","num_nodes":"7","size_leaf_vector":"0"}},{"base_weights":[8.81209E-3,-4.845804E-1,1.0581667E0,7.358994E-1,-7.8381276E-1,3.4460846E-1,-1.0312558E0],"categories":[],"categories_nodes":[],"categories_segments":[],"categories_sizes":[],"default_left":[1,1,0,0,1,0,0],"id":66,"left_children":[1,3,-1,-1,5,-1,-1],"loss_changes":[2.04958E1,1.0764252E1,0E0,0E0,7.302699E0,0E0,0E0],"parents":[2147483647,0,0,1,1,4,4],"right_children":[2,4,-1,-1,6,-1,-1],"split_conditions":[5E-1,1.0174999E0,3.1745E-2,2.2076981E-2,6.232703E1,1.0338253E-2,-3.0937675E-2],"split_indices":[3,2,0,0,13,0,0],"split_type":[0,0,0,0,0,0,0],"sum_hessian":[3.5052067E1,2.4249987E1,1.080208E1,3.8711588E0,2.0378828E1,3.160391E0,1.7218437E1],"tree_param":{"num_deleted":"0","num_feature":"14","num_nodes":"7","size_leaf_vector":"0"}},{"base_weights":[-0E0,9.883917E-1,-5.034856E-1,6.130474E-1,-8.654764E-1],"categories":[],"categories_nodes":[],"categories_segments":[],"categories_sizes":[],"default_left":[1,0,1,0,0],"id":67,"left_children":[1,-1,3,-1,-1],"loss_changes":[1.937437E1,0E0,1.156637E1,0E0,0E0],"parents":[2147483647,0,0,2,2],"right_children":[2,-1,4,-1,-1],"split_conditions":[1.0174999E0,2.965175E-2,6.3593384E1,1.8391423E-2,-2.5964292E-2],"split_indices":[2,0,13,0,0],"split_type":[0,0,0,0,0],"sum_hessian":[3.484812E1,1.1168636E1,2.3679485E1,5.1197305E0,1.8559755E1],"tree_param":{"num_deleted":"0","num_feature":"14","num_nodes":"5","size_leaf_vector":"0"}},{"base_weights":[4.6818923E-2,9.989649E-1,-4.3361193E-1,-8.264096E-1,8.652E-1,-0E0,-9.717842E-1],"categories":[],"categories_nodes":[],"categories_segments":[],"categories_sizes":[],"default_left":[1,0,1,1,0,0,0],"id":68,"left_children":[1,-1,3,5,-1,-1,-1],"loss_changes":[1.7628262E1,0E0,1.4159367E1,2.327262E0,0E0,0E0,0E0],"parents":[2147483647,0,0,2,2,3,3],"right_children":[2,-1,4,6,-1,-1,-1],"split_conditions":[1.0174999E0,2.9968947E-2,5E-1,1.285E1,2.5956E-2,-0E0,-2.9153524E-2],"split_indices":[2,0,10,7,0,0,0],"split_type":[0,0,0,0,0,0,0],"sum_hessian":[3.4024944E1,1.1035754E1,2.2989191E1,1.8505121E1,4.48407E0,3.211702E0,1.5293419E1],"tree_param":{"num_deleted":"0","num_feature":"14","num_nodes":"7","size_leaf_vector":"0"}},{"base_weights":[2.060209E-2,9.975974E-1,-4.9001145E-1,-8.335585E-1,7.957956E-1,-2.628984E-2,-9.661525E-1],"categories":[],"categories_nodes":[],"categories_segments":[],"categories_sizes":[],"default_left":[1,0,1,1,0,0,0],"id":69,"left_children":[1,-1,3,5,-1,-1,-1],"loss_changes":[1.8865759E1,0E0,1.2044635E1,1.6362906E0,0E0,0E0,0E0],"parents":[2147483647,0,0,2,2,3,3],"right_children":[2,-1,4,6,-1,-1,-1],"split_conditions":[1.0174999E0,2.992792E-2,5E-1,1.285E1,2.3873867E-2,-7.886952E-4,-2.8984575E-2],"split_indices":[2,0,10,7,0,0,0],"split_type":[0,0,0,0,0,0,0],"sum_hessian":[3.334869E1,1.1128144E1,2.2220547E1,1.8397371E1,3.823175E0,3.465558E0,1.4931813E1],"tree_param":{"num_deleted":"0","num_feature":"14","num_nodes":"7","size_leaf_vector":"0"}},{"base_weights":[2.27186E-2,9.9411225E-1,-4.775206E-1,-7.9744494E-1,7.835451E-1,-0E0,-9.6415085E-1],"categories":[],"categories_nodes":[],"categories_segments":[],"categories_sizes":[],"default_left":[1,0,1,1,0,0,0],"id":70,"left_children":[1,-1,3,5,-1,-1,-1],"loss_changes":[1.8565523E1,0E0,1.1177287E1,2.5704212E0,0E0,0E0,0E0],"parents":[2147483647,0,0,2,2,3,3],"right_children":[2,-1,4,6,-1,-1,-1],"split_conditions":[1.0174999E0,2.9823367E-2,5E-1,1.285E1,2.3506353E-2,-0E0,-2.8924525E-2],"split_indices":[2,0,10,7,0,0,0],"split_type":[0,0,0,0,0,0,0],"sum_hessian":[3.372086E1,1.1131003E1,2.2589855E1,1.8921392E1,3.6684628E0,3.844214E0,1.5077179E1],"tree_param":{"num_deleted":"0","num_feature":"14","num_nodes":"7","size_leaf_vector":"0"}},{"base_weights":[5.3038314E-2,9.797791E-1,-4.122699E-1,-7.7111036E-1,8.342288E-1,-0E0,-9.5242417E-1],"categories":[],"categories_nodes":[],"categories_segments":[],"categories_sizes":[],"default_left":[1,0,1,1,0,0,0],"id":71,"left_children":[1,-1,3,5,-1,-1,-1],"loss_changes":[1.6043886E1,0E0,1.2049347E1,2.7032928E0,0E0,0E0,0E0],"parents":[2147483647,0,0,2,2,3,3],"right_children":[2,-1,4,6,-1,-1,-1],"split_conditions":[1.0174999E0,2.9393373E-2,5E-1,1.285E1,2.5026863E-2,-0E0,-2.8572725E-2],"split_indices":[2,0,10,7,0,0,0],"split_type":[0,0,0,0,0,0,0],"sum_hessian":[3.2674324E1,1.0541791E1,2.2132532E1,1.8088982E1,4.0435514E0,3.9405577E0,1.4148423E1],"tree_param":{"num_deleted":"0","num_feature":"14","num_nodes":"7","size_leaf_vector":"0"}},{"base_weights":[2.2899667E-2,9.738476E-1,-4.5653412E-1,-8.1973636E-1,8.267072E-1,-3.796854E-2,-9.5197606E-1],"categories":[],"categories_nodes":[],"categories_segments":[],"categories_sizes":[],"default_left":[1,0,1,1,0,0,0],"id":72,"left_children":[1,-1,3,5,-1,-1,-1],"loss_changes":[1.688453E1,0E0,1.2518808E1,1.4984875E0,0E0,0E0,0E0],"parents":[2147483647,0,0,2,2,3,3],"right_children":[2,-1,4,6,-1,-1,-1],"split_conditions":[1.0174999E0,2.9215429E-2,5E-1,1.285E1,2.4801215E-2,-1.1390562E-3,-2.855928E-2],"split_indices":[2,0,10,7,0,0,0],"split_type":[0,0,0,0,0,0,0],"sum_hessian":[3.2516582E1,1.0557126E1,2.1959455E1,1.7981966E1,3.9774907E0,3.5211372E0,1.4460828E1],"tree_param":{"num_deleted":"0","num_feature":"14","num_nodes":"7","size_leaf_vector":"0"}},{"base_weights":[7.300783E-2,9.7168154E-1,-4.018692E-1,-7.5372595E-1,8.1640923E-1,-2.9382378E-2,-9.118628E-1],"categories":[],"categories_nodes":[],"categories_segments":[],"categories_sizes":[],"default_left":[1,0,1,1,0,0,0],"id":73,"left_children":[1,-1,3,5,-1,-1,-1],"loss_changes":[1.553402E1,0E0,1.1158022E1,1.6961765E0,0E0,0E0,0E0],"parents":[2147483647,0,0,2,2,3,3],"right_children":[2,-1,4,6,-1,-1,-1],"split_conditions":[1.0174999E0,2.9150445E-2,5E-1,4.0056435E1,2.4492277E-2,-8.814713E-4,-2.7355883E-2],"split_indices":[2,0,10,8,0,0,0],"split_type":[0,0,0,0,0,0,0],"sum_hessian":[3.190232E1,1.0670207E1,2.1232113E1,1.738432E1,3.8477943E0,4.1067643E0,1.32775545E1],"tree_param":{"num_deleted":"0","num_feature":"14","num_nodes":"7","size_leaf_vector":"0"}},{"base_weights":[2.1462202E-2,9.621393E-1,-4.7140506E-1,5.8536077E-1,-8.560544E-1],"categories":[],"categories_nodes":[],"categories_segments":[],"categories_sizes":[],"default_left":[1,0,1,0,0],"id":74,"left_children":[1,-1,3,-1,-1],"loss_changes":[1.618731E1,0E0,1.0191105E1,0E0,0E0],"parents":[2147483647,0,0,2,2],"right_children":[2,-1,4,-1,-1],"split_conditions":[1.0174999E0,2.8864179E-2,6.3593384E1,1.7560823E-2,-2.5681632E-2],"split_indices":[2,0,13,0,0],"split_type":[0,0,0,0,0],"sum_hessian":[3.0428576E1,1.0155741E1,2.0272835E1,4.7845407E0,1.5488295E1],"tree_param":{"num_deleted":"0","num_feature":"14","num_nodes":"5","size_leaf_vector":"0"}},{"base_weights":[2.4249123E-2,-4.209071E-1,1.0003492E0,-7.064548E-1,6.7118436E-1,-0E0,-8.7163174E-1],"categories":[],"categories_nodes":[],"categories_segments":[],"categories_sizes":[],"default_left":[1,1,0,1,0,0,0],"id":75,"left_children":[1,3,-1,5,-1,-1,-1],"loss_changes":[1.4977662E1,8.119749E0,0E0,2.6622124E0,0E0,0E0,0E0],"parents":[2147483647,0,0,1,1,3,3],"right_children":[2,4,-1,6,-1,-1,-1],"split_conditions":[5E-1,5E-1,3.0010475E-2,6.647749E1,2.0135531E-2,-0E0,-2.6148953E-2],"split_indices":[3,11,0,13,0,0,0],"split_type":[0,0,0,0,0,0,0],"sum_hessian":[2.9864882E1,2.0940275E1,8.924606E0,1.7522709E1,3.4175668E0,3.1940382E0,1.432867E1],"tree_param":{"num_deleted":"0","num_feature":"14","num_nodes":"7","size_leaf_vector":"0"}},{"base_weights":[4.3494046E-2,9.464298E-1,-4.1848746E-1,-7.630634E-1,7.899162E-1,-7.697646E-2,-8.945855E-1],"categories":[],"categories_nodes":[],"categories_segments":[],"categories_sizes":[],"default_left":[1,0,1,1,0,0,0],"id":76,"left_children":[1,-1,3,5,-1,-1,-1],"loss_changes":[1.4240158E1,0E0,1.0322922E1,1.0370502E0,0E0,0E0,0E0],"parents":[2147483647,0,0,2,2,3,3],"right_children":[2,-1,4,6,-1,-1,-1],"split_conditions":[1.0174999E0,2.8392892E-2,5E-1,4.0205345E1,2.3697486E-2,-2.309294E-3,-2.6837565E-2],"split_indices":[2,0,10,8,0,0,0],"split_type":[0,0,0,0,0,0,0],"sum_hessian":[2.9605844E1,9.677111E0,1.9928734E1,1.6402428E1,3.5263062E0,3.760084E0,1.2642343E1],"tree_param":{"num_deleted":"0","num_feature":"14","num_nodes":"7","size_leaf_vector":"0"}},{"base_weights":[5.607341E-2,9.4651085E-1,-4.0446603E-1,-7.808821E-1,8.0779356E-1,-2.0881807E-2,-9.2287683E-1],"categories":[],"categories_nodes":[],"categories_segments":[],"categories_sizes":[],"default_left":[1,0,1,1,0,0,0],"id":77,"left_children":[1,-1,3,5,-1,-1,-1],"loss_changes":[1.4313246E1,0E0,1.1455854E1,1.47538E0,0E0,0E0,0E0],"parents":[2147483647,0,0,2,2,3,3],"right_children":[2,-1,4,6,-1,-1,-1],"split_conditions":[1.0174999E0,2.8395325E-2,5E-1,1.285E1,2.4233807E-2,-6.264542E-4,-2.7686305E-2],"split_indices":[2,0,10,7,0,0,0],"split_type":[0,0,0,0,0,0,0],"sum_hessian":[3.0375414E1,1.0005451E1,2.0369963E1,1.6401358E1,3.968605E0,3.4974244E0,1.2903934E1],"tree_param":{"num_deleted":"0","num_feature":"14","num_nodes":"7","size_leaf_vector":"0"}},{"base_weights":[2.6680496E-2,9.322908E-1,-4.467409E-1,6.7686194E-1,-8.061228E-1,-9.908906E-1,-1.6894157E-1],"categories":[],"categories_nodes":[],"categories_segments":[],"categories_sizes":[],"default_left":[1,0,1,0,1,0,0],"id":78,"left_children":[1,-1,3,-1,5,-1,-1],"loss_changes":[1.4019443E1,0E0,9.561268E0,0E0,1.0891924E0,0E0,0E0],"parents":[2147483647,0,0,2,2,4,4],"right_children":[2,-1,4,-1,6,-1,-1],"split_conditions":[1.0174999E0,2.7968723E-2,1.2625E1,2.0305857E-2,1.1993444E0,-2.9726718E-2,-5.068247E-3],"split_indices":[2,0,7,0,6,0,0],"split_type":[0,0,0,0,0,0,0],"sum_hessian":[2.8190382E1,9.374832E0,1.881555E1,3.79438E0,1.502117E1,1.0175555E1,4.845614E0],"tree_param":{"num_deleted":"0","num_feature":"14","num_nodes":"7","size_leaf_vector":"0"}},{"base_weights":[1.7440356E-2,-4.1275117E-1,9.627761E-1,6.5720516E-1,-6.962498E-1,-9.470048E-1,2.0360442E-1],"categories":[],"categories_nodes":[],"categories_segments":[],"categories_sizes":[],"default_left":[1,1,0,0,1,0,0],"id":79,"left_children":[1,3,-1,-1,5,-1,-1],"loss_changes":[1.3364049E1,7.5511875E0,0E0,0E0,4.9507723E0,0E0,0E0],"parents":[2147483647,0,0,1,1,4,4],"right_children":[2,4,-1,-1,6,-1,-1],"split_conditions":[5E-1,1.0174999E0,2.8883284E-2,1.9716155E-2,1.2968221E0,-2.8410142E-2,6.108132E-3],"split_indices":[3,2,0,0,6,0,0],"split_type":[0,0,0,0,0,0,0],"sum_hessian":[2.823114E1,1.981282E1,8.418319E0,3.2283998E0,1.6584421E1,1.3322733E1,3.261688E0],"tree_param":{"num_deleted":"0","num_feature":"14","num_nodes":"7","size_leaf_vector":"0"}},{"base_weights":[7.09681E-2,-3.358306E-1,9.669116E-1,6.454868E-1,-6.464125E-1,-8.0293804E-1,-0E0],"categories":[],"categories_nodes":[],"categories_segments":[],"categories_sizes":[],"default_left":[1,1,0,0,1,0,0],"id":80,"left_children":[1,3,-1,-1,5,-1,-1],"loss_changes":[1.1703789E1,7.346362E0,0E0,0E0,2.042828E0,0E0,0E0],"parents":[2147483647,0,0,1,1,4,4],"right_children":[2,4,-1,-1,6,-1,-1],"split_conditions":[5E-1,1.2625E1,2.9007347E-2,1.9364603E-2,1.3140741E2,-2.408814E-2,-0E0],"split_indices":[3,7,0,0,4,0,0],"split_type":[0,0,0,0,0,0,0],"sum_hessian":[2.7464294E1,1.9364294E1,8.100001E0,3.7498198E0,1.5614474E1,1.2584897E1,3.0295773E0],"tree_param":{"num_deleted":"0","num_feature":"14","num_nodes":"7","size_leaf_vector":"0"}},{"base_weights":[1.1991996E-2,7.064768E-1,-5.616507E-1,8.332942E-1,8.7958336E-2,-0E0,-7.253467E-1],"categories":[],"categories_nodes":[],"categories_segments":[],"categories_sizes":[],"default_left":[1,1,1,0,0,0,0],"id":81,"left_children":[1,3,5,-1,-1,-1,-1],"loss_changes":[1.225871E1,5.078802E-1,1.809474E0,0E0,0E0,0E0,0E0],"parents":[2147483647,0,0,1,1,2,2],"right_children":[2,4,6,-1,-1,-1,-1],"split_conditions":[1.285E1,8.514357E1,6.719295E1,2.4998825E-2,2.63875E-3,-0E0,-2.17604E-2],"split_indices":[7,13,13,0,0,0,0],"split_type":[0,0,0,0,0,0,0],"sum_hessian":[2.6597157E1,1.2216119E1,1.4381038E1,8.890412E0,3.3257065E0,3.1201963E0,1.1260841E1],"tree_param":{"num_deleted":"0","num_feature":"14","num_nodes":"7","size_leaf_vector":"0"}},{"base_weights":[1.5684802E-2,9.0755326E-1,-4.1380277E-1,5.5514944E-1,-7.8778666E-1,-1.7718567E-1,-8.74514E-1],"categories":[],"categories_nodes":[],"categories_segments":[],"categories_sizes":[],"default_left":[1,0,1,0,1,1,1],"id":82,"left_children":[1,-1,3,-1,-1,-1,-1],"loss_changes":[1.2083006E1,0E0,8.429838E0,0E0,1.2097359E-2,0E0,0E0],"parents":[2147483647,0,0,2,2,4,4],"right_children":[2,-1,4,-1,-1,-1,-1],"split_conditions":[1.0174999E0,2.7226597E-2,6.3593384E1,1.6654482E-2,-2.36336E-2,-5.31557E-3,-2.6235418E-2],"split_indices":[2,0,13,0,7,2147483647,2147483647],"split_type":[0,0,0,0,0,0,0],"sum_hessian":[2.693914E1,8.410976E0,1.8528162E1,4.5176406E0,1.4010522E1,3.216449E0,1.0794073E1],"tree_param":{"num_deleted":"2","num_feature":"14","num_nodes":"7","size_leaf_vector":"0"}},{"base_weights":[4.7610514E-2,8.811203E-1,-3.5635623E-1,-6.870354E-1,7.3007554E-1,-0E0,-8.94912E-1],"categories":[],"categories_nodes":[],"categories_segments":[],"categories_sizes":[],"default_left":[1,0,1,1,0,0,0],"id":83,"left_children":[1,-1,3,5,-1,-1,-1],"loss_changes":[1.0350367E1,0E0,8.146677E0,2.737595E0,0E0,0E0,0E0],"parents":[2147483647,0,0,2,2,3,3],"right_children":[2,-1,4,6,-1,-1,-1],"split_conditions":[1.0174999E0,2.643361E-2,5E-1,1.285E1,2.1902265E-2,-0E0,-2.6847359E-2],"split_indices":[2,0,10,7,0,0,0],"split_type":[0,0,0,0,0,0,0],"sum_hessian":[2.609537E1,8.151552E0,1.7943817E1,1.46731825E1,3.2706351E0,3.4280071E0,1.1245175E1],"tree_param":{"num_deleted":"0","num_feature":"14","num_nodes":"7","size_leaf_vector":"0"}},{"base_weights":[6.8713374E-2,-3.4254625E-1,9.5807076E-1,-6.086467E-1,6.1995375E-1,-0E0,-8.316143E-1],"categories":[],"categories_nodes":[],"categories_segments":[],"categories_sizes":[],"default_left":[1,1,0,1,0,0,0],"id":84,"left_children":[1,3,-1,5,-1,-1,-1],"loss_changes":[1.145154E1,6.049565E0,0E0,2.798358E0,0E0,0E0,0E0],"parents":[2147483647,0,0,1,1,3,3],"right_children":[2,4,-1,6,-1,-1,-1],"split_conditions":[5E-1,5E-1,2.8742122E-2,4.0056435E1,1.8598612E-2,-0E0,-2.494843E-2],"split_indices":[3,11,0,8,0,0,0],"split_type":[0,0,0,0,0,0,0],"sum_hessian":[2.6673182E1,1.8695446E1,7.977737E0,1.5629225E1,3.0662208E0,4.1396985E0,1.1489526E1],"tree_param":{"num_deleted":"0","num_feature":"14","num_nodes":"7","size_leaf_vector":"0"}},{"base_weights":[6.545662E-2,-3.3824643E-1,9.4907457E-1,6.153682E-1,-6.359273E-1,-0E0,-7.6530117E-1],"categories":[],"categories_nodes":[],"categories_segments":[],"categories_sizes":[],"default_left":[1,1,0,0,1,0,0],"id":85,"left_children":[1,3,-1,-1,5,-1,-1],"loss_changes":[1.0913709E1,6.545109E0,0E0,0E0,1.2712355E0,0E0,0E0],"parents":[2147483647,0,0,1,1,4,4],"right_children":[2,4,-1,-1,6,-1,-1],"split_conditions":[5E-1,1.2625E1,2.8472235E-2,1.8461045E-2,6.719295E1,-0E0,-2.2959035E-2],"split_indices":[3,7,0,0,13,0,0],"split_type":[0,0,0,0,0,0,0],"sum_hessian":[2.593864E1,1.8263193E1,7.675448E0,3.4374206E0,1.4825772E1,3.03743E0,1.17883415E1],"tree_param":{"num_deleted":"0","num_feature":"14","num_nodes":"7","size_leaf_vector":"0"}},{"base_weights":[1.0258587E-1,8.949445E-1,-3.1361404E-1,-6.362825E-1,7.084511E-1,8.555623E-2,-8.789877E-1],"categories":[],"categories_nodes":[],"categories_segments":[],"categories_sizes":[],"default_left":[1,0,1,1,0,0,0],"id":86,"left_children":[1,-1,3,5,-1,-1,-1],"loss_changes":[9.877505E0,0E0,7.13493E0,3.3282366E0,0E0,0E0,0E0],"parents":[2147483647,0,0,2,2,3,3],"right_children":[2,-1,4,6,-1,-1,-1],"split_conditions":[1.0174999E0,2.6848335E-2,5E-1,1.285E1,2.1253532E-2,2.5666868E-3,-2.6369631E-2],"split_indices":[2,0,10,7,0,0,0],"split_type":[0,0,0,0,0,0,0],"sum_hessian":[2.5368298E1,8.35772E0,1.7010576E1,1.3874483E1,3.1360943E0,3.2986646E0,1.0575818E1],"tree_param":{"num_deleted":"0","num_feature":"14","num_nodes":"7","size_leaf_vector":"0"}},{"base_weights":[9.997289E-2,-2.832821E-1,9.2865556E-1,4.0065682E-1,-6.799367E-1],"categories":[],"categories_nodes":[],"categories_segments":[],"categories_sizes":[],"default_left":[1,1,0,0,0],"id":87,"left_children":[1,3,-1,-1,-1],"loss_changes":[9.33412E0,5.944278E0,0E0,0E0,0E0],"parents":[2147483647,0,0,1,1],"right_children":[2,4,-1,-1,-1],"split_conditions":[5E-1,1.285E1,2.7859665E-2,1.2019704E-2,-2.03981E-2],"split_indices":[3,7,0,0,0],"split_type":[0,0,0,0,0],"sum_hessian":[2.4717178E1,1.738827E1,7.3289094E0,5.9126143E0,1.1475656E1],"tree_param":{"num_deleted":"0","num_feature":"14","num_nodes":"5","size_leaf_vector":"0"}},{"base_weights":[9.400264E-2,6.1890894E-1,-5.2969944E-1,7.955548E-1,-0E0,-1.8768337E-2,-6.3857806E-1],"categories":[],"categories_nodes":[],"categories_segments":[],"categories_sizes":[],"default_left":[1,1,1,0,0,0,0],"id":88,"left_children":[1,3,5,-1,-1,-1,-1],"loss_changes":[9.039016E0,1.4154234E0,3.3061457E-1,0E0,0E0,0E0,0E0],"parents":[2147483647,0,0,1,1,2,2],"right_children":[2,4,6,-1,-1,-1,-1],"split_conditions":[1.3703886E1,8.0607376E1,7.014661E1,2.3866644E-2,-0E0,-5.630501E-4,-1.915734E-2],"split_indices":[7,13,13,0,0,0,0],"split_type":[0,0,0,0,0,0,0],"sum_hessian":[2.3470732E1,1.318842E1,1.02823105E1,9.428719E0,3.759702E0,3.0248277E0,7.257483E0],"tree_param":{"num_deleted":"0","num_feature":"14","num_nodes":"7","size_leaf_vector":"0"}},{"base_weights":[9.37275E-2,-2.7095047E-1,9.152409E-1,4.0804353E-1,-6.680931E-1],"categories":[],"categories_nodes":[],"categories_segments":[],"categories_sizes":[],"default_left":[1,1,0,0,0],"id":89,"left_children":[1,3,-1,-1,-1],"loss_changes":[8.5888405E0,5.8217688E0,0E0,0E0,0E0],"parents":[2147483647,0,0,1,1],"right_children":[2,4,-1,-1,-1],"split_conditions":[5E-1,1.285E1,2.7457226E-2,1.2241306E-2,-2.0042792E-2],"split_indices":[3,7,0,0,0],"split_type":[0,0,0,0,0],"sum_hessian":[2.3938055E1,1.7085403E1,6.852651E0,5.8203955E0,1.1265008E1],"tree_param":{"num_deleted":"0","num_feature":"14","num_nodes":"5","size_leaf_vector":"0"}},{"base_weights":[1.6935809E-2,-3.6238298E-1,8.97775E-1,-6.6734505E-1,3.8524055E-1,-8.990048E-2,-8.3972824E-1],"categories":[],"categories_nodes":[],"categories_segments":[],"categories_sizes":[],"default_left":[1,1,0,1,0,0,0],"id":90,"left_children":[1,3,-1,5,-1,-1,-1],"loss_changes":[9.575939E0,5.019109E0,0E0,8.5758924E-1,0E0,0E0,0E0],"parents":[2147483647,0,0,1,1,3,3],"right_children":[2,4,-1,6,-1,-1,-1],"split_conditions":[5E-1,1.2968221E0,2.693325E-2,2.4061295E1,1.1557217E-2,-2.6970142E-3,-2.5191847E-2],"split_indices":[3,6,0,5,0,0,0],"split_type":[0,0,0,0,0,0,0],"sum_hessian":[2.3911636E1,1.7140089E1,6.7715483E0,1.2801704E1,4.3383837E0,4.309478E0,8.492228E0],"tree_param":{"num_deleted":"0","num_feature":"14","num_nodes":"7","size_leaf_vector":"0"}},{"base_weights":[8.6948074E-2,8.760443E-1,-3.3814472E-1,-6.953185E-1,7.1265674E-1,-7.024277E-2,-8.066183E-1],"categories":[],"categories_nodes":[],"categories_segments":[],"categories_sizes":[],"default_left":[1,0,1,1,0,0,0],"id":91,"left_children":[1,-1,3,5,-1,-1,-1],"loss_changes":[9.333975E0,0E0,7.5303245E0,4.4923782E-1,0E0,0E0,0E0],"parents":[2147483647,0,0,2,2,3,3],"right_children":[2,-1,4,6,-1,-1,-1],"split_conditions":[1.0174999E0,2.6281327E-2,5E-1,4.0886124E1,2.1379702E-2,-2.107283E-3,-2.4198547E-2],"split_indices":[2,0,10,8,0,0,0],"split_type":[0,0,0,0,0,0,0],"sum_hessian":[2.325813E1,7.811766E0,1.5446363E1,1.2388021E1,3.0583422E0,3.0444643E0,9.343556E0],"tree_param":{"num_deleted":"0","num_feature":"14","num_nodes":"7","size_leaf_vector":"0"}},{"base_weights":[5.9455004E-2,-2.950707E-1,9.0100914E-1,5.84006E-1,-5.7606626E-1,-0E0,-7.1090746E-1,-8.189326E-1,-1.1526097E-1],"categories":[],"categories_nodes":[],"categories_segments":[],"categories_sizes":[],"default_left":[1,1,0,0,1,0,1,1,1],"id":92,"left_children":[1,3,-1,-1,5,-1,-1,-1,-1],"loss_changes":[8.422026E0,5.357628E0,0E0,0E0,1.2139425E0,0E0,1.6714859E-1,0E0,0E0],"parents":[2147483647,0,0,1,1,4,4,6,6],"right_children":[2,4,-1,-1,6,-1,-1,-1,-1],"split_conditions":[5E-1,1.2625E1,2.7030274E-2,1.752018E-2,6.771083E1,-0E0,-2.1327224E-2,-2.4567977E-2,-3.4578291E-3],"split_indices":[3,7,0,0,13,0,4,2147483647,2147483647],"split_type":[0,0,0,0,0,0,0,0,0],"sum_hessian":[2.3430763E1,1.6981495E1,6.44927E0,3.1598923E0,1.3821602E1,3.0307155E0,1.0790886E1,7.7891173E0,3.0017686E0],"tree_param":{"num_deleted":"2","num_feature":"14","num_nodes":"9","size_leaf_vector":"0"}},{"base_weights":[5.4027732E-2,-3.2801157E-1,9.021898E-1,-6.1538815E-1,3.7855142E-1,-7.684444E-1,-4.1269947E-2],"categories":[],"categories_nodes":[],"categories_segments":[],"categories_sizes":[],"default_left":[1,1,0,1,0,0,0],"id":93,"left_children":[1,3,-1,5,-1,-1,-1],"loss_changes":[8.982504E0,4.3006363E0,0E0,7.8613377E-1,0E0,0E0,0E0],"parents":[2147483647,0,0,1,1,3,3],"right_children":[2,4,-1,6,-1,-1,-1],"split_conditions":[5E-1,1.294467E0,2.7065692E-2,1.295E2,1.1356543E-2,-2.3053331E-2,-1.2380984E-3],"split_indices":[3,6,0,4,0,0,0],"split_type":[0,0,0,0,0,0,0],"sum_hessian":[2.300857E1,1.630245E1,6.706119E0,1.2275452E1,4.026998E0,8.469643E0,3.805809E0],"tree_param":{"num_deleted":"0","num_feature":"14","num_nodes":"7","size_leaf_vector":"0"}},{"base_weights":[4.0915515E-2,-3.2566884E-1,8.903038E-1,4.743562E-1,-5.931867E-1,-9.708856E-2,-7.309093E-1],"categories":[],"categories_nodes":[],"categories_segments":[],"categories_sizes":[],"default_left":[1,1,0,0,1,0,0],"id":94,"left_children":[1,3,-1,-1,5,-1,-1],"loss_changes":[8.564169E0,4.5455174E0,0E0,0E0,4.7541666E-1,0E0,0E0],"parents":[2147483647,0,0,1,1,4,4],"right_children":[2,4,-1,-1,6,-1,-1],"split_conditions":[5E-1,6.3180466E1,2.6709113E-2,1.4230686E-2,2.4061295E1,-2.9126566E-3,-2.1927278E-2],"split_indices":[3,13,0,0,5,0,0],"split_type":[0,0,0,0,0,0,0],"sum_hessian":[2.273553E1,1.6331562E1,6.4039693E0,3.2366922E0,1.309487E1,4.375183E0,8.7196865E0],"tree_param":{"num_deleted":"0","num_feature":"14","num_nodes":"7","size_leaf_vector":"0"}},{"base_weights":[4.0580537E-2,8.5493946E-1,-3.631085E-1,4.841499E-1,-7.1749747E-1],"categories":[],"categories_nodes":[],"categories_segments":[],"categories_sizes":[],"default_left":[1,0,1,0,0],"id":95,"left_children":[1,-1,3,-1,-1],"loss_changes":[8.938043E0,0E0,6.038299E0,0E0,0E0],"parents":[2147483647,0,0,2,2],"right_children":[2,-1,4,-1,-1],"split_conditions":[1.0174999E0,2.5648184E-2,6.3593384E1,1.4524497E-2,-2.1524923E-2],"split_indices":[2,0,13,0,0],"split_type":[0,0,0,0,0],"sum_hessian":[2.255152E1,7.143643E0,1.5407876E1,3.9120133E0,1.1495863E1],"tree_param":{"num_deleted":"0","num_feature":"14","num_nodes":"5","size_leaf_vector":"0"}},{"base_weights":[4.4713993E-2,8.3233964E-1,-3.2368374E-1,-6.3680327E-1,5.7067585E-1],"categories":[],"categories_nodes":[],"categories_segments":[],"categories_sizes":[],"default_left":[1,0,1,0,0],"id":96,"left_children":[1,-1,3,-1,-1],"loss_changes":[7.7083416E0,0E0,5.589202E0,0E0,0E0],"parents":[2147483647,0,0,2,2],"right_children":[2,-1,4,-1,-1],"split_conditions":[1.0174999E0,2.4970189E-2,1.3499999E0,-1.9104097E-2,1.7120276E-2],"split_indices":[2,0,6,0,0],"split_type":[0,0,0,0,0],"sum_hessian":[2.1832354E1,6.5873284E0,1.5245025E1,1.2132422E1,3.1126022E0],"tree_param":{"num_deleted":"0","num_feature":"14","num_nodes":"5","size_leaf_vector":"0"}},{"base_weights":[5.6628954E-2,-2.77126E-1,8.036792E-1,-5.5222666E-1,3.8556316E-1,-7.1291274E-1,-0E0],"categories":[],"categories_nodes":[],"categories_segments":[],"categories_sizes":[],"default_left":[1,1,0,1,0,0,0],"id":97,"left_children":[1,3,-1,5,-1,-1,-1],"loss_changes":[6.346177E0,3.5450673E0,0E0,9.001274E-1,0E0,0E0,0E0],"parents":[2147483647,0,0,1,1,3,3],"right_children":[2,4,-1,6,-1,-1,-1],"split_conditions":[5E-1,1.2968221E0,2.4110377E-2,1.295E2,1.1566895E-2,-2.1387381E-2,-0E0],"split_indices":[3,6,0,4,0,0,0],"split_type":[0,0,0,0,0,0,0],"sum_hessian":[2.0610277E1,1.4652743E1,5.957534E0,1.112311E1,3.5296338E0,7.6451125E0,3.4779973E0],"tree_param":{"num_deleted":"0","num_feature":"14","num_nodes":"7","size_leaf_vector":"0"}},{"base_weights":[3.489328E-2,8.318025E-1,-3.3689252E-1,4.7118774E-1,-6.781151E-1],"categories":[],"categories_nodes":[],"categories_segments":[],"categories_sizes":[],"default_left":[1,0,1,0,0],"id":98,"left_children":[1,-1,3,-1,-1],"loss_changes":[7.8107114E0,0E0,5.460996E0,0E0,0E0],"parents":[2147483647,0,0,2,2],"right_children":[2,-1,4,-1,-1],"split_conditions":[1.0174999E0,2.4954075E-2,6.3593384E1,1.4135632E-2,-2.0343453E-2],"split_indices":[2,0,13,0,0],"split_type":[0,0,0,0,0],"sum_hessian":[2.163579E1,6.5233836E0,1.5112406E1,3.825592E0,1.1286814E1],"tree_param":{"num_deleted":"0","num_feature":"14","num_nodes":"5","size_leaf_vector":"0"}},{"base_weights":[5.9215255E-2,-2.8675538E-1,8.5862094E-1,2.8002632E-1,-6.575259E-1],"categories":[],"categories_nodes":[],"categories_segments":[],"categories_sizes":[],"default_left":[1,1,0,0,0],"id":99,"left_children":[1,3,-1,-1,-1],"loss_changes":[7.0429673E0,4.102543E0,0E0,0E0,0E0],"parents":[2147483647,0,0,1,1],"right_children":[2,4,-1,-1,-1],"split_conditions":[5E-1,1.285E1,2.5758628E-2,8.400789E-3,-1.9725777E-2],"split_indices":[3,7,0,0,0],"split_type":[0,0,0,0,0],"sum_hessian":[2.0650995E1,1.4871815E1,5.7791815E0,5.541578E0,9.330236E0],"tree_param":{"num_deleted":"0","num_feature":"14","num_nodes":"5","size_leaf_vector":"0"}},{"base_weights":[7.6771467E-3,-3.2770118E-1,8.335591E-1,-6.2132305E-1,3.4924987E-1,-8.389617E-2,-7.695288E-1],"categories":[],"categories_nodes":[],"categories_segments":[],"categories_sizes":[],"default_left":[1,1,0,1,0,0,0],"id":100,"left_children":[1,3,-1,5,-1,-1,-1],"loss_changes":[6.8797297E0,3.8730683E0,0E0,4.656906E-1,0E0,0E0,0E0],"parents":[2147483647,0,0,1,1,3,3],"right_children":[2,4,-1,6,-1,-1,-1],"split_conditions":[5E-1,1.2968221E0,2.5006773E-2,2.4061295E1,1.0477496E-2,-2.516885E-3,-2.3085864E-2],"split_indices":[3,6,0,5,0,0,0],"split_type":[0,0,0,0,0,0,0],"sum_hessian":[1.9952559E1,1.4617584E1,5.334975E0,1.0825199E1,3.7923853E0,3.746263E0,7.0789356E0],"tree_param":{"num_deleted":"0","num_feature":"14","num_nodes":"7","size_leaf_vector":"0"}},{"base_weights":[9.848172E-2,8.294566E-1,-2.798754E-1,-6.15066E-1,4.7644228E-1],"categories":[],"categories_nodes":[],"categories_segments":[],"categories_sizes":[],"default_left":[1,0,1,0,0],"id":101,"left_children":[1,-1,3,-1,-1],"loss_changes":[6.9736977E0,0E0,4.685912E0,0E0,0E0],"parents":[2147483647,0,0,2,2],"right_children":[2,-1,4,-1,-1],"split_conditions":[1.0174999E0,2.4883699E-2,1.294467E0,-1.845198E-2,1.4293268E-2],"split_indices":[2,0,6,0,0],"split_type":[0,0,0,0,0],"sum_hessian":[2.0542677E1,6.643881E0,1.3898797E1,1.0347525E1,3.551272E0],"tree_param":{"num_deleted":"0","num_feature":"14","num_nodes":"5","size_leaf_vector":"0"}},{"base_weights":[7.413029E-2,8.1550866E-1,-2.9732037E-1,2.5986126E-1,-6.7598456E-1],"categories":[],"categories_nodes":[],"categories_segments":[],"categories_sizes":[],"default_left":[1,0,1,0,0],"id":102,"left_children":[1,-1,3,-1,-1],"loss_changes":[6.7684984E0,0E0,3.8487854E0,0E0,0E0],"parents":[2147483647,0,0,2,2],"right_children":[2,-1,4,-1,-1],"split_conditions":[1.0174999E0,2.446526E-2,1.285E1,7.7958377E-3,-2.0279536E-2],"split_indices":[2,0,7,0,0],"split_type":[0,0,0,0,0],"sum_hessian":[1.9876495E1,6.285801E0,1.3590695E1,5.218718E0,8.371977E0],"tree_param":{"num_deleted":"0","num_feature":"14","num_nodes":"5","size_leaf_vector":"0"}},{"base_weights":[7.791043E-2,-2.5634634E-1,8.455136E-1,3.3106098E-1,-6.3174623E-1],"categories":[],"categories_nodes":[],"categories_segments":[],"categories_sizes":[],"default_left":[1,1,0,0,0],"id":103,"left_children":[1,3,-1,-1,-1],"loss_changes":[6.20334E0,4.0851693E0,0E0,0E0,0E0],"parents":[2147483647,0,0,1,1],"right_children":[2,4,-1,-1,-1],"split_conditions":[5E-1,1.285E1,2.5365407E-2,9.931829E-3,-1.8952386E-2],"split_indices":[3,7,0,0,0],"split_type":[0,0,0,0,0],"sum_hessian":[1.9339705E1,1.3947083E1,5.392622E0,5.010776E0,8.936307E0],"tree_param":{"num_deleted":"0","num_feature":"14","num_nodes":"5","size_leaf_vector":"0"}},{"base_weights":[8.103199E-2,8.0502594E-1,-2.7841175E-1,5.131045E-1,-6.1845285E-1,-1.2624724E-1,-7.191161E-1],"categories":[],"categories_nodes":[],"categories_segments":[],"categories_sizes":[],"default_left":[1,0,1,0,1,1,1],"id":104,"left_children":[1,-1,3,-1,-1,-1,-1],"loss_changes":[6.4469495E0,0E0,4.9269624E0,0E0,8.50296E-3,0E0,0E0],"parents":[2147483647,0,0,2,2,4,4],"right_children":[2,-1,4,-1,-1,-1,-1],"split_conditions":[1.0174999E0,2.4150778E-2,6.3593384E1,1.5393134E-2,-1.8553585E-2,-3.7874172E-3,-2.1573482E-2],"split_indices":[2,0,13,0,5,2147483647,2147483647],"split_type":[0,0,0,0,0,0,0],"sum_hessian":[2.0039248E1,6.2872257E0,1.3752021E1,3.3848271E0,1.0367194E1,3.3690698E0,6.998124E0],"tree_param":{"num_deleted":"2","num_feature":"14","num_nodes":"7","size_leaf_vector":"0"}},{"base_weights":[1.1278971E-1,-2.1404354E-1,8.407892E-1,3.644645E-1,-6.1231095E-1],"categories":[],"categories_nodes":[],"categories_segments":[],"categories_sizes":[],"default_left":[1,1,0,0,0],"id":105,"left_children":[1,3,-1,-1,-1],"loss_changes":[5.6575794E0,4.1593537E0,0E0,0E0,0E0],"parents":[2147483647,0,0,1,1],"right_children":[2,4,-1,-1,-1],"split_conditions":[5E-1,1.285E1,2.5223676E-2,1.0933935E-2,-1.8369328E-2],"split_indices":[3,7,0,0,0],"split_type":[0,0,0,0,0],"sum_hessian":[1.8948107E1,1.3577625E1,5.370481E0,5.093424E0,8.484201E0],"tree_param":{"num_deleted":"0","num_feature":"14","num_nodes":"5","size_leaf_vector":"0"}},{"base_weights":[1.2747314E-2,7.758478E-1,-3.2436943E-1,3.6514542E-1,-5.940653E-1],"categories":[],"categories_nodes":[],"categories_segments":[],"categories_sizes":[],"default_left":[1,0,1,0,0],"id":106,"left_children":[1,-1,3,-1,-1],"loss_changes":[6.1545453E0,0E0,3.4462385E0,0E0,0E0],"parents":[2147483647,0,0,2,2],"right_children":[2,-1,4,-1,-1],"split_conditions":[1.0174999E0,2.3275433E-2,6.3593384E1,1.0954362E-2,-1.7821958E-2],"split_indices":[2,0,13,0,0],"split_type":[0,0,0,0,0],"sum_hessian":[1.9089993E1,5.506271E0,1.3583721E1,3.0989797E0,1.0484741E1],"tree_param":{"num_deleted":"0","num_feature":"14","num_nodes":"5","size_leaf_vector":"0"}},{"base_weights":[9.9769786E-2,-2.1835746E-1,8.2894707E-1,-4.904438E-1,3.2388297E-1,-6.753183E-1,-0E0],"categories":[],"categories_nodes":[],"categories_segments":[],"categories_sizes":[],"default_left":[1,1,0,1,0,0,0],"id":107,"left_children":[1,3,-1,5,-1,-1,-1],"loss_changes":[5.4669476E0,2.689453E0,0E0,1.0951512E0,0E0,0E0,0E0],"parents":[2147483647,0,0,1,1,3,3],"right_children":[2,4,-1,6,-1,-1,-1],"split_conditions":[5E-1,1.2968221E0,2.4868412E-2,1.295E2,9.716488E-3,-2.0259548E-2,-0E0],"split_indices":[3,6,0,4,0,0,0],"split_type":[0,0,0,0,0,0,0],"sum_hessian":[1.8690674E1,1.3511308E1,5.179365E0,9.73807E0,3.7732387E0,6.592321E0,3.1457486E0],"tree_param":{"num_deleted":"0","num_feature":"14","num_nodes":"7","size_leaf_vector":"0"}},{"base_weights":[9.251808E-2,7.848592E-1,-2.3790753E-1,4.881236E-1,-5.54072E-1,-4.1488137E-2,-6.6020805E-1],"categories":[],"categories_nodes":[],"categories_segments":[],"categories_sizes":[],"default_left":[1,0,1,0,1,0,0],"id":108,"left_children":[1,-1,3,-1,5,-1,-1],"loss_changes":[5.449551E0,0E0,4.076066E0,0E0,2.4966645E-1,0E0,0E0],"parents":[2147483647,0,0,2,2,4,4],"right_children":[2,-1,4,-1,6,-1,-1],"split_conditions":[1.0174999E0,2.3545776E-2,6.2440693E1,1.4643707E-2,1.3380812E1,-1.244644E-3,-1.9806242E-2],"split_indices":[2,0,13,0,7,0,0],"split_type":[0,0,0,0,0,0,0],"sum_hessian":[1.8993511E1,5.736475E0,1.3257037E1,3.2119558E0,1.0045081E1,3.0084586E0,7.0366225E0],"tree_param":{"num_deleted":"0","num_feature":"14","num_nodes":"7","size_leaf_vector":"0"}},{"base_weights":[6.271343E-2,7.7036303E-1,-2.7145535E-1,-5.7098335E-1,3.66004E-1],"categories":[],"categories_nodes":[],"categories_segments":[],"categories_sizes":[],"default_left":[1,0,1,0,0],"id":109,"left_children":[1,-1,3,-1,-1],"loss_changes":[5.3928623E0,0E0,3.3026805E0,0E0,0E0],"parents":[2147483647,0,0,2,2],"right_children":[2,-1,4,-1,-1],"split_conditions":[1.0174999E0,2.311089E-2,1.2968221E0,-1.71295E-2,1.0980119E-2],"split_indices":[2,0,6,0,0],"split_type":[0,0,0,0,0],"sum_hessian":[1.798174E1,5.410298E0,1.2571443E1,9.228231E0,3.3432117E0],"tree_param":{"num_deleted":"0","num_feature":"14","num_nodes":"5","size_leaf_vector":"0"}},{"base_weights":[-0E0,-3.4487188E-1,8.124894E-1,-6.643116E-1,3.3044648E-1],"categories":[],"categories_nodes":[],"categories_segments":[],"categories_sizes":[],"default_left":[1,1,0,0,0],"id":110,"left_children":[1,3,-1,-1,-1],"loss_changes":[6.4163814E0,3.8558402E0,0E0,0E0,0E0],"parents":[2147483647,0,0,1,1],"right_children":[2,4,-1,-1,-1],"split_conditions":[5E-1,1.2968221E0,2.437468E-2,-1.9929348E-2,9.913394E-3],"split_indices":[3,6,0,0,0],"split_type":[0,0,0,0,0],"sum_hessian":[1.8070477E1,1.3064975E1,5.0055013E0,9.394276E0,3.6706991E0],"tree_param":{"num_deleted":"0","num_feature":"14","num_nodes":"5","size_leaf_vector":"0"}},{"base_weights":[7.982307E-2,7.787483E-1,-2.655244E-1,3.02983E-1,-6.289674E-1],"categories":[],"categories_nodes":[],"categories_segments":[],"categories_sizes":[],"default_left":[1,0,1,0,0],"id":111,"left_children":[1,-1,3,-1,-1],"loss_changes":[5.561501E0,0E0,3.5557592E0,0E0,0E0],"parents":[2147483647,0,0,2,2],"right_children":[2,-1,4,-1,-1],"split_conditions":[1.0174999E0,2.3362448E-2,6.8829544E1,9.0894895E-3,-1.8869022E-2],"split_indices":[2,0,13,0,0],"split_type":[0,0,0,0,0],"sum_hessian":[1.8264717E1,5.6890044E0,1.2575712E1,4.49753E0,8.078182E0],"tree_param":{"num_deleted":"0","num_feature":"14","num_nodes":"5","size_leaf_vector":"0"}},{"base_weights":[4.8849907E-2,-2.6081944E-1,8.010831E-1,3.2815215E-1,-5.075155E-1,-6.3963664E-1,-0E0],"categories":[],"categories_nodes":[],"categories_segments":[],"categories_sizes":[],"default_left":[1,1,0,0,1,0,0],"id":112,"left_children":[1,3,-1,-1,5,-1,-1],"loss_changes":[5.2332163E0,2.5818667E0,0E0,0E0,5.664401E-1,0E0,0E0],"parents":[2147483647,0,0,1,1,4,4],"right_children":[2,4,-1,-1,6,-1,-1],"split_conditions":[5E-1,6.3180466E1,2.4032492E-2,9.844564E-3,1.27545944E2,-1.9189099E-2,-0E0],"split_indices":[3,13,0,0,4,0,0],"split_type":[0,0,0,0,0,0,0],"sum_hessian":[1.7512056E1,1.2859917E1,4.65214E0,3.0030823E0,9.856834E0,6.8489814E0,3.0078526E0],"tree_param":{"num_deleted":"0","num_feature":"14","num_nodes":"7","size_leaf_vector":"0"}},{"base_weights":[7.3311254E-2,7.6289463E-1,-2.4668242E-1,-5.493984E-1,3.462521E-1,-8.2533054E-2,-6.540481E-1],"categories":[],"categories_nodes":[],"categories_segments":[],"categories_sizes":[],"default_left":[1,0,1,1,0,1,1],"id":113,"left_children":[1,-1,3,-1,-1,-1,-1],"loss_changes":[5.102725E0,0E0,3.1469512E0,6.9018364E-2,0E0,0E0,0E0],"parents":[2147483647,0,0,2,2,3,3],"right_children":[2,-1,4,-1,-1,-1,-1],"split_conditions":[1.0174999E0,2.2886839E-2,1.2968221E0,-1.6481953E-2,1.0387563E-2,-2.4759916E-3,-1.9621443E-2],"split_indices":[2,0,6,5,0,2147483647,2147483647],"split_type":[0,0,0,0,0,0,0],"sum_hessian":[1.8249187E1,5.4020867E0,1.2847101E1,9.160451E0,3.6866508E0,3.2072716E0,5.9531794E0],"tree_param":{"num_deleted":"2","num_feature":"14","num_nodes":"7","size_leaf_vector":"0"}},{"base_weights":[4.6896406E-2,-2.5322026E-1,7.9452133E-1,1.2496612E-1,-6.5224767E-1,4.302973E-1,-1.7662448E-1],"categories":[],"categories_nodes":[],"categories_segments":[],"categories_sizes":[],"default_left":[1,1,0,1,0,0,0],"id":114,"left_children":[1,3,-1,5,-1,-1,-1],"loss_changes":[5.0968866E0,2.7065897E0,0E0,1.088429E0,0E0,0E0,0E0],"parents":[2147483647,0,0,1,1,3,3],"right_children":[2,4,-1,6,-1,-1,-1],"split_conditions":[5E-1,1.3703886E1,2.3835639E-2,8.0607376E1,-1.956743E-2,1.2908918E-2,-5.298734E-3],"split_indices":[3,7,0,13,0,0,0],"split_type":[0,0,0,0,0,0,0],"sum_hessian":[1.7716387E1,1.3108215E1,4.6081724E0,6.7917733E0,6.316442E0,3.7746572E0,3.017116E0],"tree_param":{"num_deleted":"0","num_feature":"14","num_nodes":"7","size_leaf_vector":"0"}},{"base_weights":[4.097324E-2,-2.3645669E-1,7.514563E-1,2.8272396E-1,-6.2473655E-1],"categories":[],"categories_nodes":[],"categories_segments":[],"categories_sizes":[],"default_left":[1,1,0,0,0],"id":115,"left_children":[1,3,-1,-1,-1],"loss_changes":[4.340743E0,3.4708128E0,0E0,0E0,0E0],"parents":[2147483647,0,0,1,1],"right_children":[2,4,-1,-1,-1],"split_conditions":[5E-1,1.285E1,2.254369E-2,8.481719E-3,-1.8742096E-2],"split_indices":[10,7,0,0,0],"split_type":[0,0,0,0,0],"sum_hessian":[1.69127E1,1.2616739E1,4.295962E0,5.080042E0,7.536698E0],"tree_param":{"num_deleted":"0","num_feature":"14","num_nodes":"5","size_leaf_vector":"0"}},{"base_weights":[5.701179E-2,-2.544306E-1,7.953804E-1,1.6233443E-1,-5.5787724E-1],"categories":[],"categories_nodes":[],"categories_segments":[],"categories_sizes":[],"default_left":[1,1,0,0,0],"id":116,"left_children":[1,3,-1,-1,-1],"loss_changes":[5.1564856E0,2.243645E0,0E0,0E0,0E0],"parents":[2147483647,0,0,1,1],"right_children":[2,4,-1,-1,-1],"split_conditions":[5E-1,1.285E1,2.3861412E-2,4.870033E-3,-1.6736317E-2],"split_indices":[3,7,0,0,0],"split_type":[0,0,0,0,0],"sum_hessian":[1.7487242E1,1.2745063E1,4.7421794E0,5.0674977E0,7.677565E0],"tree_param":{"num_deleted":"0","num_feature":"14","num_nodes":"5","size_leaf_vector":"0"}},{"base_weights":[1.2781814E-2,7.180125E-1,-3.0009001E-1,2.1489911E-1,-6.39296E-1],"categories":[],"categories_nodes":[],"categories_segments":[],"categories_sizes":[],"default_left":[1,0,1,0,0],"id":117,"left_children":[1,-1,3,-1,-1],"loss_changes":[4.7537456E0,0E0,2.9036372E0,0E0,0E0],"parents":[2147483647,0,0,2,2],"right_children":[2,-1,4,-1,-1],"split_conditions":[1.0174999E0,2.1540375E-2,6.8829544E1,6.446973E-3,-1.9178879E-2],"split_indices":[2,0,13,0,0],"split_type":[0,0,0,0,0],"sum_hessian":[1.664449E1,4.8102326E0,1.1834256E1,4.405158E0,7.429098E0],"tree_param":{"num_deleted":"0","num_feature":"14","num_nodes":"5","size_leaf_vector":"0"}},{"base_weights":[7.564492E-2,-2.019382E-1,7.6961225E-1,2.7357468E-1,-5.8485234E-1],"categories":[],"categories_nodes":[],"categories_segments":[],"categories_sizes":[],"default_left":[1,1,0,0,0],"id":118,"left_children":[1,3,-1,-1,-1],"loss_changes":[4.097412E0,3.0353112E0,0E0,0E0,0E0],"parents":[2147483647,0,0,1,1],"right_children":[2,4,-1,-1,-1],"split_conditions":[5E-1,1.285E1,2.3088368E-2,8.20724E-3,-1.754557E-2],"split_indices":[11,7,0,0,0],"split_type":[0,0,0,0,0],"sum_hessian":[1.6183468E1,1.2057898E1,4.12557E0,5.0508876E0,7.00701E0],"tree_param":{"num_deleted":"0","num_feature":"14","num_nodes":"5","size_leaf_vector":"0"}},{"base_weights":[4.666845E-2,7.346201E-1,-2.5604227E-1,3.532901E-1,-5.2723E-1,-7.755398E-2,-6.224741E-1],"categories":[],"categories_nodes":[],"categories_segments":[],"categories_sizes":[],"default_left":[1,0,1,0,1,1,1],"id":119,"left_children":[1,-1,3,-1,-1,-1,-1],"loss_changes":[4.5956473E0,0E0,2.8143418E0,0E0,3.4491062E-2,0E0,0E0],"parents":[2147483647,0,0,2,2,4,4],"right_children":[2,-1,4,-1,-1,-1,-1],"split_conditions":[1.0174999E0,2.2038603E-2,6.3593384E1,1.0598703E-2,-1.58169E-2,-2.3266193E-3,-1.867422E-2],"split_indices":[2,0,13,0,5,2147483647,2147483647],"split_type":[0,0,0,0,0,0,0],"sum_hessian":[1.7112434E1,4.861696E0,1.2250739E1,3.0187218E0,9.2320175E0,3.1654022E0,6.066615E0],"tree_param":{"num_deleted":"2","num_feature":"14","num_nodes":"7","size_leaf_vector":"0"}},{"base_weights":[1.2998621E-1,-1.606125E-1,7.807636E-1,2.0408443E-1,-5.501221E-1],"categories":[],"categories_nodes":[],"categories_segments":[],"categories_sizes":[],"default_left":[1,1,0,0,0],"id":120,"left_children":[1,3,-1,-1,-1],"loss_changes":[4.020921E0,2.3544436E0,0E0,0E0,0E0],"parents":[2147483647,0,0,1,1],"right_children":[2,4,-1,-1,-1],"split_conditions":[5E-1,4.201879E1,2.3422908E-2,6.1225328E-3,-1.6503662E-2],"split_indices":[3,8,0,0,0],"split_type":[0,0,0,0,0],"sum_hessian":[1.6295977E1,1.1775722E1,4.520255E0,5.9103265E0,5.865395E0],"tree_param":{"num_deleted":"0","num_feature":"14","num_nodes":"5","size_leaf_vector":"0"}},{"base_weights":[1.354325E-1,7.3311764E-1,-1.6229947E-1,-4.6299744E-1,3.6577392E-1,-6.2586296E-1,-0E0],"categories":[],"categories_nodes":[],"categories_segments":[],"categories_sizes":[],"default_left":[1,0,1,1,0,0,0],"id":121,"left_children":[1,-1,3,5,-1,-1,-1],"loss_changes":[3.7113566E0,0E0,2.4575095E0,4.3381023E-1,0E0,0E0,0E0],"parents":[2147483647,0,0,2,2,3,3],"right_children":[2,-1,4,6,-1,-1,-1],"split_conditions":[1.0174999E0,2.1993529E-2,1.2968221E0,1.2095465E2,1.0973217E-2,-1.8775888E-2,-0E0],"split_indices":[2,0,6,4,0,0,0],"split_type":[0,0,0,0,0,0,0],"sum_hessian":[1.5915024E1,4.8777714E0,1.1037252E1,7.7930193E0,3.244233E0,4.466883E0,3.3261364E0],"tree_param":{"num_deleted":"0","num_feature":"14","num_nodes":"7","size_leaf_vector":"0"}},{"base_weights":[5.4256734E-2,-2.4778253E-1,7.751332E-1,-5.191052E-1,2.8380242E-1,-6.4273953E-1,-2.1741131E-2],"categories":[],"categories_nodes":[],"categories_segments":[],"categories_sizes":[],"default_left":[1,1,0,1,0,0,0],"id":122,"left_children":[1,3,-1,5,-1,-1,-1],"loss_changes":[4.714743E0,2.4589405E0,0E0,2.9927707E-1,0E0,0E0,0E0],"parents":[2147483647,0,0,1,1,3,3],"right_children":[2,4,-1,6,-1,-1,-1],"split_conditions":[5E-1,1.2968221E0,2.3253996E-2,1.285E2,8.514073E-3,-1.9282186E-2,-6.5223395E-4],"split_indices":[3,6,0,4,0,0,0],"split_type":[0,0,0,0,0,0,0],"sum_hessian":[1.667856E1,1.2190026E1,4.4885345E0,8.724533E0,3.4654932E0,5.714215E0,3.010318E0],"tree_param":{"num_deleted":"0","num_feature":"14","num_nodes":"7",